{
    "fc1.weight": [
        [
            -0.008222082629799843,
            -0.0266962181776762,
            -0.024857910349965096,
            -0.016642142087221146,
            -0.02761700376868248,
            0.015261808410286903,
            0.0014060991816222668,
            -0.00362369860522449,
            -0.028797563165426254,
            -0.0021256678737699986,
            -0.0034384431783109903,
            -0.013511721976101398,
            0.022739872336387634,
            0.019575199112296104,
            -0.008676241151988506,
            -0.009172802790999413,
            0.024546565487980843,
            -0.0011522856075316668,
            -0.007737543433904648,
            -0.031232455745339394,
            0.015291274525225163,
            0.002893711905926466,
            0.008729360066354275,
            0.034173883497714996,
            0.020948071032762527,
            0.013773629441857338,
            0.018529390916228294,
            -0.02595122903585434,
            0.00012706858979072422,
            -0.022359546273946762,
            -0.022005457431077957,
            -0.01746608130633831,
            0.034012194722890854,
            -0.02940862812101841,
            0.0038224663585424423,
            -0.023608803749084473,
            -0.03763892874121666,
            -0.014305946417152882,
            0.027483753859996796,
            -0.002678259275853634,
            0.009661502204835415,
            0.02998390607535839,
            -0.018790394067764282,
            0.01664065755903721,
            -0.020366806536912918,
            0.02272268757224083,
            0.02190394327044487,
            -0.02034035511314869,
            -0.034711893647909164,
            0.014542248100042343,
            -0.019560523331165314,
            -0.021882472559809685,
            -0.033324386924505234,
            -0.017327791079878807,
            -0.013949424959719181,
            -0.034866731613874435,
            -0.019607076421380043,
            0.008416942320764065,
            -0.01983628049492836,
            0.014723863452672958,
            0.03180265054106712,
            0.03161512315273285,
            0.00954356137663126,
            0.012546372599899769,
            -0.022970451042056084,
            0.003772185882553458,
            0.024458730593323708,
            -0.027795525267720222,
            -0.028998158872127533,
            0.015310137532651424,
            0.026739375665783882,
            0.004906975198537111,
            -0.027409298345446587,
            -0.03617739677429199,
            -0.018246781080961227,
            -0.011398578062653542,
            -0.004525796044617891,
            -0.028409792110323906,
            -0.01549550611525774,
            0.03461115062236786,
            -0.032383643090724945,
            -0.03273780271410942,
            -0.02445940114557743,
            -0.014340550638735294,
            -0.026307059451937675,
            -0.0065742009319365025,
            -0.005336402449756861,
            -0.01110929250717163,
            -0.005015428178012371,
            0.01645699329674244,
            -0.024305354803800583,
            0.005295747425407171,
            0.013403136283159256,
            -0.00034853030228987336,
            0.006225347053259611,
            0.008636421523988247,
            -0.026693563908338547,
            -0.03356997296214104,
            -0.02080925926566124,
            0.002194507047533989,
            -0.015890954062342644,
            -0.009495725855231285,
            0.011689402163028717,
            0.0003435606195125729,
            0.033245161175727844,
            -0.004383559338748455,
            -0.0012300581438466907,
            0.027391808107495308,
            0.02595173381268978,
            0.01657005026936531,
            -0.034237176179885864,
            -0.01215821597725153,
            -0.0077073834836483,
            -0.030623162165284157,
            0.002601546933874488,
            -0.02946419268846512,
            0.03155045583844185,
            0.029528476297855377,
            0.010053349658846855,
            -0.0034098688047379255,
            0.01145552471280098,
            0.013090772554278374,
            0.02131820097565651,
            0.06557727605104446,
            0.012985102832317352,
            -0.012291898019611835,
            -0.024622423574328423,
            0.015949612483382225,
            0.014486372470855713,
            -0.00989026390016079,
            -0.043409500271081924,
            -0.021799733862280846,
            0.028703901916742325,
            0.012972190044820309,
            -0.00820733979344368,
            0.03567279130220413,
            0.037186332046985626,
            0.03780253604054451,
            -0.012668983079493046,
            -0.03443368151783943,
            0.014625396579504013,
            -0.010873855091631413,
            -0.03086557425558567,
            -0.0009033288806676865,
            -0.010909711010754108,
            -0.01746857911348343,
            -0.012794312089681625,
            0.028365569189190865,
            0.011352168396115303,
            0.059713445603847504,
            0.0677211731672287,
            0.07586714625358582,
            -0.011883976869285107,
            -0.10186135768890381,
            -0.11422614008188248,
            -0.08791766315698624,
            0.0009519844315946102,
            0.02700936608016491,
            0.03909861668944359,
            0.021540848538279533,
            0.016571277752518654,
            0.031023096293210983,
            0.006324246525764465,
            0.012177039869129658,
            0.023278364911675453,
            -0.030986342579126358,
            0.004097349941730499,
            -0.013702291063964367,
            -0.030068382620811462,
            0.0014886516146361828,
            -0.020921844989061356,
            0.027157269418239594,
            0.013875989243388176,
            -0.0006449592765420675,
            0.06606664508581161,
            0.07993966341018677,
            0.1060076579451561,
            0.08155609667301178,
            0.04669632017612457,
            0.027421846985816956,
            -0.04450012743473053,
            -0.16306988894939423,
            -0.14198093116283417,
            -0.09742944687604904,
            0.055266622453927994,
            0.11308347433805466,
            0.04075239971280098,
            0.08558766543865204,
            -0.01625368930399418,
            0.0009962570620700717,
            0.007040091324597597,
            -0.0031488563399761915,
            0.03683412820100784,
            -0.02327965758740902,
            -0.0019258002284914255,
            -0.029989071190357208,
            0.003491027280688286,
            0.03450780734419823,
            0.02597902901470661,
            0.026764273643493652,
            0.005161184351891279,
            0.03302335739135742,
            0.01971956342458725,
            0.11290469765663147,
            0.10928453505039215,
            0.08768396824598312,
            0.016324704512953758,
            -0.02608872763812542,
            -0.1361548900604248,
            -0.15635628998279572,
            -0.13920822739601135,
            -0.02647499181330204,
            0.07264117896556854,
            0.10107575356960297,
            0.06079726666212082,
            0.02477440983057022,
            0.017504386603832245,
            -0.041062384843826294,
            -0.026343494653701782,
            -0.020290223881602287,
            -0.011861992999911308,
            0.02447795309126377,
            -0.009482513181865215,
            -0.030271463096141815,
            0.027022382244467735,
            -0.02066056616604328,
            0.012659830041229725,
            0.010128272697329521,
            0.01257943082600832,
            0.04444907605648041,
            0.06316057592630386,
            0.053949594497680664,
            0.09636350721120834,
            0.11100633442401886,
            0.058333512395620346,
            -0.025259386748075485,
            -0.11180229485034943,
            -0.1587206870317459,
            -0.08492038398981094,
            0.03605370223522186,
            0.08667587488889694,
            0.0331372506916523,
            0.046762123703956604,
            0.01009554322808981,
            -0.03584969788789749,
            0.007761908695101738,
            -0.015183980576694012,
            -0.03667745739221573,
            -0.011692293919622898,
            0.015091593377292156,
            0.027176817879080772,
            -0.02817714400589466,
            -0.026924585923552513,
            0.009707539342343807,
            -0.028011664748191833,
            0.02290959469974041,
            -0.03290567919611931,
            0.00722806341946125,
            -0.001532254391349852,
            0.034904513508081436,
            0.015347183682024479,
            0.07006089389324188,
            0.03048131614923477,
            -0.04834934324026108,
            -0.10605651140213013,
            -0.1420818567276001,
            -0.1243753656744957,
            0.005213434807956219,
            0.03287770599126816,
            0.03483100235462189,
            -0.03309892117977142,
            -0.036878958344459534,
            -0.04682782292366028,
            -0.0026111872866749763,
            -0.04133272171020508,
            -0.020950989797711372,
            -0.013430090621113777,
            0.03703610599040985,
            -0.004622973967343569,
            -0.022471318021416664,
            -0.0023442935198545456,
            0.008396205492317677,
            0.00982607901096344,
            0.023307034745812416,
            0.022588074207305908,
            0.01920677162706852,
            -0.04885271191596985,
            0.012806348502635956,
            0.06802372634410858,
            0.11895211040973663,
            0.08627559244632721,
            -0.01084328256547451,
            -0.11080442368984222,
            -0.19289715588092804,
            -0.1548275351524353,
            -0.029107069596648216,
            0.0038899965584278107,
            0.01768665760755539,
            -0.05369460955262184,
            0.009397871792316437,
            -0.03684850037097931,
            -0.022173820063471794,
            -0.052442487329244614,
            -0.057578664273023605,
            -0.03928918018937111,
            -0.02622012048959732,
            -0.008775961585342884,
            0.01769031584262848,
            0.004147680476307869,
            -0.025804681703448296,
            -0.02607773058116436,
            -0.00789229292422533,
            -0.007179765030741692,
            0.030479468405246735,
            -5.9147216234123334e-05,
            -0.009384464472532272,
            0.023920346051454544,
            0.1402297019958496,
            0.16499865055084229,
            0.06864913552999496,
            -0.1100599616765976,
            -0.1419704258441925,
            -0.1220998466014862,
            0.024990450590848923,
            0.010493005625903606,
            -0.04014626890420914,
            -0.06252527236938477,
            -0.04819455370306969,
            -0.036756470799446106,
            -0.02417738176882267,
            -0.005529177840799093,
            -0.018254095688462257,
            -0.05383063480257988,
            -0.027004411444067955,
            -0.014981459826231003,
            -0.013739002868533134,
            -0.010260169394314289,
            -0.017579607665538788,
            -0.00328263221308589,
            -0.02378227561712265,
            -0.013482258655130863,
            0.0023610438220202923,
            0.026386046782135963,
            0.07976986467838287,
            0.017218556255102158,
            0.11049830913543701,
            0.1038178950548172,
            0.06320419162511826,
            -0.045865219086408615,
            -0.11040300130844116,
            -0.07384542375802994,
            -0.005900286603718996,
            0.012544536031782627,
            0.011316628195345402,
            -0.01742982119321823,
            0.01116578932851553,
            -0.030766978859901428,
            0.024166781455278397,
            0.01791520230472088,
            -0.03446568548679352,
            -0.046415604650974274,
            -0.003988439682871103,
            -0.0064833322539925575,
            0.007714130450040102,
            -0.0316186398267746,
            0.029070857912302017,
            -0.01525793131440878,
            -0.027042871341109276,
            -0.04710078611969948,
            0.055662911385297775,
            0.0886218249797821,
            0.03646576777100563,
            0.045324504375457764,
            0.04046269506216049,
            0.06436830013990402,
            0.03238590806722641,
            -0.03983970358967781,
            -0.04795248061418533,
            -0.07838470488786697,
            -0.00994426105171442,
            -0.029168568551540375,
            0.028921334072947502,
            -0.007032269146293402,
            0.041616447269916534,
            0.03294507786631584,
            0.0402672179043293,
            0.04563203454017639,
            0.046392835676670074,
            0.012001066468656063,
            0.010343550704419613,
            -0.0296444334089756,
            -0.014798713847994804,
            0.021329199895262718,
            0.005842386279255152,
            0.027439244091510773,
            0.021667731925845146,
            0.020442526787519455,
            0.0323442667722702,
            0.08336573839187622,
            0.06895411014556885,
            0.05525113269686699,
            0.03715388476848602,
            0.031960636377334595,
            0.005746320355683565,
            -0.0011214414844289422,
            -0.03816154971718788,
            -0.018313869833946228,
            -0.00032172451028600335,
            -0.049862951040267944,
            -0.004783552139997482,
            0.005045327357947826,
            0.024500500410795212,
            0.015410859137773514,
            0.02195076458156109,
            0.05343230813741684,
            0.0349571630358696,
            0.03193230554461479,
            0.023630043491721153,
            0.0026739775203168392,
            -0.014785971492528915,
            0.010920832864940166,
            0.01926804520189762,
            0.034064363688230515,
            -0.01870858669281006,
            -0.007335633039474487,
            0.05390693247318268,
            0.028548281639814377,
            0.08176839351654053,
            0.08006870746612549,
            0.05454206094145775,
            0.04108787700533867,
            0.04817935824394226,
            0.017817486077547073,
            0.058880358934402466,
            0.053762853145599365,
            -0.018294742330908775,
            0.005377423949539661,
            -0.03526446968317032,
            -0.05630340054631233,
            0.004110985901206732,
            -0.010562088340520859,
            0.01537766121327877,
            0.08613280206918716,
            0.08587130159139633,
            0.022093717008829117,
            -0.03969263657927513,
            0.006680627353489399,
            0.0161270909011364,
            0.0012362194247543812,
            0.017401445657014847,
            0.009582974947988987,
            -0.030068695545196533,
            -0.014491664245724678,
            -0.009271129034459591,
            0.014108498580753803,
            0.04068193957209587,
            0.02297554910182953,
            0.0346393845975399,
            0.03816487640142441,
            0.033862024545669556,
            0.0623038224875927,
            0.030076004564762115,
            0.028977451846003532,
            0.03730367124080658,
            -0.0015565598150715232,
            -0.04218180477619171,
            -0.07625280320644379,
            -0.02250663749873638,
            0.01989855244755745,
            0.038048505783081055,
            0.059708114713430405,
            0.05981609970331192,
            0.05081558600068092,
            -0.002685398096218705,
            -0.005421958863735199,
            -0.017692405730485916,
            -0.014955291524529457,
            0.011642923578619957,
            0.03187419846653938,
            -0.03604355454444885,
            -0.01711663417518139,
            -0.025805067270994186,
            0.021333305165171623,
            0.0016443929634988308,
            0.035868216305971146,
            0.020544514060020447,
            -0.029830515384674072,
            -0.059207528829574585,
            -0.012294545769691467,
            0.014123162254691124,
            0.03930729627609253,
            0.014520086348056793,
            0.0647287517786026,
            -0.01779101975262165,
            -0.044519178569316864,
            -0.06622718274593353,
            0.03249688446521759,
            0.061036866158246994,
            0.05713784694671631,
            0.05198877677321434,
            0.05155199393630028,
            -0.006213901098817587,
            0.027609428390860558,
            -0.01975136250257492,
            0.0298009030520916,
            0.027326131239533424,
            -0.016370970755815506,
            0.005934034939855337,
            -0.016430195420980453,
            -0.020659608766436577,
            -0.038508012890815735,
            -0.02565038949251175,
            -0.027283862233161926,
            -0.0003997715248260647,
            -0.06071058660745621,
            -0.06806766241788864,
            -0.010500878095626831,
            0.0315566249191761,
            0.04269421100616455,
            -0.003699402790516615,
            -0.005938258022069931,
            -0.05942985415458679,
            -0.059267882257699966,
            -0.028619155287742615,
            0.039158254861831665,
            0.038935933262109756,
            0.0801483541727066,
            0.050838928669691086,
            0.02512497641146183,
            -0.023445462808012962,
            -0.008953261189162731,
            -0.021784290671348572,
            0.016796045005321503,
            -0.0050663030706346035,
            -0.027400752529501915,
            -0.023690108209848404,
            -0.04109341651201248,
            0.0016855691792443395,
            0.00627502566203475,
            -0.07544546574354172,
            -0.052093755453825,
            -0.0427103191614151,
            0.007172178942710161,
            -0.05560387298464775,
            -0.031149137765169144,
            0.027033720165491104,
            0.04879344627261162,
            -0.008057835511863232,
            -0.06608838587999344,
            -0.04740781709551811,
            -0.05146017298102379,
            0.02274901047348976,
            0.049942824989557266,
            0.11675255000591278,
            0.05519241839647293,
            0.05181219428777695,
            -0.015330755151808262,
            -0.002662389073520899,
            -0.025544535368680954,
            0.007211640477180481,
            -0.007731450721621513,
            0.02132621593773365,
            -0.011058325879275799,
            -0.03658481687307358,
            0.0018421021522954106,
            -0.005554674658924341,
            -0.0006442059529945254,
            -0.049048393964767456,
            -0.012458531185984612,
            -0.03542223945260048,
            -0.0033149132505059242,
            -0.02754237875342369,
            -0.04535045102238655,
            0.03020014613866806,
            0.0584239587187767,
            0.016827473416924477,
            -0.055514078587293625,
            -0.0028971126303076744,
            0.03536957874894142,
            0.05707286670804024,
            0.12616287171840668,
            0.06803138554096222,
            0.05284610018134117,
            0.047710102051496506,
            -0.027808217331767082,
            0.016759615391492844,
            -0.02456149458885193,
            0.03512338548898697,
            -0.02009471505880356,
            -0.03031064011156559,
            0.00950227677822113,
            -0.015351662412285805,
            -0.02438187226653099,
            -0.008082261309027672,
            -0.008192632347345352,
            -0.025881139561533928,
            -0.004003508482128382,
            0.011791595257818699,
            -0.01883951760828495,
            -0.05802871286869049,
            -0.04362618550658226,
            0.025968682020902634,
            -0.01669551059603691,
            0.040151674300432205,
            0.01665673591196537,
            0.03500133007764816,
            0.05669296532869339,
            0.08305259048938751,
            0.10391774028539658,
            0.07624068856239319,
            0.06283988058567047,
            0.027394725009799004,
            -0.028696831315755844,
            -0.009394745342433453,
            -0.025249378755688667,
            -0.009189164265990257,
            -0.02170708402991295,
            0.004963367246091366,
            0.02519519068300724,
            -0.028539447113871574,
            0.03042788803577423,
            0.015516572631895542,
            0.02056265063583851,
            -0.019896287471055984,
            -0.041759688407182693,
            0.014479820616543293,
            -0.06252731382846832,
            -0.08249083906412125,
            -0.03529517725110054,
            -0.029897909611463547,
            -0.002495643449947238,
            0.058324411511421204,
            0.042939502745866776,
            0.06626513600349426,
            0.06343229115009308,
            0.110238216817379,
            0.0790526270866394,
            0.06032155454158783,
            -0.0026952947955578566,
            -0.004315280821174383,
            -0.026868216693401337,
            -0.006474805995821953,
            -0.019428322091698647,
            0.02342228777706623,
            0.010308649390935898,
            0.010459083132445812,
            -0.0125731797888875,
            -0.018807226791977882,
            0.015848835930228233,
            0.022259453311562538,
            -0.036439571529626846,
            -0.04902048036456108,
            -0.010407702066004276,
            0.005832069553434849,
            -0.01125048752874136,
            -0.07969479262828827,
            -0.004320613108575344,
            0.0028106961399316788,
            0.06379595398902893,
            0.0433533601462841,
            0.10370893031358719,
            0.07929165661334991,
            0.029741857200860977,
            0.06499911099672318,
            0.033557191491127014,
            -0.01283225603401661,
            0.01808900572359562,
            -0.01785174570977688,
            0.021569136530160904,
            0.005230320151895285,
            0.011529839597642422,
            -0.016680551692843437,
            -0.014013014733791351,
            0.029979374259710312,
            0.01895606517791748,
            -0.02879580296576023,
            0.020089158788323402,
            -0.008289800956845284,
            0.017998183146119118,
            0.01881524920463562,
            -0.004473703447729349,
            -0.053876254707574844,
            -0.05482478812336922,
            -0.023730872198939323,
            -0.04743550345301628,
            0.044977881014347076,
            0.021702291443943977,
            0.025215350091457367,
            0.003977653104811907,
            0.019998066127300262,
            0.01802081987261772,
            0.0065989806316792965,
            0.015515844337642193,
            -0.020724792033433914,
            -0.007282367907464504,
            0.025766480714082718,
            0.018584419041872025,
            -0.0006595060112886131,
            -0.022423231974244118,
            -0.03380243107676506,
            -0.011266074143350124,
            -0.029738951474428177,
            0.009416650049388409,
            -0.01989346742630005,
            -0.009758328087627888,
            0.022584879770874977,
            0.01597513072192669,
            -0.035871829837560654,
            -0.04194943234324455,
            -0.015203136019408703,
            -0.020613517612218857,
            -0.04275704175233841,
            0.004571150057017803,
            -0.016988256946206093,
            -0.010029316879808903,
            0.025212297216057777,
            -0.009320979937911034,
            -0.0009740072418935597,
            -0.02488066256046295,
            -0.0595039464533329,
            -0.06292349100112915,
            -0.05536361783742905,
            -0.024893339723348618,
            -0.01398478727787733,
            -0.020539522171020508,
            -0.014196696691215038,
            -0.024073416367173195,
            0.03494113311171532,
            -0.02564270608127117,
            -0.005307338200509548,
            -0.020440859720110893,
            -0.000288022420136258,
            0.03357984498143196,
            0.007870383560657501,
            -0.005601093638688326,
            -0.017594486474990845,
            -0.023578032851219177,
            0.013463679701089859,
            -0.015930814668536186,
            -0.04818195477128029,
            -0.05291937664151192,
            -0.04110586643218994,
            -0.06831689178943634,
            -0.030275583267211914,
            -0.023384390398859978,
            -0.038200266659259796,
            -0.06448151171207428,
            -0.056500762701034546,
            -0.016566427424550056,
            -0.04061831906437874,
            -0.029874103143811226,
            -0.0326358824968338,
            -0.029980992898344994,
            0.021560776978731155,
            -0.03357307240366936,
            0.022728201001882553,
            -0.010476479306817055,
            0.03250543028116226,
            -0.017693448811769485,
            0.0016753248637542129,
            0.019394103437662125,
            -0.03473500907421112,
            -0.013007516972720623,
            -0.015206731855869293,
            0.011492281220853329,
            0.01071034837514162,
            -0.034269869327545166,
            0.029507135972380638,
            0.023752471432089806,
            -0.006589879281818867,
            0.026269491761922836,
            0.030307695269584656,
            -0.0009829775663092732,
            -0.0016492917202413082,
            0.02099229022860527,
            -0.008972534909844398,
            -0.0121097257360816,
            -0.010572215542197227,
            -0.024782434105873108,
            -0.011994665488600731,
            -0.018474707379937172,
            0.021795960143208504,
            0.006569462362676859,
            -0.013779793865978718
        ],
        [
            -0.0048937927931547165,
            -0.03037252277135849,
            0.03445347771048546,
            -0.02292448841035366,
            0.004595322534441948,
            0.012538467533886433,
            0.0010695670498535037,
            0.00476877624168992,
            0.0243366789072752,
            -0.024070216342806816,
            -0.035374391824007034,
            0.017740126699209213,
            0.0088494922965765,
            -0.028392858803272247,
            0.018931983038783073,
            -0.00752470176666975,
            -0.03330988436937332,
            0.02232084982097149,
            0.012059876695275307,
            0.009118872694671154,
            0.025545043870806694,
            0.007330592721700668,
            -0.00205801660194993,
            0.0034363102167844772,
            -0.007837879471480846,
            0.0033677774481475353,
            -0.03376559913158417,
            -0.00730316573753953,
            -0.01447015255689621,
            0.0030838039238005877,
            -0.007847854867577553,
            -0.014669321477413177,
            -0.03230716288089752,
            -0.014218458905816078,
            -0.029036911204457283,
            -0.023192856460809708,
            -0.000634802330750972,
            -0.005943299271166325,
            0.016995714977383614,
            -0.02368251048028469,
            -0.02495354413986206,
            -0.02899010293185711,
            -0.03801919147372246,
            -0.02888866700232029,
            -0.014249627478420734,
            0.0005167158087715507,
            -0.01655679941177368,
            0.014503572136163712,
            0.007878046482801437,
            0.032320573925971985,
            0.0018514328403398395,
            0.00640915660187602,
            -0.018042011186480522,
            -0.015492154285311699,
            0.029651055112481117,
            -0.031362347304821014,
            -0.010373434983193874,
            -0.03430046886205673,
            -0.023251943290233612,
            -0.03264830261468887,
            -0.017966685816645622,
            -0.01816561631858349,
            0.02712269499897957,
            -0.00012086930655641481,
            -0.012417241930961609,
            0.011060941964387894,
            0.024952281266450882,
            0.042600251734256744,
            -0.022431133314967155,
            0.024872709065675735,
            0.02769695408642292,
            -0.006947304587811232,
            -0.019069714471697807,
            0.0237436406314373,
            0.012606168165802956,
            0.01061335764825344,
            0.009538865648210049,
            0.01822926662862301,
            0.03130944445729256,
            0.020418860018253326,
            0.013027803972363472,
            0.028025062754750252,
            0.0010764598846435547,
            -0.018185995519161224,
            -0.006522775162011385,
            -0.014981862157583237,
            -0.004073659423738718,
            -0.02950887754559517,
            0.009651013650000095,
            -0.009073300287127495,
            0.002318060491234064,
            0.026302380487322807,
            0.03310590237379074,
            0.04936867579817772,
            0.01991376280784607,
            0.023812925443053246,
            0.058670397847890854,
            0.028528960421681404,
            -0.015923960134387016,
            -0.005053313449025154,
            -0.001780892489477992,
            0.006242778152227402,
            0.04156878590583801,
            0.012722406536340714,
            0.01604481041431427,
            -0.01962094008922577,
            0.001047072815708816,
            0.024388978257775307,
            0.010594973340630531,
            -0.012911460362374783,
            0.01514896284788847,
            0.015421007759869099,
            0.030332038179039955,
            0.016759047284722328,
            -0.020273851230740547,
            0.03497248888015747,
            -0.02992110885679722,
            0.03503178805112839,
            -0.0014147681649774313,
            0.011467762291431427,
            0.02790258638560772,
            0.04345298185944557,
            0.030949898064136505,
            0.009250257164239883,
            0.03677985817193985,
            0.01648758351802826,
            -0.020823314785957336,
            -0.018197964876890182,
            -0.03915552794933319,
            0.02435882017016411,
            -0.004333520773798227,
            -0.017522864043712616,
            -0.023797567933797836,
            -0.0050459615886211395,
            -0.03513934463262558,
            -0.013251829892396927,
            0.027485722675919533,
            -0.025804800912737846,
            0.03147493675351143,
            -0.03158480301499367,
            -0.019258035346865654,
            0.03564394637942314,
            0.030688753351569176,
            -0.007975316606462002,
            -0.008066058158874512,
            -0.02148730866611004,
            -0.014706884510815144,
            0.024874288588762283,
            0.03416212275624275,
            0.06312375515699387,
            0.042625509202480316,
            0.05507180094718933,
            0.03632047399878502,
            -0.04771057143807411,
            -0.03349456936120987,
            -0.0019511290593072772,
            -0.02713417448103428,
            -0.03616410866379738,
            -0.026265336200594902,
            -0.031460460275411606,
            0.009248250164091587,
            -0.061627645045518875,
            -0.05983396992087364,
            -0.046825557947158813,
            -0.018228694796562195,
            -0.020572252571582794,
            0.023775026202201843,
            0.02998286858201027,
            -0.008313647471368313,
            0.004436462186276913,
            0.033351100981235504,
            -0.030629107728600502,
            0.005015201400965452,
            0.023654095828533173,
            0.04356828331947327,
            0.028660789132118225,
            0.056810926645994186,
            0.09237222373485565,
            0.05308915302157402,
            0.05520296469330788,
            0.04084761068224907,
            0.012252463959157467,
            -0.04205812141299248,
            -0.0034916994627565145,
            0.05198962241411209,
            0.039790909737348557,
            -0.029886392876505852,
            0.006533030886203051,
            -0.04667150229215622,
            -0.046060021966695786,
            -0.05141085758805275,
            -0.061008520424366,
            -0.008693275041878223,
            -0.041144635528326035,
            0.026734918355941772,
            -0.031293146312236786,
            0.027328062802553177,
            -0.021974939852952957,
            -0.025337884202599525,
            -0.029427096247673035,
            -0.0262261051684618,
            0.026274969801306725,
            0.03563472256064415,
            0.05379452183842659,
            0.019909946247935295,
            0.08520656079053879,
            0.08483190089464188,
            0.05444441735744476,
            0.03580627590417862,
            0.014567575417459011,
            0.06832630187273026,
            0.050143711268901825,
            0.0976523905992508,
            0.0836828276515007,
            0.04135997220873833,
            0.014501656405627728,
            0.011583425104618073,
            0.00014729140093550086,
            -0.016817504540085793,
            -0.01003993023186922,
            -0.034418582916259766,
            -0.021272314712405205,
            0.016388125717639923,
            -0.0005631620297208428,
            0.01840009167790413,
            -0.003091918770223856,
            -0.0018628265243023634,
            -0.00517867598682642,
            -0.025426683947443962,
            0.030283315107226372,
            0.0005632232641801238,
            0.04714092239737511,
            0.028316453099250793,
            0.038621217012405396,
            0.0848684161901474,
            0.07579713314771652,
            0.028014805167913437,
            0.02164873480796814,
            0.039830490946769714,
            0.05848868563771248,
            0.050263017416000366,
            0.03400883451104164,
            -0.02107858471572399,
            0.019883280619978905,
            0.024817073717713356,
            -0.026871003210544586,
            -0.005976726301014423,
            -0.041601475328207016,
            -0.06525362282991409,
            -0.008332624100148678,
            0.021795470267534256,
            -0.0003862743324134499,
            -0.02397138811647892,
            -0.023613862693309784,
            -0.02289675362408161,
            -0.007950549945235252,
            0.03658149391412735,
            -0.025486275553703308,
            -0.018117476254701614,
            -0.04188349097967148,
            0.00510798767209053,
            0.029071711003780365,
            0.019015297293663025,
            -0.04362985119223595,
            -0.05973926931619644,
            -0.08633220195770264,
            -0.06480281054973602,
            -0.0013760591391474009,
            0.025647655129432678,
            0.03754476085305214,
            -0.05318428948521614,
            0.007637449540197849,
            -0.005565325263887644,
            -0.029926670715212822,
            0.018172334879636765,
            -0.012818495742976665,
            -0.039885446429252625,
            0.0017278299201279879,
            0.01979813352227211,
            0.034904830157756805,
            0.030231673270463943,
            0.033281419426202774,
            -0.008506923913955688,
            0.024186231195926666,
            -0.009621240198612213,
            -0.06172361597418785,
            -0.09995238482952118,
            -0.09031789749860764,
            -0.057860102504491806,
            -0.02691168710589409,
            -0.08217985928058624,
            -0.13126260042190552,
            -0.19629012048244476,
            -0.15979240834712982,
            -0.08186163753271103,
            -0.011178123764693737,
            0.04285383224487305,
            0.008381458930671215,
            -0.033482883125543594,
            -0.05760596692562103,
            -0.014574488624930382,
            -0.005260942038148642,
            -0.035230208188295364,
            0.0167706198990345,
            -0.0037343075964599848,
            0.007849171757698059,
            -0.0005439924425445497,
            -0.007789078168570995,
            0.03340568020939827,
            -0.025158684700727463,
            0.012912997044622898,
            0.008195572532713413,
            -0.030815429985523224,
            -0.09504687786102295,
            -0.12263525277376175,
            -0.11329448968172073,
            -0.13756880164146423,
            -0.15381234884262085,
            -0.17569436132907867,
            -0.17678745090961456,
            -0.2015211582183838,
            -0.1998043805360794,
            -0.10160249471664429,
            -0.03169220685958862,
            0.046676039695739746,
            0.0025444787461310625,
            -0.04748144745826721,
            -0.06834779679775238,
            -0.03085898794233799,
            -0.012849160470068455,
            -0.03642379492521286,
            -0.015024363063275814,
            -0.004608143586665392,
            -0.03461546450853348,
            -0.014292093925178051,
            0.024445777758955956,
            0.0028923454228788614,
            -0.035636670887470245,
            0.002829259028658271,
            0.0006298395455814898,
            -0.052390601485967636,
            -0.10285694897174835,
            -0.15929542481899261,
            -0.16921614110469818,
            -0.18410824239253998,
            -0.24034301936626434,
            -0.1930518001317978,
            -0.13226577639579773,
            -0.14751769602298737,
            -0.06989984959363937,
            -0.0036983720492571592,
            0.015979060903191566,
            0.029790790751576424,
            -0.06730643659830093,
            -0.058675430715084076,
            -0.03692157194018364,
            -0.04081709310412407,
            -0.041347675025463104,
            0.004983396735042334,
            -0.04080348461866379,
            -0.028443684801459312,
            0.013451839797198772,
            0.02594398520886898,
            -0.029420023784041405,
            0.02228681743144989,
            -0.022403819486498833,
            0.010039110668003559,
            -0.04661132022738457,
            -0.02861998789012432,
            -0.12467838823795319,
            -0.12541981041431427,
            -0.11119820922613144,
            -0.10829583555459976,
            -0.15696224570274353,
            -0.08676189929246902,
            -0.06380803138017654,
            -0.012991392984986305,
            0.07988850772380829,
            0.03882995992898941,
            0.021108532324433327,
            0.042323753237724304,
            0.030415738001465797,
            0.021883143112063408,
            0.007241460960358381,
            -0.027738327160477638,
            0.02230740338563919,
            -0.007268564775586128,
            0.0568554513156414,
            0.019204413518309593,
            0.04005042463541031,
            -0.023844653740525246,
            0.012024062685668468,
            -0.007330645807087421,
            -0.0060498579405248165,
            0.034447137266397476,
            -0.05014145374298096,
            -0.03554171323776245,
            -0.04398881271481514,
            -0.11010889708995819,
            -0.09218145906925201,
            -0.09233038872480392,
            -0.04665229842066765,
            0.032870590686798096,
            0.03702818602323532,
            0.07340717315673828,
            0.08436992019414902,
            0.008103313855826855,
            0.040499333292245865,
            0.019551612436771393,
            0.02529750019311905,
            0.030588477849960327,
            0.03092505969107151,
            0.04349597916007042,
            0.02517499402165413,
            0.018827470019459724,
            0.04162520170211792,
            0.01579872891306877,
            0.042264193296432495,
            0.018653836101293564,
            -0.010805170983076096,
            0.02800999954342842,
            -0.002313832053914666,
            0.00892628263682127,
            0.006476400885730982,
            -0.011394872330129147,
            -0.03241000324487686,
            -0.00402509979903698,
            0.020514866337180138,
            0.027358366176486015,
            0.023780599236488342,
            0.01907302439212799,
            0.08167888969182968,
            0.056681618094444275,
            0.05598442256450653,
            0.011321794241666794,
            -0.0057693831622600555,
            0.027801573276519775,
            0.01985923945903778,
            0.039753902703523636,
            0.04770816117525101,
            0.045060835778713226,
            0.035443827509880066,
            0.05990208312869072,
            0.04621059447526932,
            0.014816055074334145,
            0.023391345515847206,
            0.0293837022036314,
            -0.03245992586016655,
            -0.027390846982598305,
            -0.010321388021111488,
            -0.024218376725912094,
            -0.029129207134246826,
            0.0101584168151021,
            0.05884180963039398,
            0.10054600983858109,
            0.07650743424892426,
            0.03587265685200691,
            0.04184134677052498,
            0.00360862142406404,
            0.05722182244062424,
            0.05238629877567291,
            0.05079515278339386,
            0.021570470184087753,
            0.03428766503930092,
            0.010036423802375793,
            0.005072326865047216,
            0.037920497357845306,
            0.06651213020086288,
            0.03351057693362236,
            0.014931075274944305,
            0.006190692540258169,
            0.021534040570259094,
            0.026173638179898262,
            0.0049378396943211555,
            -0.013303019106388092,
            0.0076190088875591755,
            -0.010109391063451767,
            0.004448324907571077,
            0.030561961233615875,
            0.03199925273656845,
            -0.0010682923020794988,
            0.042003076523542404,
            0.0644918903708458,
            0.06413585692644119,
            0.09650395810604095,
            0.09227491915225983,
            0.040336787700653076,
            0.0877813920378685,
            0.05237172544002533,
            0.066669762134552,
            -0.014314991421997547,
            0.03299311175942421,
            0.028059519827365875,
            0.026568109169602394,
            0.0501997135579586,
            0.014734831638634205,
            0.0453224703669548,
            -0.003959942609071732,
            -0.0149795887991786,
            0.0011521653505042195,
            0.02865213342010975,
            0.005579229909926653,
            0.01328381709754467,
            -0.03463992476463318,
            -0.013386959210038185,
            0.018608229234814644,
            -0.01722167432308197,
            0.03590310737490654,
            0.006929825060069561,
            0.05139040946960449,
            0.06271259486675262,
            0.04810953140258789,
            0.033507417887449265,
            0.033036764711141586,
            0.02612878754734993,
            0.045841284096241,
            0.06686323881149292,
            0.04573104903101921,
            -0.020145906135439873,
            -0.004565454088151455,
            0.05793331190943718,
            0.03895364701747894,
            0.07411203533411026,
            0.027824707329273224,
            -0.008282762952148914,
            0.018294252455234528,
            -0.04301013797521591,
            -0.016140326857566833,
            0.033502090722322464,
            0.02102814055979252,
            -0.020595869049429893,
            0.00026971116312779486,
            0.004064937122166157,
            0.028821373358368874,
            -0.023324189707636833,
            0.013316357508301735,
            0.07195413112640381,
            0.01536082848906517,
            0.016969164833426476,
            0.004004267510026693,
            0.0014023875119164586,
            0.010763652622699738,
            -0.012429806403815746,
            0.0061010331846773624,
            -0.015894340351223946,
            0.016040144488215446,
            0.03982716053724289,
            0.01824074611067772,
            0.033493924885988235,
            0.05892855301499367,
            0.006819124799221754,
            -0.033026549965143204,
            0.024251196533441544,
            -0.03429398313164711,
            0.0007583746919408441,
            -0.038324642926454544,
            0.004765863064676523,
            0.04247831925749779,
            -0.029114851728081703,
            0.014399614185094833,
            0.02935664728283882,
            -0.023959869518876076,
            0.01690146140754223,
            0.010585392825305462,
            0.07247155904769897,
            0.015579198487102985,
            0.005932711064815521,
            0.004379622638225555,
            -0.004427999258041382,
            0.027756400406360626,
            -0.053999580442905426,
            -0.04978743940591812,
            0.016052434220910072,
            0.007901497185230255,
            0.06727330386638641,
            0.060086701065301895,
            0.02292351797223091,
            -0.011985501274466515,
            -0.021827949211001396,
            -0.03313756361603737,
            -0.035380423069000244,
            -0.0014100885018706322,
            -0.02667478285729885,
            -0.007593829184770584,
            0.026720982044935226,
            0.042331673204898834,
            0.03345519304275513,
            -0.02021672949194908,
            0.021348340436816216,
            0.011858765035867691,
            -0.018123919144272804,
            0.03769944980740547,
            -0.010028897784650326,
            0.053988710045814514,
            -0.01651114970445633,
            0.025173671543598175,
            0.012986422516405582,
            -0.05421984940767288,
            -0.042769625782966614,
            -0.01727622002363205,
            0.023285022005438805,
            0.022738223895430565,
            0.045841000974178314,
            0.01942645199596882,
            0.0024208626709878445,
            -0.03619082644581795,
            -0.05638359487056732,
            0.02313694730401039,
            -0.006315498612821102,
            -0.015266488306224346,
            -0.047076985239982605,
            0.03328783065080643,
            0.03979742154479027,
            -0.016254393383860588,
            -0.02069999650120735,
            0.033726442605257034,
            -0.011870789341628551,
            -0.026944566518068314,
            -0.027790402993559837,
            0.03105335123836994,
            0.05226863920688629,
            0.05012914910912514,
            -0.006478715222328901,
            0.024737853556871414,
            -0.0023048471193760633,
            -0.011764449998736382,
            0.006115937139838934,
            -0.025574926286935806,
            -0.007189997471868992,
            -0.008337867446243763,
            -0.035042647272348404,
            -0.01464810036122799,
            -0.012843666598200798,
            -0.01719330996274948,
            -0.01971288025379181,
            -0.01282493770122528,
            -0.0323934331536293,
            -0.04378701001405716,
            0.000750152044929564,
            0.0178653746843338,
            0.002778994385153055,
            0.033990535885095596,
            -0.030565647408366203,
            0.008210355415940285,
            -0.017021916806697845,
            0.014335595071315765,
            0.030705947428941727,
            -0.032487109303474426,
            0.02533656731247902,
            0.05494647100567818,
            0.038734521716833115,
            0.05626099184155464,
            -0.04086751118302345,
            -0.056589871644973755,
            -0.04425425082445145,
            -0.0048109241761267185,
            -0.02570275403559208,
            0.015555398538708687,
            -0.05296993628144264,
            -0.03418555483222008,
            -0.07707241177558899,
            -0.06186835840344429,
            -0.07226019352674484,
            -0.0073540350422263145,
            -0.03231091797351837,
            -0.027793575078248978,
            0.004483345430344343,
            -0.03811845928430557,
            0.007645601872354746,
            -0.0034177727065980434,
            0.027729418128728867,
            0.008152306079864502,
            0.01514546386897564,
            -0.020453717559576035,
            -0.03082689270377159,
            0.004071810282766819,
            0.04952740669250488,
            0.02294977568089962,
            0.02401292882859707,
            0.04830678552389145,
            0.02638305351138115,
            0.012873511761426926,
            0.007412719540297985,
            0.0021570855751633644,
            -0.01240293774753809,
            0.014664696529507637,
            -0.009356753900647163,
            -0.026021696627140045,
            -0.0022325809113681316,
            -0.00820296723395586,
            -0.07516076415777206,
            -0.028858261182904243,
            -0.044619277119636536,
            0.011992357671260834,
            -0.0007179309031926095,
            -0.008016832172870636,
            0.021894952282309532,
            0.018160471692681313,
            -0.017243651673197746,
            -0.030204199254512787,
            0.0013630305184051394,
            -0.024333473294973373,
            -0.018088608980178833,
            -0.0008046453003771603,
            0.0331510454416275,
            -0.01839008554816246,
            0.04240943118929863,
            0.019919782876968384,
            0.03402914106845856,
            0.023097200319170952,
            0.023765798658132553,
            0.06330086290836334,
            0.04710349440574646,
            0.0443495512008667,
            -0.0054169814102351665,
            -0.005814257077872753,
            0.02859288640320301,
            -0.05602818727493286,
            -0.044885456562042236,
            -0.07532846927642822,
            -0.010739163495600224,
            -0.024711811915040016,
            -0.0013229360338300467,
            -0.00041724101174622774,
            0.005184676498174667,
            -0.020530875772237778,
            -0.024097096174955368,
            -0.004687760956585407,
            0.023905852809548378,
            -0.035569995641708374,
            0.014857054688036442,
            0.02762925811111927,
            -0.02493843249976635,
            -0.01598082110285759,
            0.026332562789320946,
            -0.019202930852770805,
            0.007036813069134951,
            0.030991965904831886,
            0.0029481095261871815,
            -0.025169778615236282,
            0.02998574636876583,
            -0.0056273918598890305,
            0.021732807159423828,
            -0.020716840401291847,
            -0.036611996591091156,
            -0.03618822991847992,
            -0.028895480558276176,
            0.01839427277445793,
            -0.037523988634347916,
            -0.043857965618371964,
            -0.018923444673419,
            0.001796679338440299,
            -0.010139014571905136,
            -0.014958611689507961,
            0.02486666664481163,
            0.0028231358155608177,
            0.031001612544059753,
            -0.01524614542722702,
            0.02327747456729412,
            0.011482779867947102,
            0.02341608889400959,
            0.026189839467406273,
            -0.03359106555581093,
            -0.0313824899494648,
            -0.001882703392766416,
            0.009961963631212711,
            0.01657029241323471,
            -0.01615421660244465,
            0.01947232522070408,
            -0.023809760808944702,
            -0.03189411014318466,
            0.03201109170913696,
            -0.019771121442317963,
            0.008385008201003075,
            0.0025019811000674963,
            0.0032372507266700268,
            0.0059501370415091515,
            0.030874859541654587,
            -0.021423647180199623,
            -0.004469309933483601,
            -0.020510435104370117,
            -0.02381923981010914,
            -0.0071752541698515415,
            -0.008115896955132484
        ],
        [
            0.008284156210720539,
            -0.0022155132610350847,
            0.026936247944831848,
            -0.010285552591085434,
            -0.02306736446917057,
            -0.029477303847670555,
            0.002886546542868018,
            0.015596581622958183,
            -0.025070037692785263,
            -0.02383154258131981,
            -0.034138649702072144,
            -0.0017002737149596214,
            -0.0006881316076032817,
            0.019520575180649757,
            -0.015161409042775631,
            -0.02224184013903141,
            -0.024560512974858284,
            0.01256366353482008,
            0.021551158279180527,
            -0.02872050367295742,
            0.01837136596441269,
            -0.01974835991859436,
            -0.006113601848483086,
            -0.021568192169070244,
            -0.016630887985229492,
            0.007410517893731594,
            -0.026736510917544365,
            0.024488994851708412,
            0.0028348395135253668,
            -0.02410488948225975,
            -0.026072094216942787,
            -0.0028027722146362066,
            -0.014357544481754303,
            0.0018515299307182431,
            0.013940398581326008,
            -0.02500453032553196,
            0.012661485932767391,
            0.030843794345855713,
            -0.006002173759043217,
            -0.0030336170457303524,
            0.027098949998617172,
            0.008006064221262932,
            -0.02813762240111828,
            -0.03437351807951927,
            0.004589403048157692,
            -0.028185458853840828,
            -0.0064942785538733006,
            0.02746085450053215,
            0.03175024688243866,
            -0.0031745180021971464,
            -0.0057354639284312725,
            0.023390959948301315,
            -0.013133879750967026,
            0.01039416529238224,
            0.0006503931363113225,
            -0.013134820386767387,
            0.02351118065416813,
            -0.027394002303481102,
            -0.021608341485261917,
            -0.0088687464594841,
            0.007143281865864992,
            6.606573151657358e-05,
            -0.02912488952279091,
            -0.015308062545955181,
            0.005993498023599386,
            -0.022491570562124252,
            -0.036997850984334946,
            -0.04655889421701431,
            -0.028017958626151085,
            -0.012869719415903091,
            -0.027495011687278748,
            -0.03876197338104248,
            -0.04543556645512581,
            -0.018447184935212135,
            0.014277609065175056,
            -0.03690870478749275,
            -0.018437525257468224,
            0.021555351093411446,
            -0.0166134275496006,
            -0.007696433458477259,
            0.01037431787699461,
            0.005588724743574858,
            -0.020854605361819267,
            -0.03500308841466904,
            0.008536100387573242,
            0.024975407868623734,
            -0.031792934983968735,
            0.01832732744514942,
            0.008656788617372513,
            0.019347408786416054,
            -0.008743449114263058,
            0.0157761313021183,
            0.01476605236530304,
            -0.05039422586560249,
            -0.02974325604736805,
            -0.021689219400286674,
            -0.03798810765147209,
            -0.06724770367145538,
            -0.0047576758079230785,
            -0.0026178329717367887,
            0.0014770511770620942,
            -0.03966239094734192,
            -0.028788888826966286,
            -0.010321537964046001,
            -0.02523365616798401,
            0.009956692345440388,
            -0.01067323237657547,
            -0.02858898974955082,
            0.004757668357342482,
            0.028970900923013687,
            0.00032105264835990965,
            -0.0013849225360900164,
            0.01837817393243313,
            -0.01766216941177845,
            0.026380222290754318,
            -0.008942787535488605,
            -0.01700560934841633,
            0.007786707021296024,
            0.029192309826612473,
            -0.02571585215628147,
            -0.016884436830878258,
            0.047375064343214035,
            -0.006221753545105457,
            0.015179470181465149,
            0.005543227773159742,
            0.02894957736134529,
            -0.0008964224252849817,
            0.002967542503029108,
            -0.001962191890925169,
            0.016213851049542427,
            0.034536100924015045,
            -0.010077087208628654,
            -0.009501644410192966,
            0.004247759934514761,
            -0.04651433601975441,
            -0.03466254472732544,
            -0.030280498787760735,
            0.027607746422290802,
            -0.030715852975845337,
            0.034616414457559586,
            0.013134513981640339,
            -0.006150820758193731,
            -0.015537583269178867,
            0.01773809641599655,
            0.0001876063470263034,
            0.036974433809518814,
            0.05307430028915405,
            0.011613873764872551,
            0.06202840432524681,
            0.046551335602998734,
            -0.006151006557047367,
            0.01782018318772316,
            0.09121864289045334,
            0.02536753937602043,
            0.08201607316732407,
            0.07163184881210327,
            0.09081172943115234,
            0.10097847878932953,
            0.05439262092113495,
            0.060387514531612396,
            0.013575765304267406,
            -0.009540504775941372,
            0.035403743386268616,
            -0.012607762590050697,
            -0.026570694521069527,
            -0.01942274533212185,
            0.008886258117854595,
            0.01706443354487419,
            0.023067297413945198,
            0.008887714706361294,
            -0.029425635933876038,
            -0.011243662796914577,
            0.037179600447416306,
            0.03278105705976486,
            0.07359354197978973,
            0.055233635008335114,
            0.03644012659788132,
            0.047341104596853256,
            0.02068539708852768,
            -0.010155752301216125,
            -0.01878795586526394,
            0.06623329967260361,
            -0.005953025538474321,
            0.01619558595120907,
            -0.03370991721749306,
            0.03161553665995598,
            0.02601454220712185,
            0.019343936815857887,
            0.014097284525632858,
            0.07632101327180862,
            0.06593823432922363,
            0.026477014645934105,
            -0.024930838495492935,
            0.02593619003891945,
            0.02627592533826828,
            0.03156307339668274,
            0.027875619009137154,
            0.026997605338692665,
            -0.032866280525922775,
            0.00566803989931941,
            0.058831632137298584,
            0.05749128386378288,
            0.04704153910279274,
            0.008926238864660263,
            -0.024007143452763557,
            -0.04327750951051712,
            -0.0460176058113575,
            -0.016822179779410362,
            -0.007417808752506971,
            -0.013596764765679836,
            -0.02663625031709671,
            -0.005752383265644312,
            -0.06962136924266815,
            -0.007856437005102634,
            0.005341050215065479,
            0.014921696856617928,
            0.02592725120484829,
            0.026557154953479767,
            0.07390712946653366,
            0.06534718722105026,
            -0.01762964203953743,
            0.009908350184559822,
            0.01655304804444313,
            -0.017109369859099388,
            0.014186520129442215,
            0.021743232384324074,
            -0.004190331790596247,
            0.0076072849333286285,
            0.0518016517162323,
            0.04807823896408081,
            0.0051018670201301575,
            -0.006792230531573296,
            -0.04648355022072792,
            -0.00410931883379817,
            -0.031068893149495125,
            -0.003349908394739032,
            0.032669465988874435,
            0.02357853576540947,
            0.03816242516040802,
            -0.007811737712472677,
            0.0011841808445751667,
            0.03201146423816681,
            0.020911449566483498,
            0.05128297209739685,
            0.030249346047639847,
            0.015048693865537643,
            0.08677947521209717,
            0.019074922427535057,
            0.002609319519251585,
            -0.05005978047847748,
            -0.018080707639455795,
            0.003253147704526782,
            0.014346597716212273,
            0.006811266299337149,
            -0.03401246666908264,
            -0.031673919409513474,
            0.04282456636428833,
            0.010385747067630291,
            -0.03612738102674484,
            -0.020382903516292572,
            -0.09927596151828766,
            -0.03521908447146416,
            -0.022602440789341927,
            -0.055625032633543015,
            0.04128112643957138,
            0.010092152282595634,
            -0.020249437540769577,
            -0.040464382618665695,
            0.03230288624763489,
            0.052137307822704315,
            0.03435508906841278,
            0.11302999407052994,
            0.0784909576177597,
            -0.0035568696912378073,
            0.009300158359110355,
            0.03529208526015282,
            -0.08851403743028641,
            -0.03771918639540672,
            -0.0206840131431818,
            0.010299663059413433,
            0.0333242304623127,
            0.003662864211946726,
            -0.028190970420837402,
            0.019382620230317116,
            -0.030017144978046417,
            0.006221435964107513,
            -0.06956213712692261,
            -0.051761142909526825,
            -0.07791442424058914,
            -0.02387857437133789,
            -0.005580531898885965,
            -0.0044210986234247684,
            0.03275739401578903,
            0.014057374559342861,
            -0.04780369624495506,
            -0.05102088674902916,
            -0.08062547445297241,
            -0.009778528474271297,
            0.06827529519796371,
            0.09960027039051056,
            0.030398353934288025,
            0.02428135834634304,
            0.02920350804924965,
            -0.010253951884806156,
            -0.014208133332431316,
            -0.059739332646131516,
            0.009470800869166851,
            0.019526705145835876,
            -0.032486483454704285,
            -0.027919258922338486,
            -0.03908810764551163,
            -0.008919525891542435,
            -0.06618553400039673,
            -0.071939617395401,
            -0.023636240512132645,
            -0.00926616508513689,
            -0.0060341875068843365,
            0.014978292398154736,
            0.01450357586145401,
            0.06285617500543594,
            0.02728435955941677,
            -0.07814914733171463,
            -0.12480180710554123,
            -0.09192930907011032,
            -0.041428957134485245,
            0.010097396560013294,
            0.01738869771361351,
            0.03556564822793007,
            0.04132208600640297,
            0.0654207393527031,
            0.03622591122984886,
            0.029752328991889954,
            -0.013210988603532314,
            -0.009426924400031567,
            -0.00024602701887488365,
            -0.02378370799124241,
            -0.03274087980389595,
            0.009032102301716805,
            0.014956719242036343,
            0.0009227725677192211,
            -0.03219044953584671,
            -0.05149568244814873,
            -0.0501105859875679,
            -0.03272847458720207,
            -0.0018874186789616942,
            0.011859084479510784,
            0.01561029814183712,
            0.0397668331861496,
            0.1113341823220253,
            0.02524452656507492,
            -0.030472127720713615,
            -0.03955761343240738,
            -0.026691844686865807,
            0.03868008404970169,
            0.05111730471253395,
            0.0545121431350708,
            0.01782863959670067,
            0.08393684774637222,
            0.11239764839410782,
            0.05755595117807388,
            0.042305491864681244,
            -0.010180518962442875,
            -0.029340913519263268,
            -0.02548787370324135,
            0.010664842091500759,
            -0.019030051305890083,
            0.009356030263006687,
            -0.04421433061361313,
            -0.05126997455954552,
            -0.047457873821258545,
            -0.023460140451788902,
            0.010028984397649765,
            0.032958418130874634,
            0.015246995724737644,
            0.028904473409056664,
            0.04300167039036751,
            0.07815732061862946,
            -0.0316058024764061,
            0.010396801866590977,
            0.00766221946105361,
            -0.003442169399932027,
            0.0451706200838089,
            0.03575160354375839,
            0.0002706507802940905,
            0.024519912898540497,
            0.004271696321666241,
            0.04824670031666756,
            0.03525806590914726,
            -0.000911048729903996,
            0.04226678982377052,
            0.022640300914645195,
            0.004073725081980228,
            0.023113146424293518,
            -0.012057271786034107,
            -0.03127950802445412,
            -0.017780348658561707,
            -0.0216309055685997,
            0.03690146282315254,
            0.04164096713066101,
            0.055839307606220245,
            0.016763852909207344,
            -0.0262882262468338,
            -0.019002409651875496,
            0.012602405622601509,
            0.003501606872305274,
            0.022403977811336517,
            -0.04033458232879639,
            0.010702564381062984,
            -0.0038826523814350367,
            0.04233933612704277,
            0.04395704343914986,
            0.048901379108428955,
            0.02188114821910858,
            0.02939031273126602,
            -0.015189952217042446,
            -0.02767859771847725,
            0.019059060141444206,
            -0.0069585260935127735,
            0.025210261344909668,
            -0.024093396961688995,
            -0.016621751710772514,
            0.003973576705902815,
            -0.002265459857881069,
            0.0018091434612870216,
            0.026999663561582565,
            0.04752417653799057,
            0.04372881352901459,
            0.045318230986595154,
            0.06710577756166458,
            0.0521392896771431,
            -0.007692777086049318,
            -0.020280031487345695,
            -0.023778308182954788,
            -0.026972386986017227,
            -0.0003620149800553918,
            0.007148244418203831,
            0.04737585783004761,
            0.057327840477228165,
            0.01301879808306694,
            0.04276743531227112,
            -0.04098295792937279,
            -0.03712547942996025,
            0.05316835269331932,
            0.03582816198468208,
            -0.009124789386987686,
            0.018760109320282936,
            -0.02292456664144993,
            0.00949925184249878,
            0.03158208355307579,
            0.010017749853432178,
            0.022148193791508675,
            0.03206685930490494,
            -0.022311875596642494,
            0.06202708184719086,
            -0.0015315754571929574,
            0.09104044735431671,
            0.0429411455988884,
            0.060103271156549454,
            -0.010502715595066547,
            -0.021358750760555267,
            0.034601278603076935,
            -0.010599044151604176,
            0.01295505277812481,
            0.018840976059436798,
            0.01660791039466858,
            0.03623759746551514,
            0.0026232788804918528,
            -0.01743970811367035,
            0.0022980039939284325,
            -0.008869239129126072,
            0.023880399763584137,
            -0.028424767777323723,
            -0.007888875901699066,
            0.016730068251490593,
            0.020895343273878098,
            0.017167385667562485,
            0.023363586515188217,
            0.01597415842115879,
            0.0056414674036204815,
            0.011112279258668423,
            -0.018503442406654358,
            0.0034432916436344385,
            0.007978520356118679,
            0.029944803565740585,
            0.08020498603582382,
            0.07802924513816833,
            0.014912576414644718,
            0.002011844888329506,
            0.052073970437049866,
            0.018640439957380295,
            0.0550510473549366,
            0.002100243465974927,
            0.03731648996472359,
            0.01585935428738594,
            -0.027620229870080948,
            0.00028446002397686243,
            -0.03939863294363022,
            0.0045244754292070866,
            -0.01093929074704647,
            -0.018234964460134506,
            -0.02045654132962227,
            0.015398816205561161,
            -0.018277207389473915,
            -0.01763967052102089,
            -0.0072225360199809074,
            0.029318319633603096,
            0.01825777254998684,
            -0.013997419737279415,
            0.019064629450440407,
            0.023384783416986465,
            -0.0025072984863072634,
            -0.013849867507815361,
            0.007480618543922901,
            -0.000351622118614614,
            0.02725805714726448,
            0.039499957114458084,
            0.04077744856476784,
            -0.01850334368646145,
            -0.006976846605539322,
            -0.012084630317986012,
            0.04297415539622307,
            -0.06308204680681229,
            -0.04227064922451973,
            -0.02630132995545864,
            -0.026250967755913734,
            -0.014196676202118397,
            -0.03266631439328194,
            -0.015825485810637474,
            -0.0032476785127073526,
            -0.03768330439925194,
            -0.00046895688865333796,
            0.016206197440624237,
            -0.010664830915629864,
            0.023862531408667564,
            0.020732363685965538,
            0.02946549281477928,
            0.024523818865418434,
            0.06828179955482483,
            0.02836454100906849,
            -0.006851037498563528,
            0.003218692261725664,
            -0.02593134343624115,
            -0.034135155379772186,
            -0.0320064052939415,
            -0.09238043427467346,
            -0.05889488384127617,
            -0.009414237923920155,
            -0.010919731110334396,
            -0.02732071466743946,
            -0.060391735285520554,
            -0.06708091497421265,
            -0.02710353583097458,
            -0.025361647829413414,
            0.03110610321164131,
            0.002206380246207118,
            -0.04352768883109093,
            -0.03349176049232483,
            0.029852569103240967,
            0.009894409216940403,
            0.00492321839556098,
            -0.023041410371661186,
            -0.032578617334365845,
            0.03503334894776344,
            0.031176846474409103,
            -0.004648612346500158,
            0.05722655728459358,
            0.0768246129155159,
            0.0674768015742302,
            -0.015733961015939713,
            -0.02831353060901165,
            0.004236908629536629,
            0.0011382210068404675,
            -0.0023852703161537647,
            -0.03207625076174736,
            -0.011057151481509209,
            -0.02944924682378769,
            -0.02463790774345398,
            -0.04192405194044113,
            -0.05307873338460922,
            -0.0649050697684288,
            -0.005868846550583839,
            0.0034132914151996374,
            0.012152940034866333,
            -0.056108057498931885,
            0.006224190816283226,
            0.019025813788175583,
            -0.02827572636306286,
            -0.028150422498583794,
            -0.029270974919199944,
            0.004590700846165419,
            0.01037672534584999,
            0.01655484363436699,
            -0.023177580907940865,
            0.028554903343319893,
            0.011605634354054928,
            0.03084115870296955,
            -0.010896333493292332,
            0.02994140423834324,
            -0.02691895328462124,
            0.04778996855020523,
            0.013383406214416027,
            0.02409723401069641,
            -0.011622084304690361,
            -0.008817899972200394,
            0.03144727274775505,
            0.010773643851280212,
            -0.029145387932658195,
            0.021685078740119934,
            -0.015549951232969761,
            -0.005316171795129776,
            0.003529427107423544,
            -0.05153733864426613,
            0.007060871459543705,
            -0.005166394170373678,
            -0.027234243229031563,
            -0.01984657719731331,
            0.019927537068724632,
            0.006610899232327938,
            -0.0019184717675670981,
            0.03255564719438553,
            -0.033406421542167664,
            -0.025883063673973083,
            -0.002863176167011261,
            0.03725406900048256,
            0.008527982980012894,
            -0.010289895348250866,
            0.0247711893171072,
            0.01908187009394169,
            0.011549882590770721,
            0.06626294553279877,
            0.02126983180642128,
            0.07341118901968002,
            0.02145957760512829,
            -0.0071271671913564205,
            0.011941160075366497,
            -0.004719359800219536,
            0.04390014335513115,
            0.032889366149902344,
            0.024576721712946892,
            -0.025555474683642387,
            0.005940491333603859,
            -0.02987685799598694,
            0.012966345995664597,
            -0.014865541830658913,
            -0.024674970656633377,
            -0.0051086037419736385,
            0.00374025315977633,
            0.03892715647816658,
            0.01387658528983593,
            -0.004615188576281071,
            -0.0004565119743347168,
            0.013696730136871338,
            0.08098440617322922,
            0.08749913424253464,
            0.06423623859882355,
            0.10894186794757843,
            0.044127240777015686,
            0.09196178615093231,
            0.07001229375600815,
            0.08088099211454391,
            -0.004775719717144966,
            0.037302955985069275,
            0.02973322756588459,
            0.03682781755924225,
            0.035190653055906296,
            -0.016531066969037056,
            0.003059056354686618,
            -0.009861648082733154,
            -0.03617912158370018,
            -0.006761509459465742,
            0.016994845122098923,
            -0.011740246787667274,
            0.03048679791390896,
            -0.005353416781872511,
            -0.03474782034754753,
            -0.0043602376244962215,
            0.021053794771432877,
            -0.0388994924724102,
            -0.02480260096490383,
            -0.03628624230623245,
            -0.016784118488430977,
            0.003812688635662198,
            0.06215532124042511,
            0.07683111727237701,
            0.02956995740532875,
            -0.008863618597388268,
            0.010080976411700249,
            0.02682422287762165,
            0.04766646400094032,
            -0.012812777422368526,
            -0.03313222900032997,
            -0.0032457082998007536,
            -0.026994582265615463,
            0.017664926126599312,
            -0.03334029018878937,
            -0.016626080498099327,
            0.0019073734292760491,
            0.020358961075544357,
            -0.021966353058815002,
            -0.002543121576309204,
            -0.03412121161818504,
            -0.02710535377264023,
            -0.005531482398509979,
            0.02999413199722767,
            0.01664300449192524,
            -0.03952372446656227,
            -0.013917521573603153,
            -0.003396836807951331,
            -0.007012383546680212,
            -0.03084816411137581,
            -0.00262199598364532,
            -0.0040658279322087765,
            -0.061174314469099045,
            -0.01746339723467827,
            -0.0725155845284462,
            -0.02541004680097103,
            -0.0818643793463707,
            -0.058748144656419754,
            -0.06484904140233994,
            -0.02074442431330681,
            -0.06490282714366913,
            -0.0136940972879529,
            -0.04857853800058365,
            -0.040157850831747055,
            0.029667694121599197,
            -0.0026800823397934437,
            -0.0015688338316977024,
            0.010473290458321571,
            -0.021011507138609886,
            -0.027563458308577538,
            -0.02771429717540741,
            0.012073376215994358,
            0.011928094550967216,
            -0.005362766329199076,
            -0.004434691276401281,
            -0.017109444364905357,
            0.02168150804936886,
            -0.04778974503278732,
            0.004694649949669838,
            -0.046179987490177155,
            -0.05850799009203911,
            -0.026075147092342377,
            -0.03153691813349724,
            -0.048718247562646866,
            -0.0485878512263298,
            -0.04034941643476486,
            -0.03983493894338608,
            0.003909068647772074,
            -0.010861709713935852,
            0.019431019201874733,
            0.026659227907657623,
            -0.006760126445442438,
            -0.0012605502270162106,
            -0.01517846155911684,
            -0.01883712410926819,
            0.029963817447423935,
            -0.008524920791387558,
            -0.0060430471785366535,
            -0.015839867293834686,
            0.03219137713313103,
            -0.0031715414952486753,
            0.029635487124323845,
            0.002927561989054084,
            -0.023800218477845192,
            -0.03633363917469978,
            0.031268443912267685,
            0.030849400907754898,
            -0.02936181053519249,
            0.01927308179438114,
            0.007579640485346317,
            -0.021664798259735107,
            -0.03265178203582764,
            -0.00942202564328909,
            -0.03894791752099991,
            -0.00760200759395957,
            -0.022086182609200478,
            0.03440612182021141,
            0.0008701889892108738,
            -0.01793019473552704,
            -0.0010661821579560637,
            -0.024550089612603188,
            0.017442487180233,
            -0.005015637259930372,
            0.02822108007967472
        ],
        [
            0.007935622707009315,
            -0.014506923966109753,
            -0.022081691771745682,
            -0.02250691130757332,
            0.009904274716973305,
            0.02036186307668686,
            0.01102988701313734,
            0.022714126855134964,
            0.021385036408901215,
            0.017802644520998,
            -0.02346033789217472,
            0.030758986249566078,
            -0.00024418323300778866,
            0.004329942632466555,
            0.0190590750426054,
            0.017305707558989525,
            -0.000753964704927057,
            0.031181102618575096,
            -0.004326756577938795,
            -0.011655096895992756,
            0.010778704658150673,
            -0.010081878863275051,
            0.009028984233736992,
            -0.006975438445806503,
            0.025280915200710297,
            -0.017932934686541557,
            0.02326851338148117,
            -0.0013320063007995486,
            0.007800145074725151,
            -0.020283933728933334,
            0.021313941106200218,
            -0.019305046647787094,
            -0.02308456227183342,
            0.030910365283489227,
            -0.025920404121279716,
            0.019204022362828255,
            -0.03274254873394966,
            0.014868952333927155,
            0.034462690353393555,
            0.011998779140412807,
            0.03505197912454605,
            0.006948149297386408,
            -0.03032892383635044,
            0.012136631645262241,
            0.03476002812385559,
            -0.005373798776417971,
            -0.024643680080771446,
            0.005527467466890812,
            -0.025214942172169685,
            0.02217915840446949,
            -0.017367908731102943,
            0.01906023733317852,
            -0.008257253095507622,
            0.03066982701420784,
            0.012354893609881401,
            -0.001677819760516286,
            0.01087811216711998,
            -0.011152642779052258,
            -0.024348272010684013,
            0.0024016043171286583,
            0.0076918709091842175,
            0.018300142139196396,
            0.029259299859404564,
            -0.004049630369991064,
            0.004774576518684626,
            0.017509326338768005,
            0.01166889164596796,
            -0.020086538046598434,
            0.02114367112517357,
            -0.015897497534751892,
            0.031901150941848755,
            0.014257732778787613,
            0.00443865405395627,
            0.019372764974832535,
            0.015907201915979385,
            -0.011699253693223,
            -0.00977405346930027,
            0.0029712896794080734,
            -0.034529052674770355,
            0.021527329459786415,
            0.03395618498325348,
            0.0018404959701001644,
            0.01113937608897686,
            -0.01526314951479435,
            -0.021932091563940048,
            -0.010599425993859768,
            0.008507492020726204,
            0.0005532865761779249,
            0.005086560267955065,
            -0.03489102050662041,
            0.011261733248829842,
            0.0062796431593596935,
            0.024998445063829422,
            -0.010852242819964886,
            -0.016256848350167274,
            0.0004743168246932328,
            0.019872242584824562,
            0.03158872574567795,
            0.016242019832134247,
            0.03626487776637077,
            0.024375056847929955,
            -0.023240461945533752,
            -0.0061523388139903545,
            0.03268078714609146,
            0.029941311106085777,
            0.002979980781674385,
            0.03148574382066727,
            -0.013701378367841244,
            0.03399205580353737,
            -0.01878872886300087,
            0.03390628844499588,
            0.03460134193301201,
            -0.015129350125789642,
            -0.026207419112324715,
            -0.004868126939982176,
            -0.022805755957961082,
            0.014235271140933037,
            -0.03115057200193405,
            0.01587512716650963,
            0.013275746256113052,
            -0.009966732934117317,
            0.029976744204759598,
            -0.026554184034466743,
            0.014565964229404926,
            -0.014852185733616352,
            0.0051566739566624165,
            -0.015102541074156761,
            -0.07913204282522202,
            -0.04193748161196709,
            -0.03816133365035057,
            -0.0061977882869541645,
            0.012083041481673717,
            -0.03292282298207283,
            -0.019861582666635513,
            -0.004663513042032719,
            -0.030013693496584892,
            0.030974695459008217,
            0.00411484157666564,
            0.02307806722819805,
            -0.028170892968773842,
            -0.002573805395513773,
            -0.030972512438893318,
            0.013314247131347656,
            0.024255510419607162,
            0.004740996286273003,
            0.032195061445236206,
            -0.014308431185781956,
            0.020683633163571358,
            -0.006917526945471764,
            -0.017028529196977615,
            -0.04433045908808708,
            -0.016815144568681717,
            -0.02683209255337715,
            -0.009156445041298866,
            -0.0156849417835474,
            -0.08217611908912659,
            -0.107813760638237,
            -0.04982437193393707,
            -0.07040168344974518,
            -0.06453808397054672,
            -0.017684604972600937,
            -0.06002814695239067,
            -0.040828194469213486,
            0.001256617484614253,
            -0.03234346583485603,
            -0.031490426510572433,
            -0.008056972175836563,
            -0.006572611164301634,
            -0.03151898831129074,
            0.0009420254500582814,
            -0.0042923977598547935,
            -0.0011024157283827662,
            -0.02188533917069435,
            -0.029621705412864685,
            -0.02612636797130108,
            0.020114058628678322,
            2.610864385133027e-06,
            0.010844252072274685,
            -0.013264141976833344,
            0.04286634176969528,
            0.02678520604968071,
            0.04700743407011032,
            0.05535304173827171,
            0.07915211468935013,
            0.1151331216096878,
            0.09888069331645966,
            0.07368896156549454,
            0.04012715071439743,
            0.0387461818754673,
            0.013630899600684643,
            -0.039561677724123,
            -0.047821905463933945,
            0.011347115971148014,
            -0.004456097260117531,
            0.02509712055325508,
            0.03370986506342888,
            -0.00984377134591341,
            -0.000251126941293478,
            -0.011073735542595387,
            -0.007053758017718792,
            0.0296743493527174,
            -0.04661352187395096,
            0.03330983594059944,
            0.023558126762509346,
            0.01777811348438263,
            0.04194366931915283,
            0.032190952450037,
            -0.02342653088271618,
            0.018056796863675117,
            0.004730550106614828,
            0.039635978639125824,
            0.0717259868979454,
            0.11894852668046951,
            0.029052620753645897,
            0.03686719015240669,
            0.03762228786945343,
            0.0363997220993042,
            -0.0007110454607754946,
            -0.0010329876095056534,
            -0.023973990231752396,
            -0.0029375816229730844,
            -0.04381995648145676,
            -0.008884157985448837,
            -0.013367148116230965,
            0.012352066114544868,
            -0.006810710299760103,
            -0.015702612698078156,
            0.013406612910330296,
            0.027865473181009293,
            -0.003533611074090004,
            0.015121659263968468,
            0.037433162331581116,
            0.03621494770050049,
            0.008382761850953102,
            -0.0035047722049057484,
            -0.040925007313489914,
            -0.015772517770528793,
            -0.029107140377163887,
            0.027740545570850372,
            0.03600793331861496,
            0.047396279871463776,
            0.012554550543427467,
            0.04048008844256401,
            0.026127414777874947,
            0.03434034809470177,
            0.015483446419239044,
            0.0029899782966822386,
            -0.010920732282102108,
            -0.03983304277062416,
            -0.04241105169057846,
            -0.030780350789427757,
            0.0164317786693573,
            -0.004050371702760458,
            0.025664744898676872,
            0.023194829002022743,
            0.027527255937457085,
            0.0455397292971611,
            0.06369373202323914,
            0.030948128551244736,
            0.07218668609857559,
            0.0294621791690588,
            0.07783463597297668,
            0.07465974241495132,
            -0.023503415286540985,
            0.02288064919412136,
            -0.022161323577165604,
            -0.01232055202126503,
            0.0014818166382610798,
            -0.027787785977125168,
            0.019618792459368706,
            0.04759686812758446,
            0.06163952872157097,
            0.019401293247938156,
            0.022621164098381996,
            0.03001219592988491,
            -0.028680767863988876,
            -0.002043234184384346,
            -0.019838931038975716,
            0.022058505564928055,
            -0.019770333543419838,
            -0.002406457206234336,
            0.02933426946401596,
            -0.012395400553941727,
            0.015227708965539932,
            0.05462748557329178,
            0.03043874353170395,
            0.1022636890411377,
            0.09741431474685669,
            0.07800505310297012,
            0.0349348708987236,
            0.04431333392858505,
            0.005898802541196346,
            -0.03072688914835453,
            0.031152306124567986,
            0.05526912584900856,
            -0.04529702290892601,
            0.00916322972625494,
            -0.03225100785493851,
            -0.01925579085946083,
            0.07373079657554626,
            0.03500402346253395,
            0.06390082836151123,
            0.07223841547966003,
            0.005598331801593304,
            0.0016557838534936309,
            -0.0377316027879715,
            0.026302477344870567,
            -0.016439104452729225,
            0.03021799400448799,
            -0.02558179199695587,
            0.03241332247853279,
            0.03049476258456707,
            0.07209984958171844,
            0.04721229150891304,
            0.12024209648370743,
            0.1127440482378006,
            0.08114238828420639,
            0.06134086474776268,
            0.05096498131752014,
            0.07706484198570251,
            0.008147197775542736,
            -0.004951768554747105,
            0.01189220231026411,
            -0.03147251531481743,
            -0.061052002012729645,
            -0.02665354125201702,
            -0.0004305151232983917,
            0.07958728075027466,
            0.10788517445325851,
            0.08215856552124023,
            0.0777885913848877,
            0.03260714188218117,
            -0.011843602173030376,
            -0.00583973852917552,
            -0.015551083721220493,
            0.017652207985520363,
            -0.015295475721359253,
            -0.021015778183937073,
            0.026060733944177628,
            0.016396690160036087,
            0.031842004507780075,
            0.03980523720383644,
            0.020379390567541122,
            0.04287721589207649,
            0.016953181475400925,
            0.03575127199292183,
            -0.008503265678882599,
            0.0006789139588363469,
            -0.10651501268148422,
            -0.06921228766441345,
            -0.04714108258485794,
            -0.053170446306467056,
            -0.04410861060023308,
            0.02765568532049656,
            0.056631844490766525,
            0.029114792123436928,
            0.07051558047533035,
            0.058506980538368225,
            0.030268313363194466,
            0.040591057389974594,
            -0.00425884872674942,
            0.0009989561513066292,
            0.007632877212017775,
            0.010106387548148632,
            0.03168842941522598,
            0.003510020673274994,
            0.032355595380067825,
            -0.004658830817788839,
            0.05488336831331253,
            0.009240064769983292,
            -0.042013317346572876,
            -0.04128784313797951,
            -0.005651433486491442,
            0.0016393775586038828,
            -0.04554862156510353,
            -0.0377877876162529,
            -0.1295170783996582,
            -0.05711490660905838,
            -0.057814665138721466,
            -0.00844874233007431,
            0.03156773000955582,
            0.011205934919416904,
            -0.011352217756211758,
            0.09146175533533096,
            0.0713890939950943,
            0.08600667864084244,
            0.0539848729968071,
            -0.019667120650410652,
            0.009178592823445797,
            0.029608430340886116,
            -0.02462085708975792,
            -0.01618754118680954,
            0.00020197230332996696,
            0.012096145190298557,
            -0.03113444522023201,
            -0.024746181443333626,
            -0.026306837797164917,
            -0.004647144582122564,
            -0.011989844031631947,
            -0.06544137001037598,
            -0.03536206856369972,
            -0.04844684898853302,
            -0.09066686034202576,
            -0.04708753526210785,
            -0.08788132667541504,
            -0.02458229474723339,
            -0.00513847591355443,
            0.053364261984825134,
            0.016414374113082886,
            0.02084081806242466,
            0.037203945219516754,
            0.06102398410439491,
            0.06932976096868515,
            0.03583500534296036,
            0.01979297772049904,
            -0.0040781255811452866,
            0.007370706181973219,
            0.012466154992580414,
            0.027183325961232185,
            -0.012363188900053501,
            0.0018657519249245524,
            -0.024659136310219765,
            -0.031311262398958206,
            -0.005920181050896645,
            -0.008935222402215004,
            -0.07260483503341675,
            -0.07542978972196579,
            -0.10222671180963516,
            -0.10083223879337311,
            -0.1434597373008728,
            -0.11647431552410126,
            -0.1058214008808136,
            -0.07719757407903671,
            0.03593451902270317,
            0.012153694406151772,
            0.11776658892631531,
            0.05883321166038513,
            0.08122595399618149,
            0.05988803878426552,
            0.03527618199586868,
            -0.005193762481212616,
            0.029088161885738373,
            -0.030389534309506416,
            -0.040182486176490784,
            -0.02063133753836155,
            -0.01607530005276203,
            -0.0028886969666928053,
            -0.026940491050481796,
            -0.022706791758537292,
            -0.019622502848505974,
            0.014407116919755936,
            -0.02780703641474247,
            -0.005005616694688797,
            -0.020980821922421455,
            -0.013576220721006393,
            -0.06362926214933395,
            -0.09995599091053009,
            -0.1538388580083847,
            -0.08918839693069458,
            -0.01458798162639141,
            0.02617320790886879,
            0.019855821505188942,
            0.008313626050949097,
            0.04323174059391022,
            0.07382430136203766,
            0.11005930602550507,
            0.03372115269303322,
            -0.03174304589629173,
            -0.04080595076084137,
            -0.0733657255768776,
            -0.039798133075237274,
            -0.06463690847158432,
            -0.004319453611969948,
            0.013766256161034107,
            0.01933671347796917,
            -0.028802094981074333,
            0.00289166416041553,
            0.010896654799580574,
            -0.03942112624645233,
            0.012507310137152672,
            -0.05376932770013809,
            -0.020567111670970917,
            -0.08880441635847092,
            -0.0915520116686821,
            -0.047050587832927704,
            -0.09830990433692932,
            -0.0214222501963377,
            0.038391608744859695,
            0.039398666471242905,
            0.004689081106334925,
            0.0221366286277771,
            0.017430022358894348,
            0.06398247927427292,
            0.03975662216544151,
            0.03418702259659767,
            -0.029906651005148888,
            -0.04068239405751228,
            -0.03735363855957985,
            -0.044087499380111694,
            -0.07763243466615677,
            -0.0006085971253924072,
            -0.016490403562784195,
            -0.016506068408489227,
            -0.012096775695681572,
            0.006219183560460806,
            0.0025428668595850468,
            -0.006886774208396673,
            0.0038921842351555824,
            -0.043016254901885986,
            -0.08253543078899384,
            -0.07079321891069412,
            -0.05507839843630791,
            -0.04403652623295784,
            -0.03331940621137619,
            0.050914183259010315,
            0.08967994898557663,
            0.014311636798083782,
            0.030560404062271118,
            0.033355433493852615,
            0.011193710379302502,
            -0.03418530523777008,
            0.04395761340856552,
            0.039110392332077026,
            -0.016703808680176735,
            -0.05096954479813576,
            -0.09180347621440887,
            -0.0773792713880539,
            -0.04961100593209267,
            -0.0041138287633657455,
            0.02358677051961422,
            0.004720996133983135,
            0.016955818980932236,
            -0.00941640604287386,
            -0.024976372718811035,
            -0.0051048751920461655,
            -0.04451560229063034,
            -0.022438501939177513,
            -0.08512245118618011,
            -0.10497106611728668,
            -0.08721240609884262,
            -0.048022158443927765,
            -0.047794513404369354,
            0.007811023388057947,
            0.06187533587217331,
            0.012671325355768204,
            0.005462393630295992,
            -0.021743306890130043,
            0.006376530043780804,
            -0.005405995063483715,
            0.018839173018932343,
            0.0055885897018015385,
            -0.011325056664645672,
            -0.07854139059782028,
            -0.07642657309770584,
            -0.07991331070661545,
            -0.027622386813163757,
            -0.026519596576690674,
            0.008961579762399197,
            0.008892903104424477,
            -0.006960821337997913,
            0.02587241120636463,
            -0.03404027596116066,
            0.005946737248450518,
            -0.0019617846701294184,
            -0.0444258414208889,
            -0.07334320992231369,
            -0.09415493160486221,
            -0.08101724833250046,
            -0.01106585469096899,
            -0.029070626944303513,
            -0.028282899409532547,
            -0.04802345857024193,
            0.0009282092214561999,
            -0.010569312609732151,
            -0.006499501410871744,
            0.011244161054491997,
            -0.016375314444303513,
            -0.010993875563144684,
