{
    "fc1.weight": [
        [
            0.008066467009484768,
            0.03495458513498306,
            -0.02288677543401718,
            -0.024315418675541878,
            -0.02223167009651661,
            0.023207325488328934,
            0.020081495866179466,
            0.029663125053048134,
            0.03098771907389164,
            0.024853188544511795,
            -0.012006075121462345,
            0.00768643245100975,
            0.026634152978658676,
            -0.006391829811036587,
            -0.01629953272640705,
            -0.03316183760762215,
            -0.034630294889211655,
            -0.02285984717309475,
            0.015167798846960068,
            0.012019123882055283,
            -0.0009298452641814947,
            -0.013868924230337143,
            -0.0031276261433959007,
            0.028603048995137215,
            -0.004275479819625616,
            -0.030641727149486542,
            0.0338900163769722,
            -0.020080095157027245,
            -0.02453387714922428,
            -0.02086782082915306,
            -0.010475916787981987,
            0.0017800502246245742,
            0.028303509578108788,
            -0.0015328292502090335,
            0.00011118246038677171,
            -0.01435001939535141,
            0.032982081174850464,
            -0.029968811199069023,
            0.012117668054997921,
            -0.009143561124801636,
            -0.003654428757727146,
            -0.009625492617487907,
            -0.006692384369671345,
            -0.003159044776111841,
            0.04503503814339638,
            0.015024257823824883,
            0.009087915532290936,
            -0.0021248001139611006,
            0.002730775624513626,
            -0.004813396837562323,
            -0.012556513771414757,
            -0.007224686909466982,
            -0.009530237875878811,
            -0.023913584649562836,
            0.003078562906011939,
            -0.002080095699056983,
            0.018785392865538597,
            0.0136567996814847,
            -0.0317961648106575,
            -0.012288841418921947,
            0.027225634083151817,
            -0.032183971256017685,
            -0.005543022882193327,
            -0.01043163612484932,
            0.02173001877963543,
            -0.022313550114631653,
            0.048416927456855774,
            -0.013293194584548473,
            0.03241555765271187,
            -0.0032193392980843782,
            -0.0065666125155985355,
            0.018345504999160767,
            0.01174689270555973,
            -0.027963925153017044,
            -0.037782903760671616,
            -0.0012822628486901522,
            0.016198942437767982,
            -0.02742086537182331,
            0.01198816392570734,
            0.019258541986346245,
            -0.01328191813081503,
            -0.003990191966295242,
            0.008882838301360607,
            -0.016751229763031006,
            -0.03445453941822052,
            0.01065534446388483,
            -0.012633289210498333,
            -0.006911333184689283,
            -0.030236275866627693,
            0.023507170379161835,
            0.008626525290310383,
            -0.01715431548655033,
            0.03309386968612671,
            0.007502596825361252,
            0.059119924902915955,
            0.029988739639520645,
            0.021512126550078392,
            0.016529830172657967,
            0.014069609344005585,
            -0.028628254309296608,
            0.031049054116010666,
            0.009882981888949871,
            0.0007562491809949279,
            -0.024120943620800972,
            -0.027774350717663765,
            -0.00756874168291688,
            0.018828028813004494,
            0.025502100586891174,
            -0.033115461468696594,
            0.015230843797326088,
            -0.007275504991412163,
            -0.024115819483995438,
            -0.021670695394277573,
            0.029496081173419952,
            0.026044949889183044,
            0.00015388695464935154,
            0.000575950660277158,
            -0.027632955461740494,
            -0.020925771445035934,
            -0.0222829207777977,
            0.04209967702627182,
            0.06750129163265228,
            0.03742527961730957,
            0.020895011723041534,
            -0.000501554342918098,
            -0.01534811221063137,
            -0.07364051789045334,
            -0.04343312233686447,
            -0.03636806085705757,
            -0.00038863951340317726,
            0.047756753861904144,
            0.025031549856066704,
            0.02890530601143837,
            -0.05879737436771393,
            -0.03583429008722305,
            -0.06272716075181961,
            -0.03414422273635864,
            -0.02060544304549694,
            -0.02316305600106716,
            -0.015561922453343868,
            -0.015671027824282646,
            0.02617766335606575,
            0.014337819069623947,
            0.010114002972841263,
            -0.031973946839571,
            0.003924041986465454,
            0.014902479946613312,
            -0.024929935112595558,
            0.004675697535276413,
            0.00014679544256068766,
            0.01802467182278633,
            0.07545873522758484,
            0.02469124086201191,
            0.008698887191712856,
            -0.006655171979218721,
            -0.02341761812567711,
            0.039419371634721756,
            0.0137002719566226,
            0.03262948617339134,
            0.04404411092400551,
            0.014237593859434128,
            -0.04645448923110962,
            -0.04485480859875679,
            -0.1104888916015625,
            -0.03537343814969063,
            0.019474783912301064,
            0.01487110648304224,
            -0.01567700318992138,
            0.019274098798632622,
            0.016358140856027603,
            0.006740855053067207,
            -0.023464608937501907,
            -0.02869499661028385,
            0.006222707685083151,
            -0.008398007601499557,
            0.08499287068843842,
            0.00040434455149807036,
            0.0783337727189064,
            0.07914464920759201,
            0.03760445863008499,
            0.06213245913386345,
            0.046042248606681824,
            0.045696184039115906,
            0.01607166975736618,
            0.00046702090185135603,
            -0.008126035332679749,
            -0.07618441432714462,
            -0.038063909858465195,
            0.0017552326899021864,
            0.026754457503557205,
            -0.02564125880599022,
            -0.06892222166061401,
            -0.0657276064157486,
            -0.008332431316375732,
            0.025138715282082558,
            0.025722824037075043,
            -0.015546268783509731,
            -0.014045638032257557,
            -0.029178639873862267,
            -0.02853977680206299,
            -0.018703559413552284,
            -0.0007432559505105019,
            0.045457035303115845,
            0.04198098182678223,
            0.09054303169250488,
            0.0743032693862915,
            0.09114407002925873,
            0.08803287893533707,
            0.0505702905356884,
            0.029016628861427307,
            -0.029289284721016884,
            0.01510083582252264,
            -0.02598476968705654,
            -0.02235935628414154,
            -0.032997455447912216,
            -0.05669761076569557,
            -0.027365071699023247,
            0.07651978731155396,
            0.01383670512586832,
            -0.023564614355564117,
            -0.07203521579504013,
            -0.06496816873550415,
            -0.038379427045583725,
            -0.01730322279036045,
            0.007686051540076733,
            -0.027685923501849174,
            -0.016582073643803596,
            0.013625610619783401,
            -0.013437310233712196,
            0.02394813485443592,
            0.036362048238515854,
            0.038483843207359314,
            0.04005879908800125,
            0.09710223227739334,
            0.07458280026912689,
            0.03472171351313591,
            0.06560754030942917,
            0.008288378827273846,
            0.03279513493180275,
            -0.018142832443118095,
            0.052858855575323105,
            -0.021792951971292496,
            -0.034462179988622665,
            0.041342396289110184,
            0.005538491066545248,
            -0.020731469616293907,
            -0.018991701304912567,
            -0.03861882537603378,
            -0.06849018484354019,
            -0.01900043897330761,
            -0.04735150188207626,
            -0.02444634400308132,
            -0.01804012805223465,
            -0.031729768961668015,
            0.027824264019727707,
            -0.01368771307170391,
            0.04129136726260185,
            0.022226598113775253,
            0.009995488449931145,
            0.025762539356946945,
            0.02125333808362484,
            0.04134469851851463,
            0.011603926308453083,
            0.01627158187329769,
            0.030399229377508163,
            0.04683171212673187,
            -0.01690312847495079,
            -0.08626005053520203,
            -0.014079306274652481,
            -0.022940658032894135,
            0.006624402943998575,
            0.030348075553774834,
            -0.0028160889632999897,
            0.0026580479461699724,
            0.0005273920833133161,
            0.019158676266670227,
            -0.06795996427536011,
            -0.046365994960069656,
            6.3618972490075976e-06,
            -0.027516013011336327,
            -0.010173166170716286,
            0.008443634025752544,
            0.006579209119081497,
            0.007345220074057579,
            0.0030322899110615253,
            -0.0007264546002261341,
            0.023423999547958374,
            -0.016710910946130753,
            0.02091662585735321,
            -0.030499260872602463,
            -0.003953281790018082,
            0.010532188229262829,
            -0.03994342312216759,
            -0.05238798260688782,
            -0.08344239741563797,
            -0.11757194995880127,
            -0.06403238326311111,
            0.02792654186487198,
            -0.004402720835059881,
            -0.04475899413228035,
            -0.011401579715311527,
            -0.027826813980937004,
            0.011712566949427128,
            -0.006291157100349665,
            -0.04700607806444168,
            -0.07088106870651245,
            -0.015399790368974209,
            0.007623096462339163,
            -0.02405512146651745,
            0.03627515584230423,
            0.012032588012516499,
            -0.009627112187445164,
            -0.05181599780917168,
            -0.04212726280093193,
            -0.059933852404356,
            -0.017445959150791168,
            -0.010516478680074215,
            -0.081960029900074,
            -0.09637250006198883,
            -0.027950836345553398,
            -0.04312208667397499,
            -0.009557894431054592,
            -0.057665348052978516,
            -0.1549878865480423,
            -0.07436813414096832,
            -0.06966961920261383,
            -0.050593581050634384,
            -0.04756611958146095,
            0.012517361901700497,
            0.013937924057245255,
            0.022777102887630463,
            0.021667856723070145,
            0.005333619192242622,
            -0.013735777698457241,
            -0.03592749685049057,
            -0.01567159965634346,
            -0.029506195336580276,
            -0.0026210087817162275,
            -0.025011181831359863,
            -0.03648403286933899,
            -0.03878489136695862,
            -0.07674132287502289,
            -0.12653692066669464,
            -0.08423733711242676,
            -0.1143927052617073,
            -0.13881520926952362,
            -0.13936805725097656,
            -0.08254952728748322,
            -0.06814800947904587,
            -0.01844434253871441,
            -0.0819493904709816,
            -0.14801789820194244,
            -0.0604422390460968,
            -0.02137983776628971,
            -0.04890337958931923,
            -0.0026662934105843306,
            -0.035881754010915756,
            -0.026980960741639137,
            0.04335545375943184,
            0.06104910001158714,
            0.097313791513443,
            0.03996243700385094,
            0.018403133377432823,
            -0.018260983750224113,
            0.01348695158958435,
            -0.01926897093653679,
            0.024478774517774582,
            -0.006798142567276955,
            -0.11472416669130325,
            -0.11753861606121063,
            -0.1013413593173027,
            -0.15483596920967102,
            -0.1511153131723404,
            -0.10881273448467255,
            -0.059859998524188995,
            -0.02152261510491371,
            -0.04482463002204895,
            0.01150134950876236,
            -0.0594167560338974,
            -0.09694129973649979,
            -0.03057248890399933,
            -0.09856168925762177,
            -0.034180980175733566,
            -0.006363174878060818,
            -0.04325510188937187,
            0.025939421728253365,
            0.04469403252005577,
            0.09223508834838867,
            0.10137979686260223,
            0.03459632769227028,
            0.023246893659234047,
            -0.0039873686619102955,
            -0.02050381898880005,
            0.017160115763545036,
            -0.02658097818493843,
            -0.012316538952291012,
            -0.07917576283216476,
            -0.0799432024359703,
            -0.06097011640667915,
            -0.06167331337928772,
            -0.09316834807395935,
            -0.11741660535335541,
            -0.0016447346424683928,
            0.010013872757554054,
            0.008004477247595787,
            -0.007329331245273352,
            -0.08996597677469254,
            -0.060569267719984055,
            -0.02225990779697895,
            -0.036415714770555496,
            -0.033240895718336105,
            0.006872367113828659,
            -0.07302844524383545,
            0.0419650562107563,
            -0.0046500652097165585,
            0.02732892706990242,
            0.08675388991832733,
            0.03302828222513199,
            0.01148521713912487,
            -0.029872234910726547,
            -0.03362278640270233,
            0.021374531090259552,
            0.02331755869090557,
            -0.04928736388683319,
            -0.10278883576393127,
            -0.017220215871930122,
            -0.029884714633226395,
            -0.08577416837215424,
            -0.06926046311855316,
            0.013285394757986069,
            0.049063604325056076,
            0.06938137114048004,
            -0.017638981342315674,
            -0.06763535737991333,
            0.003023294499143958,
            0.04833696782588959,
            0.02725808694958687,
            0.0023013995960354805,
            0.01709975302219391,
            0.024293305352330208,
            0.012524261139333248,
            0.05123867094516754,
            -0.01702713780105114,
            0.004875466227531433,
            0.12371589243412018,
            0.07585220783948898,
            0.0034165112301707268,
            -0.001093551516532898,
            -0.01179115567356348,
            -0.009086297824978828,
            -0.018725436180830002,
            -0.0008611748344264925,
            -0.048876985907554626,
            0.0024912594817578793,
            -0.04710351303219795,
            -0.020057331770658493,
            0.04887010157108307,
            0.07854623347520828,
            0.15298601984977722,
            0.11217828840017319,
            0.023910384625196457,
            -0.009449373930692673,
            -0.006761263590306044,
            0.05752846598625183,
            0.061644937843084335,
            0.06815405189990997,
            0.0597560852766037,
            -0.0004442252975422889,
            0.02980523183941841,
            0.024197405204176903,
            0.018166277557611465,
            0.074801504611969,
            0.11288691312074661,
            0.08771032840013504,
            0.03701731562614441,
            -0.00017265327915083617,
            0.00043215497862547636,
            -0.011847185902297497,
            0.0019330515060573816,
            -0.03274375572800636,
            -0.04974004998803139,
            -0.03599291294813156,
            -0.039441343396902084,
            -0.04921096935868263,
            0.05628937482833862,
            0.12618669867515564,
            0.09575329720973969,
            0.05555102229118347,
            0.015038393437862396,
            -0.030317211523652077,
            -0.0016038717003539205,
            0.05507829412817955,
            0.007806797046214342,
            0.05182187631726265,
            -0.0008595256949774921,
            -0.004922054708003998,
            0.04423687979578972,
            0.03216825798153877,
            0.015151659958064556,
            0.056947819888591766,
            0.06118607148528099,
            0.08000689744949341,
            0.011709996499121189,
            -0.00743302796036005,
            -0.025890862569212914,
            0.014821558259427547,
            0.0006153336144052446,
            -0.04221024736762047,
            -0.03768773749470711,
            -0.012996294535696507,
            -0.05436769127845764,
            0.023967204615473747,
            0.11880704760551453,
            0.11722880601882935,
            0.14387966692447662,
            0.03170332312583923,
            0.034813281148672104,
            -0.0276029109954834,
            0.02997138909995556,
            0.032089587301015854,
            -0.033966608345508575,
            0.0077810632064938545,
            -0.0037657334469258785,
            0.031173108145594597,
            -0.002528182230889797,
            0.03304198011755943,
            0.031256746500730515,
            0.07689884305000305,
            0.09146200865507126,
            0.03122103400528431,
            0.01743190735578537,
            0.03658260405063629,
            0.004631189163774252,
            0.009600484743714333,
            -0.022234948351979256,
            -0.05335089936852455,
            -0.028857216238975525,
            -0.018596047535538673,
            -0.06365355104207993,
            0.02068272791802883,
            0.1280047744512558,
            0.1093767061829567,
            0.09098666161298752,
            0.07959682494401932,
            0.005386723671108484,
            0.028495782986283302,
            0.06960881501436234,
            0.03839500620961189,
            -0.005173611920326948,
            -0.010608553886413574,
            -0.0643078163266182,
            -0.046866681426763535,
            -0.019207870587706566,
            -0.039966050535440445,
            -0.0125465402379632,
            0.022940801456570625,
            0.03668491542339325,
            0.008111986331641674,
            0.018826331943273544,
            0.016463151201605797,
            -0.017120182514190674,
            -0.0029987450689077377,
            -0.01653253473341465,
            -0.02293534204363823,
            -0.015121707692742348,
            0.009958373382687569,
            -0.030676482245326042,
            0.08883214741945267,
            0.07492119818925858,
            0.0316791906952858,
            0.08821026235818863,
            0.09608710557222366,
            0.03988445922732353,
            -0.007994729094207287,
            -0.020220723003149033,
            0.02672959491610527,
            -0.09052819758653641,
            -0.14563992619514465,
            -0.12578244507312775,
            -0.0619170144200325,
            -0.0948539525270462,
            -0.05018573999404907,
            -0.018688436597585678,
            0.012826813384890556,
            0.0266383346170187,
            -0.02929287776350975,
            0.02767026051878929,
            -0.004464235622435808,
            0.0027474230155348778,
            -0.012127229943871498,
            -0.012024138122797012,
            -0.009879427962005138,
            -0.0016860889736562967,
            0.001312618376687169,
            0.03273483365774155,
            0.019479578360915184,
            0.002862588968127966,
            0.06230954825878143,
            0.04326573386788368,
            0.03973899036645889,
            0.042568884789943695,
            0.0532965324819088,
            -0.05773911625146866,
            -0.08601139485836029,
            -0.14866876602172852,
            -0.12969110906124115,
            -0.08955037593841553,
            -0.06848966330289841,
            -0.0819416493177414,
            -0.08260965347290039,
            -0.00445876270532608,
            0.015070535242557526,
            -0.01290708128362894,
            -0.02087293565273285,
            0.012950504198670387,
            0.031288061290979385,
            0.008380582556128502,
            -0.0015796752413734794,
            -0.01866007409989834,
            -0.005818595644086599,
            -0.010421079583466053,
            0.0276139248162508,
            0.03647053986787796,
            0.060001835227012634,
            0.09564576297998428,
            0.09480299055576324,
            0.1189977154135704,
            0.07466524839401245,
            0.05611956864595413,
            -0.008834777399897575,
            -0.08453217893838882,
            -0.11206912994384766,
            -0.10893768072128296,
            -0.11730097979307175,
            -0.05984358862042427,
            -0.06320692598819733,
            -0.08465167880058289,
            -0.010154899209737778,
            0.021764792501926422,
            -0.0035799196921288967,
            0.005167967639863491,
            -0.010860288515686989,
            0.008626975119113922,
            0.011310993693768978,
            -0.02781657874584198,
            0.030326206237077713,
            -0.012074286118149757,
            0.002409205073490739,
            -0.0052512893453240395,
            -0.04419873654842377,
            -0.02132483571767807,
            0.04506220296025276,
            0.07033945620059967,
            0.11741514503955841,
            0.09386666864156723,
            0.1309686303138733,
            0.13181813061237335,
            0.05481289327144623,
            0.02655242383480072,
            -0.001979184802621603,
            -0.03284792974591255,
            -0.024506576359272003,
            0.012481486424803734,
            -0.015834348276257515,
            -0.061682600528001785,
            -0.010554105043411255,
            -0.0013954831520095468,
            -0.007295524701476097,
            -0.03126756101846695,
            -0.0077671571634709835,
            0.021054064854979515,
            -0.02912864275276661,
            0.0002675950527191162,
            -0.0024565672501921654,
            -0.02768438309431076,
            -0.0019670124165713787,
            -0.05378365516662598,
            -0.04177707061171532,
            0.0044250027276575565,
            -0.06421465426683426,
            -0.029275095090270042,
            -0.014859111979603767,
            0.01924775540828705,
            0.03492796793580055,
            0.09176912903785706,
            0.0551607683300972,
            0.03160656988620758,
            0.07932168990373611,
            0.005742763169109821,
            0.01417321152985096,
            -0.014402423985302448,
            -0.06096137315034866,
            -0.0831703320145607,
            -0.059103768318891525,
            -0.013126404024660587,
            -0.04437733814120293,
            0.032584551721811295,
            0.031849902123212814,
            -0.0010853629792109132,
            0.03240879997611046,
            0.03427154943346977,
            -0.0012941701570525765,
            0.01550594437867403,
            -0.010987401008605957,
            -0.028424784541130066,
            0.009249603375792503,
            -0.046501271426677704,
            0.009974926710128784,
            0.009271135553717613,
            -0.012345176190137863,
            -0.0044561587274074554,
            -0.029306616634130478,
            -0.0004396718868520111,
            -0.014783038757741451,
            0.02809009701013565,
            0.04037541523575783,
            0.008464165963232517,
            0.015570280142128468,
            -0.04353666678071022,
            -0.03737315908074379,
            -0.06436911970376968,
            -0.039037857204675674,
            0.011454736813902855,
            -0.006945824716240168,
            0.022879060357809067,
            0.00015850449563004076,
            0.006519375368952751,
            -0.006484998390078545,
            0.007785418536514044,
            0.013792562298476696,
            -0.02356594428420067,
            0.010086055845022202,
            -0.021034179255366325,
            -0.0008961307466961443,
            -0.0036690253764390945,
            -0.01186907384544611,
            0.003476279554888606,
            0.033287469297647476,
            0.0012087164213880897,
            -0.012139607220888138,
            -0.029932264238595963,
            -0.031972866505384445,
            0.03704431653022766,
            -0.0009430068894289434,
            0.0249443668872118,
            -0.0199163518846035,
            -0.0037260507233440876,
            0.0051467628218233585,
            -0.005967560224235058,
            0.015044083818793297,
            0.002077579265460372,
            0.0012124724453315139,
            -0.004984400700777769,
            -0.0323081910610199,
            -0.014280230738222599,
            0.0028105208184570074,
            0.010507005266845226,
            0.01053002942353487,
            0.03218314051628113,
            0.03083154745399952,
            0.024976301938295364,
            0.03243789076805115,
            0.03491590544581413,
            -0.015509532764554024,
            0.02428402192890644,
            0.0005827414570376277,
            0.007023290731012821,
            -0.024155929684638977,
            -0.0042851511389017105,
            0.04013223573565483,
            0.00731136929243803,
            0.01398717612028122,
            0.003465529065579176,
            -0.014734769240021706,
            0.0024012194480746984,
            0.0010712798684835434,
            -0.02213037759065628,
            0.014962629415094852,
            -0.005371249746531248,
            0.013997679576277733,
            -0.012476862408220768,
            0.026726344600319862,
            -0.03427150100469589,
            0.0013321000151336193
        ],
        [
            -0.022997375577688217,
            0.033097051084041595,
            -0.03125382214784622,
            -0.027467167004942894,
            0.032233137637376785,
            -0.010709894821047783,
            0.01914072595536709,
            -0.029551848769187927,
            0.02060188166797161,
            0.004203272983431816,
            0.002089492045342922,
            0.001766383764334023,
            0.008102120831608772,
            -0.02928811125457287,
            -0.033397361636161804,
            -0.009368190541863441,
            -0.02179025486111641,
            -0.02418447472155094,
            -0.02551233023405075,
            -0.002768124919384718,
            0.011783561669290066,
            0.02663118578493595,
            0.009247367270290852,
            -0.028001144528388977,
            0.017792144790291786,
            -0.026498008519411087,
            -0.022655999287962914,
            0.013357971794903278,
            0.007071848958730698,
            0.027884650975465775,
            0.0013458729954436421,
            0.02937871403992176,
            0.0010199686512351036,
            0.006801689974963665,
            -0.00985910277813673,
            -0.02715419791638851,
            0.023203479126095772,
            0.03549226373434067,
            0.004318491090089083,
            -0.013794741593301296,
            -0.006507522892206907,
            -0.0034354892559349537,
            0.029770897701382637,
            0.020721733570098877,
            -0.003143359674140811,
            0.013317329809069633,
            0.020876577123999596,
            0.014313864521682262,
            0.03923608362674713,
            -0.001385452225804329,
            -0.01508927159011364,
            0.00464396458119154,
            0.03149988129734993,
            0.008919614367187023,
            0.024538161233067513,
            -0.011855615302920341,
            0.002900021616369486,
            -0.02408742532134056,
            0.01818183623254299,
            0.027739664539694786,
            0.012213997542858124,
            -0.017597272992134094,
            0.0374014675617218,
            0.0399310402572155,
            -0.020073896273970604,
            0.018738042563199997,
            0.028180472552776337,
            -0.0192100927233696,
            0.03901532664895058,
            0.06236327439546585,
            0.030766386538743973,
            0.023207154124975204,
            0.07388205826282501,
            0.06261223554611206,
            0.008014961145818233,
            0.04181692749261856,
            0.02078394778072834,
            0.02825160138309002,
            0.015691114589571953,
            0.024764124304056168,
            0.013252721168100834,
            0.014627644792199135,
            -0.006389571353793144,
            -0.01658450812101364,
            0.012446693144738674,
            -0.014481676742434502,
            0.006250317674130201,
            0.011014265939593315,
            0.010287409648299217,
            -0.011413008905947208,
            -0.025248857215046883,
            -0.007815033197402954,
            0.008324171416461468,
            0.006813328713178635,
            -0.022327328100800514,
            -0.027685437351465225,
            0.02290990762412548,
            0.0804409310221672,
            0.05746253579854965,
            0.08600464463233948,
            0.06076715886592865,
            0.05512519180774689,
            0.015002084895968437,
            0.056717678904533386,
            -0.004896261263638735,
            0.026061102747917175,
            0.02608458511531353,
            0.006074931938201189,
            -0.03376634791493416,
            -0.018133634701371193,
            0.00435281079262495,
            -0.021934647113084793,
            -0.014712654054164886,
            -0.007544756401330233,
            -0.024351129308342934,
            -0.01976962946355343,
            -0.014849146828055382,
            -0.010169276036322117,
            0.009119217284023762,
            0.013598132878541946,
            0.013639740645885468,
            0.015527402982115746,
            -0.03945391625165939,
            0.011745606549084187,
            -0.02261553332209587,
            0.08633849769830704,
            0.049431297928094864,
            0.04511987045407295,
            0.0027590570971369743,
            -0.05967613682150841,
            -0.04685964062809944,
            -0.04410533234477043,
            -0.050394002348184586,
            -0.028147803619503975,
            0.007628249935805798,
            -0.027030998840928078,
            -0.008355196565389633,
            -0.05541088804602623,
            -0.023090483620762825,
            -0.023558061569929123,
            -0.022326190024614334,
            -0.03420069068670273,
            -0.023166567087173462,
            0.032352425158023834,
            0.015803631395101547,
            0.002956814132630825,
            0.03635135665535927,
            -0.014522570185363293,
            0.024699781090021133,
            -0.011424371041357517,
            -0.09694716334342957,
            -0.06249723955988884,
            0.013806740753352642,
            0.1354624480009079,
            0.15897953510284424,
            0.11738400906324387,
            0.04888595640659332,
            -0.07883965969085693,
            -0.08157908916473389,
            -0.061863526701927185,
            -0.1370425820350647,
            -0.11765899509191513,
            -0.021419310942292213,
            -0.023325763642787933,
            -0.02076376974582672,
            -0.03709380701184273,
            -0.034257736057043076,
            0.005777920596301556,
            -0.017218565568327904,
            -0.006347895134240389,
            -0.0025421397294849157,
            -0.0014551359927281737,
            0.013467628508806229,
            -0.023798802867531776,
            -0.02896137163043022,
            -0.034822069108486176,
            -0.08596836775541306,
            -0.08779975771903992,
            -0.07656750082969666,
            -0.009075533598661423,
            0.075551837682724,
            0.10576624423265457,
            0.15448108315467834,
            0.1655239760875702,
            -0.000899582402780652,
            -0.1193239837884903,
            -0.1332581639289856,
            -0.12476709485054016,
            -0.13132977485656738,
            -0.035166651010513306,
            -0.02275780402123928,
            0.02344585210084915,
            -0.030667129904031754,
            -0.0050013805739581585,
            0.02317948080599308,
            -0.028611360117793083,
            0.023134207352995872,
            -0.02163321152329445,
            -0.040538907051086426,
            -0.03455289825797081,
            0.002217690460383892,
            0.032530758529901505,
            -0.05937759950757027,
            -0.007953030988574028,
            -0.12234526872634888,
            -0.04719927906990051,
            -0.07662695646286011,
            0.025772515684366226,
            0.03698518127202988,
            0.11071629077196121,
            0.24172484874725342,
            0.17007477581501007,
            0.02507895603775978,
            -0.043954890221357346,
            -0.18846572935581207,
            -0.19702070951461792,
            -0.10628564655780792,
            -0.05259816348552704,
            0.011431003920733929,
            0.056759823113679886,
            0.032763224095106125,
            -0.010309930890798569,
            0.0061570280231535435,
            -0.03434983640909195,
            -0.033483125269412994,
            -0.016996774822473526,
            0.010033256374299526,
            -0.03837304562330246,
            0.007298023905605078,
            -0.05195077136158943,
            -0.0701896920800209,
            -0.11176363378763199,
            -0.1099095270037651,
            -0.14479662477970123,
            -0.10001643747091293,
            -0.08491888642311096,
            0.02055012807250023,
            0.20660696923732758,
            0.3021715581417084,
            0.20224903523921967,
            -0.08011015504598618,
            -0.15142086148262024,
            -0.1895127296447754,
            -0.13604900240898132,
            -0.03876982629299164,
            -0.01541720051318407,
            -0.01453163381665945,
            -0.009447414427995682,
            -0.01945462077856064,
            0.03768990561366081,
            0.02080867625772953,
            0.01750415936112404,
            -0.01443419884890318,
            0.02981136366724968,
            0.024597106501460075,
            0.010595742613077164,
            -0.0168440043926239,
            -0.02712026610970497,
            -0.07027897238731384,
            -0.06218302994966507,
            -0.14996103942394257,
            -0.14666177332401276,
            -0.15933434665203094,
            -0.11321628093719482,
            0.01378211472183466,
            0.2767024338245392,
            0.3042531907558441,
            0.07354902476072311,
            -0.23116548359394073,
            -0.2254844754934311,
            -0.12802903354167938,
            -0.04671614244580269,
            -0.0020016897469758987,
            -0.004907649476081133,
            -0.05361349508166313,
            -0.014461788348853588,
            -0.0288077499717474,
            0.006444721017032862,
            -0.03266597166657448,
            0.005251424387097359,
            -0.004702362231910229,
            0.025892795994877815,
            -0.014204936102032661,
            -0.015132785774767399,
            -0.020150309428572655,
            -0.08224690705537796,
            -0.09929975867271423,
            -0.03523506224155426,
            -0.13943758606910706,
            -0.1385401338338852,
            -0.13704131543636322,
            0.03938985615968704,
            0.14385075867176056,
            0.26310786604881287,
            0.16430285573005676,
            -0.019309809431433678,
            -0.24961936473846436,
            -0.15261176228523254,
            -0.10141774266958237,
            -0.013461458496749401,
            0.00023703995975665748,
            0.0331229642033577,
            -0.0087288124486804,
            0.011265895329415798,
            -0.012164641171693802,
            -0.051638394594192505,
            -0.03705425560474396,
            0.003338343696668744,
            0.032808247953653336,
            -0.022110793739557266,
            -0.005248321685940027,
            0.026051674038171768,
            -0.017266597598791122,
            -0.054592523723840714,
            -0.12366006523370743,
            -0.05236972123384476,
            -0.045833081007003784,
            -0.04242251440882683,
            0.05599221959710121,
            0.15921562910079956,
            0.2181883603334427,
            0.1817421168088913,
            -0.10655540227890015,
            -0.14301548898220062,
            -0.12853148579597473,
            -0.05314642935991287,
            -0.03133075684309006,
            -0.000987136154435575,
            0.0007736831903457642,
            0.011637234129011631,
            -0.02004777453839779,
            0.028666852042078972,
            -0.031013241037726402,
            -0.042711008340120316,
            -0.0013862373307347298,
            -0.004453802481293678,
            0.022372080013155937,
            0.0010137951467186213,
            0.015035961754620075,
            0.018992427736520767,
            -0.04128718748688698,
            -0.05861686170101166,
            -0.027475522831082344,
            -0.009482448920607567,
            0.05889778584241867,
            0.13795414566993713,
            0.2167186737060547,
            0.15511104464530945,
            0.16011521220207214,
            -0.004589115735143423,
            -0.14447177946567535,
            -0.14727863669395447,
            -0.07672909647226334,
            -0.08948582410812378,
            -0.08280174434185028,
            -0.07339731603860855,
            -0.003912029787898064,
            -0.012240624986588955,
            0.032376762479543686,
            0.012298335321247578,
            0.04865444451570511,
            -0.061474911868572235,
            -0.01702839694917202,
            -0.010991217568516731,
            0.01535168755799532,
            0.012750551104545593,
            0.028601540252566338,
            0.005397979170084,
            -0.0447399765253067,
            0.03558386489748955,
            0.06011730805039406,
            0.05015181005001068,
            0.08687180280685425,
            0.16811814904212952,
            0.14595840871334076,
            0.04910022392868996,
            0.003568447893485427,
            -0.11151357740163803,
            -0.11880446970462799,
            -0.09609528630971909,
            -0.08566421270370483,
            -0.12106720358133316,
            -0.1030663400888443,
            -0.06971577554941177,
            -0.09189186990261078,
            -0.043955523520708084,
            0.047476641833782196,
            0.11716845631599426,
            0.038217898458242416,
            -0.01070769876241684,
            -0.020251678302884102,
            -0.01134017389267683,
            -0.009805298410356045,
            0.024263275787234306,
            -0.029957037419080734,
            0.03903132304549217,
            -0.027418719604611397,
            0.07839525490999222,
            0.08220604062080383,
            0.09609586745500565,
            0.11254416406154633,
            0.10245509445667267,
            0.011731008067727089,
            -0.05325512960553169,
            -0.036983244121074677,
            -0.13491877913475037,
            -0.0921688824892044,
            -0.029355423524975777,
            -0.047211017459630966,
            -0.07698656618595123,
            -0.1384822577238083,
            -0.12557995319366455,
            -0.04308098554611206,
            0.014022644609212875,
            0.09495437145233154,
            0.13006001710891724,
            0.030936837196350098,
            -0.05379654839634895,
            -0.01277618296444416,
            0.0163546334952116,
            -0.00836869329214096,
            0.030165832489728928,
            0.0296371728181839,
            -0.0002585638139862567,
            -0.033021677285432816,
            0.0456877127289772,
            0.029974153265357018,
            0.08485973626375198,
            0.06217852979898453,
            0.005488100927323103,
            0.009429439902305603,
            -0.0649593397974968,
            -0.049734704196453094,
            -0.12260854989290237,
            -0.014765762723982334,
            -0.0324399508535862,
            -0.009436577558517456,
            -0.022216198965907097,
            -0.08662363886833191,
            -0.11547967046499252,
            -0.047336842864751816,
            0.012272619642317295,
            0.12373808026313782,
            0.1378834992647171,
            0.020923582836985588,
            -0.0011940086260437965,
            -0.05411871150135994,
            -0.007613572292029858,
            0.015869302675127983,
            0.03518963232636452,
            0.01752191223204136,
            0.025607982650399208,
            -0.002369586145505309,
            0.05535247549414635,
            0.046715736389160156,
            0.09356091916561127,
            0.030719904229044914,
            0.046015553176403046,
            -0.0040143816731870174,
            -0.027393804863095284,
            -0.08609721809625626,
            -0.14029023051261902,
            0.027435576543211937,
            -0.020352652296423912,
            -0.01743256486952305,
            -0.05888793617486954,
            -0.03479025140404701,
            -0.03950798138976097,
            0.046636294573545456,
            0.012608012184500694,
            0.06632912158966064,
            0.03883860632777214,
            0.05560307949781418,
            -0.04926850274205208,
            -0.024191109463572502,
            -0.0356459841132164,
            -0.02976694330573082,
            -0.014802073128521442,
            -0.007133380509912968,
            -0.024366242811083794,
            -0.030872365459799767,
            0.013874475844204426,
            0.008851530961692333,
            0.005118087865412235,
            0.009487067349255085,
            0.03646966069936752,
            0.0044169556349515915,
            -0.0540706142783165,
            -0.11525167524814606,
            -0.05139782279729843,
            0.12766598165035248,
            0.06817568093538284,
            -0.010712118819355965,
            -0.0418989360332489,
            -0.05069449171423912,
            -0.010081231594085693,
            -0.006190361920744181,
            0.05149160325527191,
            0.0781162828207016,
            0.08971402049064636,
            -0.02466578781604767,
            -0.022714266553521156,
            -0.026730475947260857,
            0.019388969987630844,
            0.02088855393230915,
            -0.02648579701781273,
            0.02924335189163685,
            -0.0153883658349514,
            -0.02137177623808384,
            0.012349970638751984,
            -0.05958201736211777,
            -0.0532398447394371,
            0.06392474472522736,
            0.056327320635318756,
            0.01190890185534954,
            -0.09537455439567566,
            -0.05720944330096245,
            -0.01781097985804081,
            0.09256184101104736,
            0.0933525562286377,
            0.007324962876737118,
            -0.013670138083398342,
            -0.0007208185270428658,
            -0.03478185087442398,
            0.033815301954746246,
            0.0994039997458458,
            0.055597659200429916,
            -0.002228209748864174,
            -0.07343238592147827,
            -0.029691684991121292,
            -0.029720308259129524,
            0.019126994535326958,
            0.028879979625344276,
            -0.034534335136413574,
            -0.03187226504087448,
            0.0035349673125892878,
            -0.06417299062013626,
            -0.0010038749314844608,
            -0.060907620936632156,
            -0.048942681401968,
            0.023371897637844086,
            0.04196732118725777,
            0.007787313312292099,
            -0.013104455545544624,
            -0.024749349802732468,
            -0.0004225444281473756,
            0.10130293667316437,
            0.10608195513486862,
            0.09362723678350449,
            0.01435970887541771,
            0.08143996447324753,
            0.025868071243166924,
            0.05362648516893387,
            0.04056651145219803,
            -0.03592206910252571,
            -0.04157070815563202,
            -0.01313527300953865,
            -0.05092596262693405,
            -0.03150087967514992,
            -0.01600831001996994,
            0.029982343316078186,
            -0.028719233348965645,
            -0.002482932759448886,
            -0.0077910455875098705,
            -0.02967493236064911,
            -0.0951269194483757,
            -0.03749045357108116,
            -0.03978102281689644,
            -0.028124568983912468,
            0.04861099645495415,
            -0.014879506081342697,
            -0.013812728226184845,
            0.02620147541165352,
            0.052899572998285294,
            0.12696099281311035,
            0.07471873611211777,
            0.07762923091650009,
            -0.006092299707233906,
            0.13944698870182037,
            0.010485668666660786,
            0.06177684664726257,
            0.018984248861670494,
            -0.04349817708134651,
            -0.048429980874061584,
            -0.04304398596286774,
            -0.028717586770653725,
            0.009588978253304958,
            -0.0028496275190263987,
            0.022927124053239822,
            0.03401012346148491,
            0.017674829810857773,
            0.011571992188692093,
            -0.05310923233628273,
            -0.10245081037282944,
            -0.08175332099199295,
            -0.09011007100343704,
            -0.04573064297437668,
            -0.041789162904024124,
            -0.023063166067004204,
            0.0180470310151577,
            0.03326960653066635,
            0.019113024696707726,
            0.09932613372802734,
            0.15201997756958008,
            0.0399361178278923,
            -0.06780310720205307,
            0.1283503919839859,
            0.051364317536354065,
            0.008841385133564472,
            -0.024974511936306953,
            -0.08317406475543976,
            -0.024009741842746735,
            -0.016295816749334335,
            -0.03792393580079079,
            -0.00986128393560648,
            0.03022334724664688,
            -0.0030401223339140415,
            0.0007373691187240183,
            -0.008940774016082287,
            -0.00233921455219388,
            -0.028523486107587814,
            -0.027513660490512848,
            -0.06999538093805313,
            -0.07346049696207047,
            -0.017716670408844948,
            -0.03570252284407616,
            -0.007895801216363907,
            -0.014513754285871983,
            0.004012971185147762,
            0.019697993993759155,
            0.05831301957368851,
            0.08593533933162689,
            -0.0033477013930678368,
            0.011178233660757542,
            0.09367691725492477,
            0.0508565790951252,
            -0.031119609251618385,
            -0.05087260901927948,
            -0.02045373059809208,
            -0.030159251764416695,
            -0.054877761751413345,
            -0.04322956129908562,
            -0.02142968401312828,
            -0.0027752635069191456,
            -0.019647657871246338,
            0.0028487062081694603,
            0.0021303119137883186,
            -0.014271880500018597,
            -0.0336071215569973,
            -0.056036390364170074,
            -0.03457580506801605,
            -0.05366168171167374,
            -0.03258956968784332,
            0.06319116801023483,
            0.06344808638095856,
            0.06658004224300385,
            0.03592240437865257,
            0.05349985882639885,
            0.09339380264282227,
            0.08328935503959656,
            0.012036561034619808,
            0.050326474010944366,
            0.05004623159766197,
            0.05389954894781113,
            0.01712447963654995,
            -0.023656152188777924,
            -0.0034516695886850357,
            -0.041728727519512177,
            -0.062443893402814865,
            -0.029154889285564423,
            0.00684503884986043,
            -0.02820398658514023,
            -0.01151286717504263,
            -0.026703154668211937,
            0.019751405343413353,
            -0.0064767650328576565,
            0.021886266767978668,
            0.012165303342044353,
            -0.008909196592867374,
            0.006584272254258394,
            -0.016266558319330215,
            0.0252535417675972,
            0.1043420359492302,
            0.09225136786699295,
            0.024391978979110718,
            -0.0319678820669651,
            -0.0006096356664784253,
            -0.00607821810990572,
            -0.012090742588043213,
            0.04482128471136093,
            0.04035026580095291,
            -0.01912730187177658,
            -0.054862454533576965,
            -0.038965702056884766,
            -0.03521882742643356,
            -0.024628082290291786,
            -0.009685180149972439,
            0.0030678906477987766,
            -0.015385238453745842,
            -0.03377513587474823,
            0.035000890493392944,
            -0.01624954678118229,
            -0.03339060768485069,
            -0.030987778678536415,
            -0.0059072296135127544,
            0.03754492104053497,
            0.03281315788626671,
            -0.010877729393541813,
            0.044663455337285995,
            0.030604533851146698,
            0.04843737930059433,
            -0.01590912789106369,
            -0.06555484980344772,
            -0.11332235485315323,
            -0.11114755272865295,
            -0.13418328762054443,
            -0.15222883224487305,
            -0.13659808039665222,
            -0.02782217413187027,
            -0.05660875886678696,
            -0.02477513812482357,
            0.029236575588583946,
            -0.014857292175292969,
            -0.028390122577548027,
            -0.01370862778276205,
            -0.01664651371538639,
            -0.010782519355416298,
            -0.027188383042812347,
            0.029256310313940048,
            -0.010921875014901161,
            -0.031161228194832802,
            -0.014678158797323704,
            -0.011907409876585007,
            -0.028066791594028473,
            -0.009179639630019665,
            0.03992852568626404,
            0.006431189831346273,
            -0.007715425454080105,
            0.022183259949088097,
            -0.03660351410508156,
            -0.054729025810956955,
            -0.02795223891735077,
            -0.09462403506040573,
            -0.0777587741613388,
            -0.044592246413230896,
            -0.08815706521272659,
            -0.014935692772269249,
            -0.013806989416480064,
            -0.012285596691071987,
            -0.017263969406485558,
            0.03152474761009216,
            -0.0034004165790975094,
            -0.035082366317510605,
            -0.013608481734991074,
            -0.02817879058420658,
            -0.016408830881118774,
            -0.013825000263750553,
            0.024517614394426346,
            0.01870526745915413,
            -0.019185714423656464,
            -0.03262697905302048,
            0.020352642983198166,
            0.0026551797054708004,
            0.01611579768359661,
            0.025315022096037865,
            0.035343535244464874,
            -0.006834439001977444,
            0.017675135284662247,
            0.009384010918438435,
            -0.013171679340302944,
            0.011328330263495445,
            -0.027819231152534485,
            0.030967000871896744,
            -0.012953102588653564,
            0.03251282498240471,
            -0.013962436467409134,
            0.029424363747239113,
            0.01738114468753338,
            -0.00813161302357912,
            -0.009075358510017395,
            0.0202589463442564,
            0.02502983994781971,
            0.0035138132516294718,
            -0.014422834850847721
        ],
        [
            0.009798306040465832,
            0.01474791020154953,
            -0.01778309792280197,
            0.012055482715368271,
            0.0032336884178221226,
            0.0008320467895828187,
            -0.03254077583551407,
            -0.03542919456958771,
            0.03169800713658333,
            -0.009636014699935913,
            -0.0070688771083951,
            0.010004354640841484,
            0.01863867975771427,
            0.020691225305199623,
            -0.01992778293788433,
            0.03188403695821762,
            0.01072687841951847,
            0.012529897503554821,
            0.0024974688421934843,
            0.024089137092232704,
            -0.005323967896401882,
            0.029406089335680008,
            -0.03292949125170708,
            -0.027017828077077866,
            0.028010085225105286,
            -0.030691808089613914,
            0.003405409399420023,
            -0.03031327575445175,
            0.012630361132323742,
            0.0037442916072905064,
            0.019243428483605385,
            -0.020963724702596664,
            -0.013907266780734062,
            0.013934923335909843,
            -0.02325320802628994,
            -0.019961174577474594,
            0.021095333620905876,
            -0.003187744179740548,
            -0.0022517929319292307,
            -0.0049571692943573,
            -0.007491341792047024,
            0.01077230367809534,
            0.01739506982266903,
            -0.006517984438687563,
            -0.039668336510658264,
            0.026909509673714638,
            0.031075196340680122,
            -0.030877815559506416,
            0.003242396516725421,
            0.010647919028997421,
            0.015745962038636208,
            0.014678199775516987,
            -0.006722552701830864,
            0.009720513597130775,
            -0.03539704903960228,
            0.022881729528307915,
            -0.007371225859969854,
            0.007010000292211771,
            -0.030128177255392075,
            0.0010754909599199891,
            0.015542099252343178,
            -0.01934368908405304,
            -0.007058224640786648,
            -0.021922916173934937,
            0.025009531527757645,
            -0.014718469232320786,
            -0.0031202281825244427,
            -0.04560735076665878,
            -0.040544189512729645,
            -0.017957888543605804,
            -0.036045800894498825,
            0.014214986003935337,
            -0.02377481944859028,
            0.010989337228238583,
            -0.023120181635022163,
            0.0021564688067883253,
            0.025935739278793335,
            -0.03354636952280998,
            -0.026596318930387497,
            -0.015428201295435429,
            -0.029046442359685898,
            -0.007775451522320509,
            -0.013405097648501396,
            -2.677525844774209e-05,
            -0.0069832890294492245,
            0.02753787860274315,
            0.015416237525641918,
            0.0033631576225161552,
            -0.03555930778384209,
            -0.011873597279191017,
            -0.00629731360822916,
            -0.013191768899559975,
            -0.037097763270139694,
            -0.007746273651719093,
            -0.0848686620593071,
            -0.055853087455034256,
            -0.0296653900295496,
            -0.05952192097902298,
            -0.08214399963617325,
            -0.059731338173151016,
            -0.08992766588926315,
            -0.04320240765810013,
            -0.02069857530295849,
            -0.03687450662255287,
            0.01577438786625862,
            -0.020038897171616554,
            0.022979386150836945,
            -0.02892015315592289,
            -0.03371944651007652,
            0.037887562066316605,
            -0.010794658213853836,
            0.021430058404803276,
            -0.025521356612443924,
            -0.009147214703261852,
            0.03277360275387764,
            -0.025841131806373596,
            -0.024732936173677444,
            0.019598038867115974,
            0.010599597357213497,
            -0.021916748955845833,
            -0.07963086664676666,
            -0.022034108638763428,
            -0.08295769989490509,
            -0.11637133359909058,
            -0.056388162076473236,
            -0.07402967661619186,
            -0.06386549025774002,
            -0.08300483226776123,
            -0.04116709530353546,
            -0.043926700949668884,
            0.0001635150983929634,
            -0.020878665149211884,
            -0.02164817601442337,
            -0.008402666077017784,
            0.007082121446728706,
            0.029316619038581848,
            0.03418822959065437,
            0.048331644386053085,
            0.010443098843097687,
            -0.027995862066745758,
            0.0009485185728408396,
            0.01362890936434269,
            0.02755720540881157,
            0.024043496698141098,
            0.023617621511220932,
            -0.020834187045693398,
            -0.009323970414698124,
            -0.0785602405667305,
            -0.020056162029504776,
            -0.030202360823750496,
            -0.13326683640480042,
            -0.057501327246427536,
            0.007058235816657543,
            0.005126107484102249,
            -0.006939224433153868,
            -0.05574505776166916,
            -0.04848982021212578,
            -0.08829700201749802,
            -0.10301338881254196,
            -0.012894067913293839,
            -0.030522912740707397,
            0.002882963977754116,
            0.0361686646938324,
            0.038922738283872604,
            0.010932778008282185,
            0.026143914088606834,
            -0.01570737361907959,
            -0.02165016159415245,
            0.033732958137989044,
            0.02252958156168461,
            0.030757296830415726,
            0.029973449185490608,
            0.02400382235646248,
            0.010396034456789494,
            -0.02916431799530983,
            -0.054759569466114044,
            -0.08037685602903366,
            -0.09663061797618866,
            -0.020640844479203224,
            0.050906162708997726,
            0.10206350684165955,
            0.04463799670338631,
            0.020785368978977203,
            -0.02842460200190544,
            -0.09672576189041138,
            -0.019980156794190407,
            -0.0011860139202326536,
            0.08556371927261353,
            0.033517930656671524,
            0.01390704046934843,
            0.03573116660118103,
            0.06809215247631073,
            0.030857153236865997,
            0.050719305872917175,
            -0.003935935441404581,
            0.011890827678143978,
            -0.021948661655187607,
            0.0045674326829612255,
            -0.0019932501018047333,
            0.03178180381655693,
            -0.012358477339148521,
            -0.04301617667078972,
            -0.038917120546102524,
            0.0012526807840913534,
            -0.04458630457520485,
            -0.033085327595472336,
            0.010664571076631546,
            0.03320794552564621,
            0.06562206149101257,
            0.06472231447696686,
            0.0026755107101053,
            -0.013673088513314724,
            -0.032918769866228104,
            0.0005747435498051345,
            0.06718865036964417,
            0.05349348112940788,
            0.03701838105916977,
            0.0973665863275528,
            0.06866233795881271,
            0.08117910474538803,
            0.09218765050172806,
            0.015259303152561188,
            -0.004285258240997791,
            0.033512555062770844,
            -0.019397834315896034,
            0.035129401832818985,
            0.0180357675999403,
            0.023671628907322884,
            -0.019488640129566193,
            -0.013142005540430546,
            -0.004533938132226467,
            -0.008488505147397518,
            -0.030697723850607872,
            -0.0537099614739418,
            -0.03997974097728729,
            0.057828959077596664,
            0.058002080768346786,
            0.03273984044790268,
            -0.013028858229517937,
            -0.08549317717552185,
            -0.08427447825670242,
            0.001734442077577114,
            0.10451667010784149,
            0.03660774230957031,
            0.06283687055110931,
            0.1154283732175827,
            0.0774712786078453,
            0.10110263526439667,
            0.1452658474445343,
            0.04760359227657318,
            0.03311680257320404,
            -0.016930215060710907,
            0.020318729802966118,
            0.004241844639182091,
            0.03481912612915039,
            0.03034641407430172,
            0.040039077401161194,
            0.03685469925403595,
            0.0006248713470995426,
            -0.02544967271387577,
            0.017333388328552246,
            -0.04382797330617905,
            0.059647876769304276,
            0.0413629487156868,
            0.04504295811057091,
            0.03721241652965546,
            0.08868181705474854,
            0.04717741906642914,
            -0.014292910695075989,
            0.08784069865942001,
            0.0875416100025177,
            0.014193309471011162,
            -0.00337226246483624,
            0.11587309092283249,
            0.07626692205667496,
            0.11542756110429764,
            0.1508965790271759,
            0.08375808596611023,
            0.044943999499082565,
            0.011043887585401535,
            0.00016365875490009785,
            -0.018603414297103882,
            -0.028692256659269333,
            -0.022611312568187714,
            0.03766004368662834,
            0.009721376933157444,
            0.029140910133719444,
            -0.00642252154648304,
            0.007184331305325031,
            0.026053452864289284,
            0.15573476254940033,
            0.09607833623886108,
            0.08111662417650223,
            0.13366220891475677,
            0.1110382229089737,
            0.06571406871080399,
            0.021382296457886696,
            0.03963497281074524,
            0.09612560272216797,
            0.07793942838907242,
            0.08083555847406387,
            0.13218851387500763,
            0.07134629040956497,
            0.039208054542541504,
            0.10758155584335327,
            0.10648096352815628,
            0.053080201148986816,
            0.010574973188340664,
            0.03522602841258049,
            0.021627720445394516,
            0.03830534964799881,
            -0.002411128720268607,
            0.04107319563627243,
            0.0588986873626709,
            0.005767605267465115,
            0.0756894126534462,
            0.0394318550825119,
            0.07478280365467072,
            0.11391709744930267,
            0.13885775208473206,
            0.15813197195529938,
            0.10664764046669006,
            0.07966829836368561,
            0.01086390856653452,
            -0.0376398079097271,
            -0.0199699979275465,
            0.013998644426465034,
            0.010380829684436321,
            0.0020525965373963118,
            0.03857209160923958,
            0.019388148561120033,
            0.05110941082239151,
            0.0029918367508798838,
            0.07455188781023026,
            0.04188219830393791,
            0.005460233427584171,
            0.027376146987080574,
            -0.018047701567411423,
            0.006751969922333956,
            0.012881247326731682,
            0.05309759080410004,
            0.040270835161209106,
            0.04136314615607262,
            0.06756369769573212,
            0.07438936829566956,
            0.06110947206616402,
            0.0792003646492958,
            0.054549526423215866,
            0.021447455510497093,
            -0.04133467748761177,
            -0.09302856028079987,
            -0.08371765911579132,
            -0.1366044282913208,
            -0.126061350107193,
            -0.0943634882569313,
            -0.10345881432294846,
            -0.03728665038943291,
            -0.05553145334124565,
            -0.0812714695930481,
            -0.055275946855545044,
            -0.06066619232296944,
            0.02836112678050995,
            0.02451671101152897,
            -0.012021077796816826,
            -0.02804744429886341,
            0.02298985980451107,
            -0.013559513725340366,
            0.013547771610319614,
            -0.012269885279238224,
            0.03548429533839226,
            -0.022222138941287994,
            -0.04455580934882164,
            -0.0042752609588205814,
            0.03655095025897026,
            -0.005159397143870592,
            -0.08467277884483337,
            -0.15638412535190582,
            -0.18802961707115173,
            -0.07494033128023148,
            -0.06087733805179596,
            -0.08375119417905807,
            -0.16676433384418488,
            -0.14898711442947388,
            -0.10537353157997131,
            -0.06459254026412964,
            -0.03410042077302933,
            -0.059021465480327606,
            -0.05952342599630356,
            -0.08901645988225937,
            -0.005452626850455999,
            0.033822089433670044,
            -0.031804732978343964,
            0.013733908534049988,
            0.023165224120020866,
            0.03705583140254021,
            -0.008098766207695007,
            -0.0017196034314110875,
            -0.00409848103299737,
            -0.03016834706068039,
            -0.08952397108078003,
            -0.04373476654291153,
            -0.04962320253252983,
            -0.06441112607717514,
            -0.21007171273231506,
            -0.21129350364208221,
            -0.13487423956394196,
            0.04649705812335014,
            -0.0015901257283985615,
            -0.06643904000520706,
            -0.09527181833982468,
            -0.12697555124759674,
            -0.07038755714893341,
            -0.09468661993741989,
            -0.11733067780733109,
            -0.07108210027217865,
            -0.10225554555654526,
            -0.07949309051036835,
            0.007040550000965595,
            -0.019190611317753792,
            -0.02320748195052147,
            0.02959197387099266,
            -0.0105725834146142,
            -0.014091338962316513,
            -0.025299962610006332,
            -0.03424540162086487,
            -0.13152062892913818,
            -0.10572073608636856,
            -0.09277401864528656,
            -0.10819918662309647,
            -0.11081783473491669,
            -0.12673123180866241,
            -0.18724024295806885,
            -0.13723666965961456,
            -0.07680173218250275,
            0.031058412045240402,
            0.05984749644994736,
            -0.009236968122422695,
            -0.05619439482688904,
            -0.057620760053396225,
            -0.1295657604932785,
            -0.12946859002113342,
            -0.09937272220849991,
            -0.052226509898900986,
            -0.05475052818655968,
            -0.04822864383459091,
            -0.02293691411614418,
            0.02440500259399414,
            -0.02085305005311966,
            -0.032944273203611374,
            0.02708127349615097,
            -0.019696373492479324,
            0.0218758936971426,
            -0.06667383760213852,
            -0.1367984563112259,
            -0.07230131328105927,
            -0.12569016218185425,
            -0.19388562440872192,
            -0.0862262025475502,
            -0.09058106690645218,
            -0.13305945694446564,
            -0.059355102479457855,
            -0.019066641107201576,
            0.03596467524766922,
            0.09366777539253235,
            0.036803632974624634,
            -0.041251566261053085,
            -0.09131242334842682,
            -0.13636663556098938,
            -0.13054019212722778,
            -0.08557935804128647,
            -0.01918383687734604,
            -0.06981480121612549,
            -0.09874647110700607,
            -0.04208042100071907,
            -0.03118514083325863,
            -0.02141837403178215,
            -0.003470076248049736,
            0.014408618211746216,
            0.002730300184339285,
            0.009282087907195091,
            -0.05846955627202988,
            -0.11133024841547012,
            -0.08098474889993668,
            -0.134300097823143,
            -0.16082827746868134,
            -0.0910673663020134,
            -0.0008580322610214353,
            0.0734860822558403,
            0.03223782777786255,
            0.006768564227968454,
            0.1340332329273224,
            0.07631086558103561,
            0.05105603113770485,
            -0.015726232901215553,
            -0.05554341897368431,
            -0.10211396217346191,
            -0.08097230643033981,
            -0.0333876796066761,
            -0.022253764793276787,
            -0.03797266259789467,
            -0.01731281541287899,
            0.0014887235593050718,
            -0.034749310463666916,
            0.029810568317770958,
            -0.013579290360212326,
            -0.01513989083468914,
            0.017940321937203407,
            -0.0005475281504914165,
            -0.08379564434289932,
            -0.11693812906742096,
            -0.12541434168815613,
            -0.07443366199731827,
            -0.09809386730194092,
            0.04729842394590378,
            0.06366931647062302,
            0.06577184796333313,
            0.08233770728111267,
            0.04130416363477707,
            0.06449884176254272,
            0.017564203590154648,
            0.006808137521147728,
            -0.03533530607819557,
            -0.05817479267716408,
            -0.07865745574235916,
            -0.05714684724807739,
            -0.04376159980893135,
            -0.08142563700675964,
            -0.0214479211717844,
            -0.016408614814281464,
            -0.035782407969236374,
            -0.0036037869285792112,
            0.028037704527378082,
            0.029743924736976624,
            -0.0024049116764217615,
            -0.029857415705919266,
            -0.010277870111167431,
            -0.06514215469360352,
            -0.14419837296009064,
            -0.12961527705192566,
            -0.009012061171233654,
            0.008078470826148987,
            0.024438094347715378,
            0.03470299765467644,
            0.014362355694174767,
            0.03974028676748276,
            0.10161323845386505,
            0.06903218477964401,
            0.007261702325195074,
            0.05963968485593796,
            -0.035708967596292496,
            -0.05354156345129013,
            -0.0029341138433665037,
            -0.04884856194257736,
            -0.05183613672852516,
            -0.08072420954704285,
            -0.020067496225237846,
            0.015528907999396324,
            0.027084166184067726,
            -0.015477429144084454,
            -0.009244170039892197,
            -0.030997302383184433,
            0.005858100019395351,
            -0.02032744511961937,
            -0.03718716651201248,
            -0.06126818060874939,
            -0.05876229703426361,
            -0.08406049758195877,
            -0.0743354931473732,
            0.029392804950475693,
            0.057037536054849625,
            0.019848352298140526,
            0.01344892755150795,
            0.09475350379943848,
            0.017949070781469345,
            -0.004883021116256714,
            0.07398055493831635,
            -0.03354382887482643,
            0.006563951727002859,
            -0.0006743290578015149,
            -0.010905783623456955,
            -0.08479267358779907,
            -0.12977789342403412,
            -0.06624354422092438,
            0.007838717661798,
            0.008810576051473618,
            -0.03310849890112877,
            0.029169030487537384,
            0.013686519116163254,
            0.012279165908694267,
            -0.02619767375290394,
            -0.022495770826935768,
            0.001658015651628375,
            -0.05432325229048729,
            -0.018032854422926903,
            -0.014215178787708282,
            -0.005256158299744129,
            0.04873974621295929,
            0.045889824628829956,
            0.014895792119204998,
            0.08543507009744644,
            0.055712975561618805,
            0.03332861512899399,
            0.020092496648430824,
            0.04174703732132912,
            -0.036039188504219055,
            0.001376963104121387,
            0.02170858532190323,
            -0.022047463804483414,
            -0.04982301965355873,
            -0.04593706503510475,
            -0.015543053857982159,
            -0.022899208590388298,
            -0.01674632728099823,
            -0.011210717260837555,
            -0.0017075615469366312,
            0.017008943483233452,
            -0.0031425051856786013,
            0.00012409451301209629,
            -0.008167864754796028,
            -0.018132712692022324,
            -0.0255876611918211,
            0.04617476835846901,
            0.03305279463529587,
            0.03084908425807953,
            0.030643930658698082,
            0.07327522337436676,
            0.0278936717659235,
            0.06385040283203125,
            0.06640230864286423,
            0.06190808117389679,
            0.11382949352264404,
            0.09311091899871826,
            0.008350563235580921,
            0.03463886305689812,
            -0.0002564677852205932,
            -0.003789962502196431,
            0.0002620877930894494,
            -0.007865674793720245,
            -0.0430862121284008,
            -0.029399847611784935,
            -0.01622006669640541,
            -0.01810571551322937,
            0.015782997012138367,
            -0.02824830636382103,
            -0.031291212886571884,
            0.023789266124367714,
            -0.009871445596218109,
            -0.012279056943953037,
            0.0024727704003453255,
            -0.004264768213033676,
            0.0404847078025341,
            0.00588985625654459,
            0.020892521366477013,
            0.04313391447067261,
            -0.007329844404011965,
            0.047576114535331726,
            0.12125400453805923,
            0.12417621165513992,
            0.12051475793123245,
            0.07879985868930817,
            0.06701488792896271,
            0.011442421935498714,
            -0.02929297275841236,
            0.04625134542584419,
            0.01090839970856905,
            -0.01248799730092287,
            0.021401220932602882,
            0.02239408530294895,
            -0.04086768627166748,
            -0.020201683044433594,
            -0.03564251959323883,
            -0.001968098571524024,
            0.0068911402486264706,
            0.030492059886455536,
            -0.01957172155380249,
            -0.011050841771066189,
            -0.05620739236474037,
            -0.05142854526638985,
            -0.0064844791777431965,
            0.005681836511939764,
            0.003216036595404148,
            0.02860945090651512,
            0.07174837589263916,
            0.0944472923874855,
            0.10689614713191986,
            0.09413117915391922,
            0.03467698022723198,
            -0.0036867898888885975,
            -0.0324191078543663,
            0.049840062856674194,
            0.06926430016756058,
            0.07536047697067261,
            0.0347013883292675,
            0.02289401739835739,
            0.01070423424243927,
            -0.0025540580973029137,
            0.02781452238559723,
            -0.010145172476768494,
            0.011234891600906849,
            0.017799926921725273,
            0.029461177065968513,
            0.03264815732836723,
            0.01517377607524395,
            -0.018396414816379547,
            -0.024300506338477135,
            -0.02847517654299736,
            0.010779069736599922,
            0.011940274387598038,
            -0.049807097762823105,
            -0.013978316448628902,
            0.019880447536706924,
            0.06370747834444046,
            0.06733402609825134,
            0.05702614411711693,
            0.036565229296684265,
            0.05349055677652359,
            0.04434484243392944,
            0.09195847809314728,
            0.08906903862953186,
            0.050396792590618134,
            0.0014215215342119336,
            0.004995608702301979,
            0.022794615477323532,
            0.02853008359670639,
            -0.03196709230542183,
            -0.003932588268071413,
            -0.029401499778032303,
            -0.009743171744048595,
            0.02099672518670559,
            -0.035622503608465195,
            -0.03260081633925438,
            -0.030006708577275276,
            -0.0034748699981719255,
            -0.03285094350576401,
            0.01068633608520031,
            0.005760223139077425,
            0.011032055132091045,
            0.004564616829156876,
            0.013269999995827675,
            0.02148301713168621,
            0.04496755078434944,
            0.030985916033387184,
            0.03518301993608475,
            0.000865463400259614,
            0.022961042821407318,
            -0.011833764612674713,
            0.005965420510619879,
            -0.009617085568606853,
            0.0013575617922469974,
            0.003445388050749898,
            -0.01767618954181671,
            -0.030735356733202934,
            0.03152553364634514,
            -0.00866686087101698,
            0.013519884087145329,
            0.012070571072399616,
            0.02864445187151432,
            -0.022681361064314842,
            0.01548088900744915,
            0.018989738076925278,
            -0.028132177889347076,
            -0.018637726083397865,
            -0.002740236697718501,
            -0.027107229456305504,
            -5.812781091663055e-05,
            -0.029122281819581985,
            -0.0028730786871165037,
            -0.024313248693943024,
            -0.009204508736729622,
            -0.009970913641154766,
            0.016699358820915222,
            0.03661071136593819,
            0.02891268953680992,
            -0.012800788506865501,
            0.03060831129550934,
            -0.02679910883307457,
            0.010219022631645203,
            0.019016066566109657,
            -0.012962975539267063,
            -0.011674456298351288,
            -0.020782148465514183,
            0.03053584322333336,
            0.023450473323464394,
            0.032094623893499374
        ],
        [
            0.00535683985799551,
            -0.028184521943330765,
            -0.007151229307055473,
            -0.01133789774030447,
            0.01344870775938034,
            -0.012698625214397907,
            -0.03276260197162628,
            0.014539229683578014,
            -0.016703641042113304,
            0.02269139140844345,
            -0.013188856653869152,
            -0.007284713909029961,
            -0.009228070266544819,
            0.00016040723130572587,
            -0.03420737385749817,
            0.019268466159701347,
            0.027193846181035042,
            0.027739431709051132,
            -0.025798363611102104,
            -0.00010386110079707578,
            0.001223146915435791,
            0.03145936131477356,
            -0.0076188319362699986,
            -0.000540056440513581,
            -0.009641200304031372,
            0.0022989725694060326,
            0.025544222444295883,
            0.03039146400988102,
            0.02139529213309288,
            -0.024036413058638573,
            0.03109975904226303,
            0.031201699748635292,
            0.03503395989537239,
            0.024975022301077843,
            -0.010876125656068325,
            -0.0030766527634114027,
            0.005874879192560911,
            -0.03422011062502861,
            -0.0358242467045784,
            0.019396048039197922,
            -0.010335340164601803,
            0.008854534476995468,
            -0.014883978292346,
            0.01683526486158371,
            -0.024438049644231796,
            0.02946406975388527,
            -0.005389813333749771,
            -0.023020153865218163,
            -0.008537428453564644,
            -0.008249873295426369,
            -0.01522788591682911,
            -0.02977549098432064,
            -0.020246587693691254,
            -0.026730742305517197,
            0.005006074905395508,
            0.035101231187582016,
            0.019100654870271683,
            0.015180992893874645,
            0.019153306260704994,
            -0.02200264297425747,
            0.02957458607852459,
            -0.002352633513510227,
            0.025368105620145798,
            -0.010134522803127766,
            -0.0313488207757473,
            0.031010273844003677,
            0.01676023006439209,
            0.029349885880947113,
            -0.025146644562482834,
            -0.05133455619215965,
            0.003980720415711403,
            -0.0058507234789431095,
            -0.05698353052139282,
            -0.01997232995927334,
            0.0037135896272957325,
            0.013583032414317131,
            -0.028575323522090912,
            0.027803292497992516,
            0.026344388723373413,
            -0.003780533792451024,
            0.01862076297402382,
            -0.0096305375918746,
            0.02342463843524456,
            -0.02397536113858223,
            -0.02920396998524666,
            -0.03522689267992973,
            0.0013474422739818692,
            0.016592981293797493,
            0.030775824561715126,
            -0.03268231824040413,
            0.022852802649140358,
            -0.03663341701030731,
            0.01812865398824215,
            0.03270447999238968,
            0.038275741040706635,
            -0.004191437270492315,
            -0.037062812596559525,
            -0.03371596336364746,
            0.01354115828871727,
            -0.005009646527469158,
            0.008534145541489124,
            -0.05608526989817619,
            0.011516483500599861,
            0.0017087444430217147,
            0.01381359901279211,
            0.025478240102529526,
            0.005047227721661329,
            0.0147102577611804,
            -0.021898046135902405,
            -0.00965966284275055,
            0.01756547950208187,
            8.786576654529199e-05,
            0.035368844866752625,
            -0.03447260707616806,
            -0.02589692547917366,
            -0.006474627181887627,
            0.008916222490370274,
            -0.04270046576857567,
            -0.050410714000463486,
            -0.026760926470160484,
            -0.01579650305211544,
            -0.03726664558053017,
            -0.0074777184054255486,
            0.0030058494303375483,
            0.006376428529620171,
            -0.007355126552283764,
            0.029688213020563126,
            0.05055356025695801,
            0.07092513144016266,
            0.09586527198553085,
            0.025730274617671967,
            -0.004632257856428623,
            0.025285599753260612,
            0.025852855294942856,
            0.08049128204584122,
            0.05592605844140053,
            0.0026946780271828175,
            0.038421984761953354,
            0.023124530911445618,
            -0.033910561352968216,
            -0.0031749436166137457,
            -0.010658541694283485,
            0.015364859253168106,
            0.016396721825003624,
            0.01901327259838581,
            -0.0665477067232132,
            -0.04430510848760605,
            -0.019124746322631836,
            -0.01954454556107521,
            -0.006811834871768951,
            0.0245634987950325,
            0.06557958573102951,
            0.0798434317111969,
            0.03529615327715874,
            0.11259449273347855,
            0.0295123141258955,
            0.020509425550699234,
            0.0927971825003624,
            -0.046891678124666214,
            0.015474526211619377,
            0.014520464465022087,
            0.06775734573602676,
            0.03569522127509117,
            0.018669437617063522,
            0.06549166887998581,
            -0.009778324514627457,
            -0.010860866867005825,
            -0.01843620464205742,
            0.03353359177708626,
            -0.004791943356394768,
            -0.024291498586535454,
            -0.014152740128338337,
            -0.003212899202480912,
            -0.07498301565647125,
            -0.08575347810983658,
            -0.04364342615008354,
            0.014148239977657795,
            -0.059191882610321045,
            -0.07240122556686401,
            -0.010813495144248009,
            0.022621311247348785,
            0.0657353550195694,
            0.0186554454267025,
            0.00645679235458374,
            -0.05190088972449303,
            -0.06383762508630753,
            -0.13998332619667053,
            -0.023132719099521637,
            -0.08381149917840958,
            -0.04562915861606598,
            0.08235456794500351,
            0.05188669264316559,
            0.06250235438346863,
            0.002222166396677494,
            -0.005182215478271246,
            0.01010986790060997,
            -0.023892933502793312,
            -0.02483186684548855,
            0.03282278776168823,
            -0.022004760801792145,
            -0.0320080891251564,
            0.010300412774085999,
            -0.04252571985125542,
            -0.009840228594839573,
            0.05802897363901138,
            -0.013254333287477493,
            0.041932377964258194,
            0.03700770065188408,
            0.015551591292023659,
            0.08866981416940689,
            -0.0016223258571699262,
            0.026343414559960365,
            -0.04026678577065468,
            -0.09827686101198196,
            -0.08657602965831757,
            -0.055361535400152206,
            -0.1360781043767929,
            -0.035249002277851105,
            0.0750076100230217,
            0.1070176288485527,
            0.09558764100074768,
            0.06084272637963295,
            0.04419594258069992,
            0.007878873497247696,
            -0.02155788615345955,
            -0.007496054749935865,
            0.028424575924873352,
            -0.06065131723880768,
            -0.08481843024492264,
            -0.011514985002577305,
            0.036379046738147736,
            0.016428012400865555,
            -0.00457793939858675,
            0.02416779287159443,
            -0.03799446299672127,
            0.08417003601789474,
            0.0915394276380539,
            0.1176830530166626,
            0.04027315974235535,
            -0.06337030231952667,
            -0.029696041718125343,
            0.006438566371798515,
            -0.04053116217255592,
            -0.10591188818216324,
            -0.07824333012104034,
            0.0007233981741592288,
            -0.00237829121761024,
            0.0568789504468441,
            0.14192256331443787,
            0.07870715856552124,
            0.030174829065799713,
            -0.029202133417129517,
            0.009541301988065243,
            0.005048099905252457,
            -0.031184004619717598,
            -0.032253608107566833,
            -0.012977072037756443,
            -0.0337698869407177,
            0.04035821929574013,
            -0.01829700917005539,
            0.028005946427583694,
            0.013993960805237293,
            0.01709846965968609,
            0.03892476111650467,
            0.04470806196331978,
            0.012286530807614326,
            0.02116246707737446,
            -0.07350915670394897,
            0.05434194952249527,
            -0.036988336592912674,
            -0.005305626895278692,
            -0.055354516953229904,
            -0.052797675132751465,
            -0.014475024305284023,
            -0.0806804671883583,
            0.04902780055999756,
            0.11614488065242767,
            0.04730052500963211,
            0.02094072848558426,
            0.002053778851404786,
            0.01707865111529827,
            -0.01794355735182762,
            0.01759258285164833,
            -0.04514922574162483,
            -0.020970268175005913,
            -0.00731117557734251,
            0.05346650630235672,
            0.04335484653711319,
            0.07847195863723755,
            0.09836815297603607,
            0.013238784857094288,
            0.018963759765028954,
            0.015451026149094105,
            -0.009797167964279652,
            0.026552287861704826,
            -0.0008251569233834743,
            -0.044629089534282684,
            0.009654039517045021,
            -0.015156399458646774,
            -0.08658819645643234,
            -0.11672890186309814,
            -0.04444935917854309,
            -0.02165529504418373,
            0.040033452212810516,
            0.07755466550588608,
            0.026758022606372833,
            0.02163533866405487,
            -0.01432680431753397,
            -0.02901882864534855,
            -0.004343131091445684,
            -0.022723091766238213,
            -0.06343024969100952,
            -0.0014046391006559134,
            0.021729905158281326,
            0.08828024566173553,
            0.10139914602041245,
            0.04680737853050232,
            0.08450981974601746,
            -0.0017478576628491282,
            0.0152903376147151,
            0.031360648572444916,
            -0.11228957027196884,
            -0.022726740688085556,
            -0.06561656296253204,
            0.007688158191740513,
            0.028490684926509857,
            -0.014035719446837902,
            -0.04904564470052719,
            -0.09142667055130005,
            -0.03358074650168419,
            -0.00866565853357315,
            0.04158414900302887,
            0.07692079246044159,
            0.0060805752873420715,
            0.015246937051415443,
            -0.03622496500611305,
            -0.01363022718578577,
            0.024119017645716667,
            -0.04092525690793991,
            0.004853435326367617,
            0.0007894778391346335,
            0.013128991238772869,
            0.09565141797065735,
            0.10254152119159698,
            -0.010690147988498211,
            -0.010873080231249332,
            0.043128568679094315,
            0.020473089069128036,
            0.047760557383298874,
            0.016527703031897545,
            -0.11638825386762619,
            -0.04974775388836861,
            -0.02973860874772072,
            -0.017267579212784767,
            0.0006262497627176344,
            0.05592067167162895,
            -0.04034983739256859,
            0.02210542932152748,
            -0.003358140354976058,
            0.01789715141057968,
            0.06277544796466827,
            0.018523776903748512,
            -0.026033667847514153,
            0.000597344886045903,
            -0.028638388961553574,
            -0.03213946148753166,
            0.015063176862895489,
            0.0041725062765181065,
            -0.009007207117974758,
            0.07096599787473679,
            0.04984419047832489,
            0.04067282751202583,
            -0.007307315245270729,
            -0.010165007784962654,
            0.0001556364877615124,
            0.0884268507361412,
            0.03774594888091087,
            0.009978125803172588,
            -0.030764665454626083,
            -0.004912852309644222,
            -0.030713392421603203,
            -0.00662221061065793,
            0.015535488724708557,
            0.07712654769420624,
            -0.016165269538760185,
            -0.015389126725494862,
            0.006469979882240295,
            0.04346618801355362,
            0.05065370351076126,
            -0.014395659789443016,
            0.015657629817724228,
            0.03182797133922577,
            -0.0072362045757472515,
            -0.03090796060860157,
            -0.019051719456911087,
            -0.017695119604468346,
            0.010976707562804222,
            0.08723445981740952,
            0.09407346695661545,
            0.06894519925117493,
            -0.01328479964286089,
            -0.008165117353200912,
            0.06255216896533966,
            0.021497100591659546,
            0.024290602654218674,
            -0.0012613078579306602,
            -0.019939688965678215,
            0.020223207771778107,
            -0.060389064252376556,
            0.0334186814725399,
            0.029255373403429985,
            -0.01135319471359253,
            -0.08191525191068649,
            -0.007468165829777718,
            0.028694670647382736,
            0.025156138464808464,
            0.023352980613708496,
            -0.028966698795557022,
            -0.02767614834010601,
            -0.0290257316082716,
            -0.004814141895622015,
            -0.015224676579236984,
            0.02597053349018097,
            0.03489140048623085,
            0.029635686427354813,
            0.05493231862783432,
            0.030031530186533928,
            0.08454200625419617,
            0.010554512962698936,
            -0.006757146678864956,
            0.04698990285396576,
            0.06562622636556625,
            0.07640533894300461,
            -0.013044728897511959,
            -0.04841174930334091,
            -0.006766857113689184,
            0.01901073567569256,
            0.008665290661156178,
            0.03350025415420532,
            -0.006620738655328751,
            -0.06609858572483063,
            -0.09675336629152298,
            -0.03519390523433685,
            0.03861268237233162,
            0.05266759544610977,
            -0.0062697879038751125,
            -0.007416589185595512,
            -0.02031012251973152,
            -0.02128962054848671,
            -0.01892831362783909,
            -0.015340604819357395,
            0.008818998001515865,
            0.0020384369418025017,
            0.00926671177148819,
            0.053411923348903656,
            0.04938488081097603,
            0.016320426017045975,
            -0.010944711044430733,
            0.06997533142566681,
            0.1240706741809845,
            0.0542948879301548,
            0.017237398773431778,
            0.0014612121740356088,
            0.04933686554431915,
            0.04043496772646904,
            0.04117630422115326,
            0.05767178535461426,
            -0.014756407588720322,
            -0.0057268221862614155,
            -0.038037680089473724,
            -0.008265506476163864,
            0.07223990559577942,
            0.039085980504751205,
            0.04332658648490906,
            0.01728365756571293,
            -0.006884278729557991,
            -0.004760491196066141,
            0.0012702462263405323,
            -0.025117123499512672,
            -0.05435338243842125,
            -0.041998203843832016,
            0.025266796350479126,
            0.04498119652271271,
            0.09218742698431015,
            0.059395112097263336,
            0.08133668452501297,
            0.06091742590069771,
            0.05700557306408882,
            0.11247338354587555,
            0.06569704413414001,
            0.01132962666451931,
            -0.007649173028767109,
            -0.0001428508694516495,
            0.07957734167575836,
            -0.019541345536708832,
            -0.04134327545762062,
            0.019660182297229767,
            0.017310189083218575,
            0.015111162327229977,
            0.0423855185508728,
            -0.00841212086379528,
            -0.024429650977253914,
            -0.013278651051223278,
            -0.03340873494744301,
            -0.017547786235809326,
            0.019069837406277657,
            -0.02196403220295906,
            -0.019875934347510338,
            -0.015282092615962029,
            0.07458018511533737,
            0.12334740161895752,
            0.09157701581716537,
            0.031164871528744698,
            0.07875221222639084,
            0.055202338844537735,
            0.10779149830341339,
            0.1474078744649887,
            0.09458523988723755,
            0.047986578196287155,
            0.03998063504695892,
            0.04946815222501755,
            -0.08324964344501495,
            -0.023804696276783943,
            -0.04782918468117714,
            -0.011923876591026783,
            -0.026230810210108757,
            -0.04715856909751892,
            0.07081206887960434,
            0.0009245105320587754,
            -0.033349115401506424,
            0.013170764781534672,
            0.0022497582249343395,
            -0.02750677429139614,
            0.02741500549018383,
            0.010216299444437027,
            -0.04082755744457245,
            -0.037034448236227036,
            0.07501513510942459,
            0.0924004316329956,
            0.05846894159913063,
            0.008368965238332748,
            0.04104754701256752,
            0.08131490647792816,
            0.10282646864652634,
            0.06538279354572296,
            0.03092522919178009,
            0.045208558440208435,
            0.026714926585555077,
            -0.023706967011094093,
            -0.04968766123056412,
            -0.02135036140680313,
            -0.0548773929476738,
            0.007086814846843481,
            0.06345319747924805,
            0.07075688242912292,
            0.014992324635386467,
            -0.02230706624686718,
            -0.014049033634364605,
            0.0038668035995215178,
            -0.027776598930358887,
            0.01005782000720501,
            0.0204546470195055,
            0.013945875689387321,
            -0.0011094933142885566,
            -0.04851193726062775,
            0.014434374868869781,
            0.05029391124844551,
            0.03709624335169792,
            0.020124943926930428,
            0.03798193857073784,
            0.06077657267451286,
            0.08400464057922363,
            0.02469836175441742,
            0.0346793606877327,
            0.020617639645934105,
            -0.005212460178881884,
            -0.0666218027472496,
            -0.038848042488098145,
            -0.03231750801205635,
            -0.10926378518342972,
            -0.010593893937766552,
            0.06404507905244827,
            0.07449714094400406,
            0.006676077842712402,
