{
    "fc1.weight": [
        [
            0.02891957387328148,
            -0.03035028651356697,
            0.002156181028112769,
            -0.003255746327340603,
            -0.008584929630160332,
            0.010441405698657036,
            0.03179644048213959,
            -0.02445775456726551,
            0.023502904921770096,
            0.016076143831014633,
            -0.008562995120882988,
            -0.02565205655992031,
            2.2879668904352002e-05,
            -0.005114185158163309,
            -0.005241083446890116,
            -0.016512304544448853,
            -0.01858539693057537,
            0.021335769444704056,
            -0.01297740451991558,
            0.005140870809555054,
            0.019486665725708008,
            -0.03361424058675766,
            -0.013771058060228825,
            -0.0009254685719497502,
            -0.023999597877264023,
            -0.017684290185570717,
            -0.0050210654735565186,
            -0.02554074116051197,
            -0.002874259604141116,
            -0.0031172677408903837,
            -0.02936699613928795,
            -0.004339686594903469,
            0.024980494752526283,
            0.019443461671471596,
            -0.008736802265048027,
            0.006372511852532625,
            0.03275780379772186,
            0.01300782896578312,
            -0.028898730874061584,
            -0.021323831751942635,
            -0.008977174758911133,
            -0.026199085637927055,
            0.032034002244472504,
            -0.007498724386096001,
            -0.035304635763168335,
            0.018162963911890984,
            -0.025358125567436218,
            0.002694968832656741,
            0.007797824684530497,
            -0.0016463875072076917,
            -0.0018267403356730938,
            0.02285613864660263,
            -0.023048393428325653,
            0.00036379270022735,
            0.010640425607562065,
            0.010391946882009506,
            0.033913396298885345,
            -0.01405085064470768,
            -0.01960977166891098,
            -0.025185657665133476,
            0.03348557651042938,
            0.0034491566475480795,
            0.0076443832367658615,
            -0.03388943895697594,
            0.022169820964336395,
            0.010678136721253395,
            -0.023902541026473045,
            0.020898576825857162,
            0.032815270125865936,
            0.034895747900009155,
            -0.01590636558830738,
            -0.0007198859821073711,
            -0.003291175002232194,
            -0.02316885255277157,
            -0.031720031052827835,
            0.0048317438922822475,
            -0.005001353099942207,
            -0.0017816898180171847,
            -0.01668383553624153,
            0.002812151564285159,
            0.0034227713476866484,
            -0.03474060818552971,
            -0.022609958425164223,
            0.00983450748026371,
            -0.032385241240262985,
            0.007270677015185356,
            0.019197145476937294,
            -0.029414301738142967,
            -0.0015562475891783834,
            -0.02176690101623535,
            -0.021054411306977272,
            0.01364478562027216,
            -0.02478628233075142,
            -0.0065147955901920795,
            0.02030535414814949,
            -0.03428603708744049,
            -0.014434990473091602,
            -0.0137115977704525,
            -0.03278058394789696,
            0.02502947673201561,
            -0.025428161025047302,
            -0.015071370638906956,
            -0.00953691080212593,
            -0.035699211061000824,
            0.0017984355799853802,
            -0.029691966250538826,
            -0.03441707044839859,
            -0.016038835048675537,
            -0.02758132666349411,
            0.005276871845126152,
            0.0350770428776741,
            0.010242028161883354,
            -0.03309124335646629,
            0.014166411012411118,
            -0.015364783816039562,
            -0.031424008309841156,
            -0.02931179851293564,
            -0.004516799934208393,
            0.01223223190754652,
            -0.025038326159119606,
            0.02349153719842434,
            -0.03143370524048805,
            -0.022424250841140747,
            -0.024648746475577354,
            0.0074347262270748615,
            0.01801186241209507,
            0.026550540700554848,
            -0.03532158210873604,
            0.02575216442346573,
            0.024319211021065712,
            -0.03523436561226845,
            0.03294409438967705,
            0.028575025498867035,
            -0.009789622388780117,
            -0.02600984089076519,
            -0.022300630807876587,
            -0.020088938996195793,
            -0.012280748225748539,
            0.0032468694262206554,
            0.003607149701565504,
            0.00846870057284832,
            -0.013543091714382172,
            -0.03519000858068466,
            0.005423659458756447,
            0.019621456041932106,
            0.0019122535595670342,
            0.03283686190843582,
            -0.011801104992628098,
            -0.009501134045422077,
            -0.02018861658871174,
            0.032560162246227264,
            0.002909222152084112,
            0.020773189142346382,
            -0.011425492353737354,
            0.014419836923480034,
            0.0025086861569434404,
            -0.03218575194478035,
            -0.022351859137415886,
            0.0240631103515625,
            0.0075838929042220116,
            -0.007646473124623299,
            0.006261144764721394,
            -0.03222742676734924,
            -0.014053534716367722,
            0.033220015466213226,
            -0.00915012788027525,
            -0.03118245303630829,
            -0.015976179391145706,
            0.00017444576951675117,
            9.86031136562815e-06,
            0.0025514743756502867,
            0.021427709609270096,
            -0.02437223680317402,
            -0.017570851370692253,
            0.0019097032491117716,
            0.010145384818315506,
            0.026365960016846657,
            0.005555073264986277,
            0.026151638478040695,
            -0.0056195189245045185,
            -0.03095300681889057,
            -0.022723345085978508,
            -0.008993295952677727,
            0.0015020386781543493,
            -0.017487164586782455,
            0.009176132269203663,
            -0.0305380467325449,
            -0.0402582585811615,
            -0.0334528349339962,
            0.00528374221175909,
            0.020492302253842354,
            -0.014288549311459064,
            -0.008828893303871155,
            -0.025513701140880585,
            0.014313938096165657,
            0.0007358433213084936,
            0.0002748157421592623,
            0.01575542241334915,
            -0.018213478848338127,
            0.01745162345468998,
            0.02926292084157467,
            -0.022851070389151573,
            0.01547918375581503,
            0.03420421853661537,
            0.024103406816720963,
            -0.011387047357857227,
            -0.02438560128211975,
            -0.00485085416585207,
            0.027197647839784622,
            0.02363569475710392,
            -0.0025906695518642664,
            -0.019261611625552177,
            -0.03925346955657005,
            -0.014006610959768295,
            -0.01883789151906967,
            -0.03433085232973099,
            0.0004565918352454901,
            -0.012482709251344204,
            0.018822714686393738,
            -0.022932155057787895,
            -0.013191916048526764,
            -0.020612673833966255,
            -0.0050591290928423405,
            0.003438334446400404,
            0.02876979671418667,
            0.008371308445930481,
            -0.006234681699424982,
            0.024142920970916748,
            0.014363461174070835,
            -0.02419489435851574,
            0.018936624750494957,
            0.020005550235509872,
            0.0016052492428570986,
            0.012848084792494774,
            -0.016352985054254532,
            -0.008546067401766777,
            0.02211194857954979,
            -0.010796564631164074,
            -0.001229918678291142,
            0.022904440760612488,
            0.009809027425944805,
            -0.031042102724313736,
            0.00460821995511651,
            0.01061922311782837,
            0.029075561091303825,
            -0.028826674446463585,
            -0.03208424150943756,
            0.01628228649497032,
            0.006676617544144392,
            0.02427585795521736,
            -0.02968931943178177,
            -0.0028057482559233904,
            0.017226219177246094,
            0.0036964186001569033,
            0.0011247771326452494,
            -0.002864734036847949,
            -0.0023417393676936626,
            0.03454655036330223,
            0.016599392518401146,
            -0.020183252170681953,
            -0.0284257922321558,
            -0.01914234645664692,
            0.005119678098708391,
            -0.006979796569794416,
            -0.021832525730133057,
            -0.03092208132147789,
            -0.0029758187010884285,
            -0.015226058661937714,
            -0.01689641736447811,
            0.016089007258415222,
            -0.031802769750356674,
            0.019007312133908272,
            0.02626076340675354,
            0.013870281167328358,
            -0.02202846296131611,
            -0.010207036510109901,
            -0.011968480423092842,
            -0.013660447672009468,
            -0.017605165019631386,
            -0.00337164755910635,
            -0.012347987852990627,
            -0.01982693374156952,
            0.025962108746170998,
            0.029286259785294533,
            0.0202103853225708,
            0.019490649923682213,
            -0.021550200879573822,
            -0.01709970459342003,
            0.0003644293756224215,
            0.020420601591467857,
            -0.030463282018899918,
            -0.00894806906580925,
            0.01813587360084057,
            0.016801856458187103,
            0.021518990397453308,
            -0.032170530408620834,
            8.224065823014826e-05,
            -0.012777288444340229,
            0.01672973856329918,
            -0.0006062468164600432,
            -0.004340736661106348,
            -0.019444268196821213,
            0.027337845414876938,
            0.031383052468299866,
            -0.01329791359603405,
            -0.03282434493303299,
            -0.027976393699645996,
            -0.005122968461364508,
            0.023922014981508255,
            0.029526185244321823,
            0.002166433958336711,
            -0.004617278464138508,
            0.025316879153251648,
            0.012695517390966415,
            -0.013005590997636318,
            0.033353086560964584,
            -0.004926759749650955,
            0.029661856591701508,
            -0.008564140647649765,
            -0.018799977377057076,
            -0.02248983457684517,
            -0.03818182647228241,
            -0.026985907927155495,
            0.01333006750792265,
            0.014446374960243702,
            -0.008629320189356804,
            -0.028172412887215614,
            0.009841910563409328,
            -0.007868272252380848,
            0.014886169694364071,
            0.028119226917624474,
            -0.02591559663414955,
            -0.010837672278285027,
            0.021975193172693253,
            -0.023194292560219765,
            -0.012446186505258083,
            0.02996479719877243,
            -0.008609977550804615,
            -0.026124365627765656,
            -0.02674897201359272,
            0.03105362504720688,
            0.015581666491925716,
            0.013716253452003002,
            -0.012562217190861702,
            0.005257309414446354,
            -0.0331672728061676,
            -0.0005311087588779628,
            0.002326840301975608,
            0.020520813763141632,
            -0.00802101194858551,
            -0.03560870513319969,
            0.017377611249685287,
            -0.015935616567730904,
            -0.01653720811009407,
            0.0024187725502997637,
            -0.0375388041138649,
            0.024988090619444847,
            0.018880382180213928,
            0.025209341198205948,
            0.021588671952486038,
            0.017160657793283463,
            -0.03172644227743149,
            0.02917969971895218,
            -0.005890718661248684,
            -0.0322430245578289,
            -0.019038205966353416,
            -0.02205321565270424,
            0.0023092261981219053,
            -0.011975433677434921,
            0.011132004670798779,
            -0.030920423567295074,
            -0.028450313955545425,
            -0.014481833204627037,
            0.009081133641302586,
            -0.026969237253069878,
            0.01944827474653721,
            0.01773858070373535,
            0.015976401045918465,
            0.0005045029101893306,
            -0.02447340451180935,
            0.00045996002154424787,
            0.022501729428768158,
            0.014968408271670341,
            -0.009864391759037971,
            0.030276339501142502,
            -0.006883968133479357,
            -0.0307064950466156,
            -0.03264113515615463,
            0.017405031248927116,
            -0.02175905741751194,
            -0.009076041169464588,
            0.007920584641397,
            0.00562276178970933,
            0.007983493618667126,
            -0.003806446446105838,
            -0.008262187242507935,
            0.028188154101371765,
            0.0058492859825491905,
            -0.029536554589867592,
            -0.018077688291668892,
            -0.024434925988316536,
            0.025199413299560547,
            -0.0018902698066085577,
            0.010549633763730526,
            -0.018539955839514732,
            0.004423865582793951,
            -0.01563281938433647,
            -0.037227481603622437,
            -0.024585561826825142,
            -0.01402250025421381,
            0.010119731537997723,
            -0.011059314012527466,
            0.014801056124269962,
            -0.01754022017121315,
            -0.0012486256891861558,
            -0.028375932946801186,
            -0.00396010372787714,
            -0.02833261340856552,
            0.023132456466555595,
            0.028238199651241302,
            -0.020344240590929985,
            0.0019264775328338146,
            -0.03108670935034752,
            0.027106935158371925,
            -0.007332237437367439,
            -0.0001793718693079427,
            -0.023780930787324905,
            0.007084853481501341,
            0.018069788813591003,
            -0.012009259313344955,
            -0.028532356023788452,
            -0.012646033428609371,
            0.0009455910185351968,
            0.012191413901746273,
            0.006329351104795933,
            0.014325416646897793,
            0.027500372380018234,
            -0.019865628331899643,
            -0.02020350471138954,
            -0.0005830561276525259,
            0.00044232638902030885,
            -0.00858690682798624,
            0.016545327380299568,
            0.01609829254448414,
            0.03540291264653206,
            -0.002716280287131667,
            -0.02313782274723053,
            0.0008073364151641726,
            0.007160485256463289,
            -0.014040930196642876,
            0.0015172634739428759,
            0.014123059809207916,
            -0.0003600481431931257,
            -0.031210776418447495,
            -0.010570787824690342,
            0.004476272035390139,
            -0.004666759166866541,
            -0.035145461559295654,
            -0.028305109590291977,
            -0.0003870630753226578,
            0.009297208860516548,
            -0.034369271248579025,
            0.004128315486013889,
            0.0021300564985722303,
            -0.015563994646072388,
            -0.03545719012618065,
            0.030780795961618423,
            0.018791325390338898,
            0.018579714000225067,
            -0.022725263610482216,
            0.01539930421859026,
            0.02885572984814644,
            -0.01747237518429756,
            0.02689908817410469,
            0.01865088939666748,
            -0.0167095847427845,
            -0.008706263266503811,
            -0.008193952962756157,
            -0.022761382162570953,
            -0.004227782133966684,
            0.02103196643292904,
            0.030795343220233917,
            -0.01618202216923237,
            0.022788461297750473,
            0.02830800786614418,
            0.02012096904218197,
            0.018688054755330086,
            -0.0071068741381168365,
            -0.00036782678216695786,
            0.01657421514391899,
            0.007278184872120619,
            -0.03392426669597626,
            -0.0315873883664608,
            -0.026526393368840218,
            -0.03296865150332451,
            0.007903899997472763,
            -0.030033037066459656,
            -0.023809857666492462,
            -0.002989062573760748,
            0.0029853617306798697,
            0.014203211292624474,
            -0.020663082599639893,
            0.011100194416940212,
            -0.0180167518556118,
            0.01335901953279972,
            -0.013846266083419323,
            -0.021113257855176926,
            0.02126488834619522,
            -0.023590723052620888,
            0.026323705911636353,
            -0.03417860344052315,
            0.01667102985084057,
            0.022140393033623695,
            -0.006302725989371538,
            0.02077712118625641,
            0.0039666458033025265,
            0.017006970942020416,
            0.02029016613960266,
            -0.037938982248306274,
            -0.02105891704559326,
            -0.01208000909537077,
            -0.010560911148786545,
            -0.003525488544255495,
            -0.023899950087070465,
            -0.002930142218247056,
            -0.024739107117056847,
            -1.3418637536233291e-05,
            -0.004865415394306183,
            -0.002040799940004945,
            -0.03090471401810646,
            0.005178473889827728,
            -0.027163216844201088,
            0.02596062608063221,
            0.008729841560125351,
            -0.020982159301638603,
            0.02851969562470913,
            -0.019583113491535187,
            -0.033271897584199905,
            -0.010990099981427193,
            0.02203790657222271,
            0.003474068595096469,
            0.015280243940651417,
            -0.022540008649230003,
            -0.005389441270381212,
            -0.013921717181801796,
            0.01824582740664482,
            0.028134765103459358,
            0.02004914917051792,
            0.005342439282685518,
            -0.006208557169884443,
            -0.016219360753893852,
            0.0261992160230875,
            0.015407460741698742,
            0.030806174501776695,
            0.02660195715725422,
            0.008874714374542236,
            -0.014999191276729107,
            0.018805542960762978,
            -0.02816166914999485,
            0.012859592214226723,
            -0.01146042812615633,
            -0.0022248541936278343,
            -0.018298441544175148,
            -0.03509499505162239,
            0.008715379983186722,
            -0.023038746789097786,
            -0.013498681597411633,
            0.0076624262146651745,
            -0.01152426190674305,
            -0.007630796171724796,
            0.022049039602279663,
            0.0005074864602647722,
            0.014016483910381794,
            -0.04096275568008423,
            -0.021264243870973587,
            -0.018366381525993347,
            0.0238505769520998,
            -0.021141594275832176,
            -0.03175210580229759,
            0.014263502322137356,
            0.025292588397860527,
            -0.03223641961812973,
            -0.03470003977417946,
            0.02486450783908367,
            -0.03174431622028351,
            0.009174949489533901,
            -0.005307137966156006,
            -0.03522787243127823,
            0.028501320630311966,
            0.01797178015112877,
            -0.030079301446676254,
            -0.02483556605875492,
            0.01755448989570141,
            0.03078717738389969,
            -0.02121805027127266,
            0.029508966952562332,
            0.00987302791327238,
            0.024137798696756363,
            -0.010720446705818176,
            0.0007476743776351213,
            -0.04001966118812561,
            0.029893528670072556,
            -0.004745485261082649,
            -0.01760137267410755,
            0.014095655642449856,
            -0.03139721602201462,
            0.02945804037153721,
            -0.019425954669713974,
            0.0008893729536794126,
            -0.033199768513441086,
            -0.012649757787585258,
            0.035253506153821945,
            -0.03338420391082764,
            0.005795299541205168,
            0.022770503535866737,
            -0.003946478944271803,
            0.02476605400443077,
            -0.029222430661320686,
            0.025601379573345184,
            0.03098929114639759,
            -0.012058936059474945,
            -0.030667316168546677,
            -0.026096947491168976,
            0.019110966473817825,
            0.018099090084433556,
            -0.041125550866127014,
            -0.012754181399941444,
            -0.006229333113878965,
            0.005181416869163513,
            0.023555142804980278,
            0.01106043066829443,
            -0.008406873792409897,
            0.011318087577819824,
            0.014966798946261406,
            -0.017189860343933105,
            -0.03167468681931496,
            -0.009334993548691273,
            -0.015392323024570942,
            0.024145742878317833,
            0.002033744938671589,
            -0.026796385645866394,
            0.0014646921772509813,
            -0.006632903125137091,
            0.011093327775597572,
            0.006660116836428642,
            0.008249807171523571,
            -0.030231060460209846,
            -0.018573813140392303,
            -0.032264094799757004,
            -0.024846909567713737,
            0.019728010520339012,
            0.000610987888649106,
            0.02673342637717724,
            0.020798612385988235,
            -0.018010642379522324,
            -0.014103030785918236,
            -0.0212785005569458,
            -0.010826983489096165,
            0.017270328477025032,
            -0.026860756799578667,
            0.027345363050699234,
            0.022271689027547836,
            -0.011178359389305115,
            0.007785404566675425,
            -0.005536885466426611,
            0.0021080768201500177,
            -0.016057802364230156,
            0.02900223806500435,
            -0.028258344158530235,
            -0.00283369654789567,
            0.009404897689819336,
            -0.030246194452047348,
            0.018663186579942703,
            0.019210457801818848,
            -0.0075960420072078705,
            0.003640298265963793,
            -0.02976754680275917,
            0.009555181488394737,
            0.0010385042987763882,
            0.020810691639780998,
            0.0017877937061712146,
            0.008856941014528275,
            0.02269248478114605,
            -0.03510427102446556,
            -0.021192410960793495,
            -0.00741786602884531,
            0.03178045526146889,
            -0.02640112303197384,
            0.0012676132610067725,
            -0.005465888883918524,
            0.03303760290145874,
            0.02347469888627529,
            -0.03436523303389549,
            -0.03031820058822632,
            -0.012741712853312492,
            -0.0066462489776313305,
            -0.0021248310804367065,
            -0.031257279217243195,
            -0.006664787419140339,
            -0.0009754130151122808,
            -0.0352751761674881,
            -0.03090277500450611,
            -0.0032044651452451944,
            -0.011482716538012028,
            0.0007081166841089725,
            0.0019522119546309114,
            -0.016926998272538185,
            0.020544717088341713,
            -0.014577466063201427,
            -0.022207152098417282,
            -0.02413841150701046,
            -0.007253900170326233,
            -0.0014662990579381585,
            0.015215151011943817,
            -0.026904260739684105,
            -0.014143486507236958,
            0.0012977627338841558,
            0.03197702392935753,
            0.024007219821214676,
            0.012800633907318115,
            -0.006887488998472691,
            0.008969887159764767,
            -0.02684553898870945,
            -0.0025277661625295877,
            -0.027822740375995636,
            -0.029209569096565247,
            -0.005080095492303371,
            0.02783769927918911,
            -0.016297273337841034,
            0.015509184449911118,
            0.027193168178200722,
            0.014254528097808361,
            0.00297002075240016,
            -0.014007015153765678,
            -0.0032805318478494883,
            0.004497247748076916,
            0.01672661490738392,
            -0.016232922673225403,
            -0.024928320199251175,
            0.0352431945502758,
            0.034140076488256454,
            -0.029041415080428123,
            -0.0327836275100708,
            0.003303342964500189,
            -0.022012632340192795,
            -0.0018925227923318744,
            -0.035009924322366714,
            0.018289219588041306,
            -0.006891140714287758,
            0.021546989679336548,
            -0.01794571243226528,
            -0.029923375695943832,
            -0.002937572542577982,
            -0.005524516571313143,
            -0.007585593964904547,
            -0.0075241755694150925,
            -0.01650375686585903,
            -0.007257253397256136,
            -0.004736253526061773,
            -0.032259851694107056,
            0.016269195824861526,
            -0.026114853098988533,
            -0.03537223860621452,
            -0.02835663966834545,
            0.01939208060503006,
            -0.027302011847496033,
            -0.004206589888781309,
            -0.008291094563901424,
            0.028649935498833656,
            -0.02287045307457447,
            -0.0034305898007005453,
            0.033482808619737625,
            -0.015846233814954758,
            -0.01670399121940136,
            0.01988072507083416,
            0.033665239810943604,
            -0.007015489507466555,
            0.02584635652601719,
            -0.02456977590918541,
            0.03377629816532135,
            -0.005779088009148836,
            -0.034339483827352524,
            -0.003960941918194294,
            0.0032283493783324957
        ],
        [
            -0.0064436751417815685,
            -0.023243747651576996,
            0.010341470129787922,
            -0.027965839952230453,
            0.03169665485620499,
            0.03442047908902168,
            -0.010595109313726425,
            0.014366031624376774,
            -0.004195089917629957,
            0.03278178721666336,
            0.011197618208825588,
            -0.009894486516714096,
            0.03337439149618149,
            0.013634657487273216,
            -0.00877976231276989,
            -0.00316525436937809,
            4.6610835852334276e-05,
            -0.019605420529842377,
            0.019621236249804497,
            0.009601559489965439,
            -0.01373564824461937,
            -0.00874665379524231,
            0.0004478863556869328,
            0.017661064863204956,
            -0.004070886876434088,
            -0.018626103177666664,
            0.019298631697893143,
            -0.032649457454681396,
            -0.00027125224005430937,
            0.008453339338302612,
            -0.014268828555941582,
            -0.023249151185154915,
            -0.009432788006961346,
            -0.03135301172733307,
            0.010904195718467236,
            -0.009111657738685608,
            0.024368546903133392,
            -0.007666993420571089,
            -0.030573507770895958,
            -0.014263167977333069,
            -0.023338235914707184,
            0.014667754992842674,
            0.011582204140722752,
            -0.004850729834288359,
            0.027716901153326035,
            -0.030094558373093605,
            0.006520851515233517,
            0.014176428318023682,
            0.005175424739718437,
            -0.03281191363930702,
            -2.874060555768665e-06,
            -0.025702182203531265,
            0.01010715588927269,
            0.011480468325316906,
            -0.02407769300043583,
            0.00755377346649766,
            0.026850782334804535,
            -0.006358547136187553,
            -0.00321456091478467,
            0.021204842254519463,
            -0.01475650817155838,
            0.004201959352940321,
            -0.03335688263177872,
            -0.00822910200804472,
            -0.021246224641799927,
            0.009014016948640347,
            0.011850637383759022,
            -0.018395395949482918,
            0.0009294216870330274,
            0.036951079964637756,
            0.01704501360654831,
            0.03682495281100273,
            0.023849399760365486,
            0.04658316820859909,
            0.042601458728313446,
            0.005703412927687168,
            0.011393156833946705,
            -0.01528199389576912,
            -0.0020083084236830473,
            0.019427740946412086,
            0.008926891721785069,
            0.031248297542333603,
            -0.02474660985171795,
            -0.027431126683950424,
            -0.03551970422267914,
            0.0301093477755785,
            0.015731187537312508,
            -0.012176161631941795,
            0.027695320546627045,
            -0.00491665955632925,
            0.02355959452688694,
            0.011072328314185143,
            0.01719297096133232,
            -0.006759930402040482,
            0.03785698860883713,
            0.007781758438795805,
            0.044355254620313644,
            0.005590003449469805,
            -0.005632432177662849,
            0.03800289332866669,
            0.056444935500621796,
            0.03514077141880989,
            0.04972383752465248,
            0.005723452661186457,
            0.001569570042192936,
            0.03525794297456741,
            -0.026328859850764275,
            0.009486393071711063,
            -0.024156365543603897,
            -0.022912636399269104,
            0.034861162304878235,
            0.026665521785616875,
            -0.02258535474538803,
            0.03273587301373482,
            0.03483201563358307,
            0.012254965491592884,
            0.009585168212652206,
            0.031433820724487305,
            0.008512002415955067,
            -0.019155198708176613,
            -0.024383842945098877,
            -0.009949114173650742,
            -0.011682434938848019,
            -0.014321548864245415,
            0.005733632016927004,
            -0.004235224798321724,
            0.026188885793089867,
            0.04633302614092827,
            0.017008192837238312,
            0.009964508935809135,
            0.00706824054941535,
            0.02252448908984661,
            0.026868656277656555,
            0.018689213320612907,
            -0.009848659858107567,
            -0.015211592428386211,
            -0.027774393558502197,
            0.021557888016104698,
            -0.03587942197918892,
            -0.027170764282345772,
            0.009808111004531384,
            -0.026976021006703377,
            -0.01770319789648056,
            -0.00962252076715231,
            -0.03382306545972824,
            -0.011772150173783302,
            -0.03115156665444374,
            0.01811990886926651,
            0.017470810562372208,
            0.0040289172902703285,
            -0.00790476892143488,
            0.02391977608203888,
            0.015809597447514534,
            0.006401918362826109,
            -0.011626201681792736,
            0.028546398505568504,
            -0.010858041234314442,
            0.05452879145741463,
            0.03471659496426582,
            0.04246293753385544,
            -0.013683718629181385,
            -0.015523797832429409,
            -0.006989427376538515,
            -0.01858370378613472,
            -0.01484683807939291,
            -0.013717692345380783,
            -0.02075193263590336,
            -0.02941579930484295,
            -0.01506571751087904,
            -0.002034648321568966,
            0.018360737711191177,
            0.024895573034882545,
            0.034981150180101395,
            0.004828090313822031,
            0.03218948841094971,
            0.03717619553208351,
            0.010163407772779465,
            0.029442982748150826,
            0.01979804039001465,
            -0.01978428289294243,
            -0.03433426842093468,
            -0.010259919799864292,
            -0.05089936777949333,
            -0.01702873595058918,
            0.028126494958996773,
            0.013226411305367947,
            0.02195127122104168,
            -0.029694821685552597,
            -0.00730906380340457,
            0.005703380331397057,
            -0.002328557427972555,
            0.01709895022213459,
            -0.026570482179522514,
            0.02284657582640648,
            0.0228977520018816,
            0.007615636568516493,
            0.006500547751784325,
            0.03070054017007351,
            0.012822207994759083,
            0.025414742529392242,
            -0.02958901971578598,
            -0.011972990818321705,
            0.0144861014559865,
            0.01157732866704464,
            -0.015268404968082905,
            -0.018285293132066727,
            -0.0009711274760775268,
            0.003720619482919574,
            -0.01836838386952877,
            -0.027476580813527107,
            0.018393803387880325,
            -0.0033460974227637053,
            -0.03400574252009392,
            0.003727039322257042,
            -0.025288522243499756,
            -0.049442704766988754,
            -0.00235558208078146,
            0.020583761855959892,
            0.019359542056918144,
            0.02481233887374401,
            0.03414931520819664,
            -0.007283483631908894,
            -0.003565853228792548,
            0.019271282479166985,
            0.02572076953947544,
            0.011253894306719303,
            -0.03362438082695007,
            0.007604963146150112,
            0.025636538863182068,
            -0.01916409842669964,
            -0.007938611321151257,
            -0.007564840838313103,
            -0.009922327473759651,
            -0.04429720714688301,
            -0.03891351819038391,
            -0.03524792566895485,
            0.0029525794088840485,
            -0.022235695272684097,
            0.01464268658310175,
            0.033160846680402756,
            -0.030382942408323288,
            -0.040684156119823456,
            -0.03892042115330696,
            -0.07389022409915924,
            4.220356640871614e-05,
            -0.03402649238705635,
            -0.022194858640432358,
            0.017126871272921562,
            0.004796713590621948,
            -0.0018964498303830624,
            -0.007125147618353367,
            -0.016905423253774643,
            0.0022059758193790913,
            -0.019517436623573303,
            0.024384308606386185,
            -0.01317498181015253,
            0.006859390065073967,
            -0.03231387585401535,
            0.020679764449596405,
            -0.021791882812976837,
            0.024255296215415,
            0.014400185085833073,
            0.02533646486699581,
            0.04079977795481682,
            0.01886030100286007,
            0.05785445496439934,
            0.05340428650379181,
            0.015672197565436363,
            -0.03201790153980255,
            -0.01942233368754387,
            -0.028748711571097374,
            -0.0137507114559412,
            -0.03509478271007538,
            -0.03192291036248207,
            -0.03477399796247482,
            -0.010447036474943161,
            0.01251000165939331,
            -0.0018892488442361355,
            0.010481612756848335,
            -0.033484842628240585,
            0.01918788254261017,
            0.02135498821735382,
            0.002888417337089777,
            0.016867544502019882,
            -0.034785885363817215,
            -0.011179732158780098,
            0.007255410775542259,
            -4.772262764163315e-05,
            -0.016023974865674973,
            -0.00760696129873395,
            -0.001320641953498125,
            0.04334676265716553,
            0.03719423711299896,
            0.0351094976067543,
            0.016191445291042328,
            -0.037258438766002655,
            -0.026282096281647682,
            -0.03634357452392578,
            -0.011499673128128052,
            -0.03467431291937828,
            0.007231959607452154,
            -0.04399183765053749,
            0.023055043071508408,
            0.008807960897684097,
            0.03336871787905693,
            -0.005049202591180801,
            0.005886427126824856,
            -0.03163136914372444,
            -0.011652964167296886,
            0.027577126398682594,
            0.015933983027935028,
            -0.02148851566016674,
            -0.003582841483876109,
            -0.01261095516383648,
            0.003962422255426645,
            0.041106708347797394,
            0.012244473211467266,
            -0.0026016784831881523,
            0.06963271647691727,
            0.07791607081890106,
            0.06103849783539772,
            0.029038824141025543,
            -0.05381442978978157,
            -0.11510345339775085,
            -0.06356796622276306,
            -0.0028963007498532534,
            -0.0018297014757990837,
            -0.018628977239131927,
            -0.016949616372585297,
            0.019014054909348488,
            0.013330704532563686,
            0.04723601043224335,
            0.03017563745379448,
            -0.028650518506765366,
            -0.023348134011030197,
            -0.005352705717086792,
            -0.003864938160404563,
            -0.014692896977066994,
            -0.0076974546536803246,
            0.03308148309588432,
            -0.01706787757575512,
            -0.016748324036598206,
            0.03181768208742142,
            0.0031839022412896156,
            0.06912290304899216,
            0.07888133078813553,
            0.10218627005815506,
            0.09965454787015915,
            0.0783892571926117,
            -0.006490796338766813,
            -0.09718386083841324,
            -0.1376105397939682,
            -0.029725072905421257,
            -0.05945410206913948,
            -0.06600155681371689,
            -0.03862231597304344,
            -0.03609880805015564,
            0.0129655497148633,
            0.014308931306004524,
            0.012803862802684307,
            0.008424820378422737,
            0.032782137393951416,
            -0.01970997266471386,
            -0.02785392664372921,
            -0.026884064078330994,
            0.00017091086192522198,
            -0.026211708784103394,
            -0.026215022429823875,
            0.0021447876933962107,
            0.048502713441848755,
            0.015223016031086445,
            0.047465573996305466,
            0.03457517921924591,
            0.08035679161548615,
            0.07708285748958588,
            0.08744168281555176,
            -0.016469690948724747,
            -0.09812357276678085,
            -0.08049769699573517,
            -0.09689852595329285,
            -0.04164264723658562,
            0.003615565598011017,
            -0.006597768981009722,
            -0.06935390830039978,
            -0.03639218211174011,
            0.011756961233913898,
            0.03445173799991608,
            0.07832746207714081,
            0.055275749415159225,
            0.02521064132452011,
            0.00457027880474925,
            0.019867446273565292,
            0.027003657072782516,
            -0.011548486538231373,
            -0.0035728898365050554,
            -0.030868761241436005,
            0.01903402805328369,
            0.02490646205842495,
            0.06341388076543808,
            0.036607492715120316,
            0.03690243139863014,
            0.06210648640990257,
            0.03239511325955391,
            -0.011445708572864532,
            -0.03127465769648552,
            -0.1208363026380539,
            -0.08862823247909546,
            -0.058076292276382446,
            -0.0152751998975873,
            -0.012404649518430233,
            0.0001927935372805223,
            -0.025296064093708992,
            0.02903866395354271,
            0.0071434094570577145,
            0.09768363833427429,
            0.06273894011974335,
            0.05202023312449455,
            -0.0038517715875059366,
            -0.026820313185453415,
            0.0015535351121798158,
            -0.0047886124812066555,
            0.0008304163347929716,
            -0.008788416162133217,
            -0.021143317222595215,
            0.023222701624035835,
            0.011792187578976154,
            0.05245842784643173,
            0.06464432924985886,
            0.07127663493156433,
            0.03895704075694084,
            -0.0029815416783094406,
            0.011919909156858921,
            -0.066500723361969,
            -0.10970336198806763,
            -0.08896337449550629,
            -0.09856240451335907,
            -0.04620746895670891,
            -0.0024214524310082197,
            0.013812205754220486,
            -0.0027594163548201323,
            0.054401811212301254,
            0.041223037987947464,
            0.06286312639713287,
            0.05406811460852623,
            0.04322347044944763,
            0.02877816930413246,
            -0.025173252448439598,
            -0.02426331676542759,
            -0.00011859113874379545,
            -0.0015546984504908323,
            -0.006445950362831354,
            0.01761421002447605,
            -0.02225683443248272,
            0.006644982844591141,
            0.05467221140861511,
            0.018087057396769524,
            0.027991199865937233,
            -0.01482721883803606,
            0.018316548317670822,
            -0.04198833182454109,
            -0.10784440487623215,
            -0.10535828769207001,
            -0.09117785096168518,
            -0.014867688529193401,
            0.011629038490355015,
            0.023133669048547745,
            0.041212812066078186,
            0.033767443150281906,
            0.03293904662132263,
            0.04084174707531929,
            0.028005370870232582,
            0.044675543904304504,
            0.018544787541031837,
            -0.027212584391236305,
            -0.02231062762439251,
            0.00435491232201457,
            -0.012541686184704304,
            0.0004938454949297011,
            -0.030631260946393013,
            0.022225435823202133,
            0.010388415306806564,
            0.024943970143795013,
            -0.011357126757502556,
            0.020602159202098846,
            0.025576893240213394,
            -0.03957604244351387,
            -0.014492655172944069,
            -0.03328884392976761,
            -0.08583813905715942,
            -0.10330535471439362,
            -0.05460326001048088,
            -0.06138697639107704,
            0.015621842816472054,
            0.015092543326318264,
            0.030268654227256775,
            0.02761244587600231,
            0.02260712906718254,
            0.049822211265563965,
            0.032543350011110306,
            -9.557840530760586e-05,
            -0.028619378805160522,
            0.030320705845952034,
            0.019388604909181595,
            0.004110712558031082,
            0.030820146203041077,
            -0.014791654422879219,
            -0.015339898876845837,
            -0.03308350220322609,
            -0.008318524807691574,
            -0.006279990542680025,
            0.012267407961189747,
            0.04139004275202751,
            -0.02483905479311943,
            -0.0024797464720904827,
            0.042056795209646225,
            0.0006811982020735741,
            -0.08607138693332672,
            -0.0581388883292675,
            -0.047508448362350464,
            0.03451491892337799,
            0.050559479743242264,
            0.06530320644378662,
            0.07375714182853699,
            0.07981792092323303,
            0.01630239374935627,
            0.044245120137929916,
            0.009383399039506912,
            0.015405334532260895,
            -0.02465173229575157,
            -0.031658321619033813,
            -0.013739021494984627,
            0.023441776633262634,
            -0.02288072183728218,
            -0.023281825706362724,
            -0.027060113847255707,
            0.030618194490671158,
            0.0012573468266054988,
            -0.0068515208549797535,
            0.021355051547288895,
            0.02176782302558422,
            0.007051491644233465,
            0.012642690911889076,
            0.05966203659772873,
            0.03464652597904205,
            -0.015221023932099342,
            -0.04144640639424324,
            -0.007035161834210157,
            0.061577048152685165,
            0.06518249958753586,
            0.07900726050138474,
            0.0445840023458004,
            0.05073709413409233,
            0.04593859240412712,
            0.006237091962248087,
            -0.017048729583621025,
            -0.00415258202701807,
            0.0012630526907742023,
            0.0035703363828361034,
            -0.01713337004184723,
            0.020226800814270973,
            0.0007776320562697947,
            -0.01615397073328495,
            -0.004226538818329573,
            -0.035341694951057434,
            -0.018582776188850403,
            0.03514060750603676,
            -0.0029904686380177736,
            0.02977079525589943,
            0.0085308151319623,
            0.0024779667146503925,
            0.027796564623713493,
            0.03243139386177063,
            0.04479924961924553,
            0.049500107765197754,
            0.02617238648235798,
            0.09087800234556198,
            0.0694524347782135,
            0.03295139595866203,
            0.024845732375979424,
            0.03099893219769001,
            -0.007013736292719841,
            0.03301222249865532,
            0.0021046954207122326,
            -0.007539641577750444,
            -0.01625409908592701,
            -0.004480298142880201,
            -0.0327804833650589,
            0.01938174106180668,
            0.0018969221273437142,
            -0.014624204486608505,
            0.020614497363567352,
            0.01062360592186451,
            -0.017844008281826973,
            -0.03265581279993057,
            -0.0066419122740626335,
            0.017419762909412384,
            -0.008226318284869194,
            0.01733575575053692,
            0.05334920808672905,
            0.02390073612332344,
            0.0573745034635067,
            0.08683856576681137,
            0.08617986738681793,
            0.0605868399143219,
            0.039287496358156204,
            0.058873482048511505,
            0.008324777707457542,
            0.012618077918887138,
            -0.02267160266637802,
            0.0274808369576931,
            -0.022737903520464897,
            -0.011319723911583424,
            0.02071208506822586,
            0.028760502114892006,
            -0.009578377939760685,
            -0.001060107839293778,
            0.016862452030181885,
            -0.030299397185444832,
            -0.02784402295947075,
            0.023227686062455177,
            0.013665154576301575,
            0.013694116845726967,
            0.017258981242775917,
            0.022121591493487358,
            -0.030231578275561333,
            0.005127559415996075,
            -0.021984905004501343,
            0.019053610041737556,
            0.031546708196401596,
            0.05649756267666817,
            0.05090000480413437,
            -0.007835131138563156,
            -0.01409759372472763,
            0.006130622699856758,
            -0.01793363317847252,
            -0.021154440939426422,
            0.02445206418633461,
            0.0031149922870099545,
            -0.00046156920143403113,
            0.008520142175257206,
            0.0038772779516875744,
            -0.02084917016327381,
            0.014282223768532276,
            0.010770896449685097,
            -0.00964982621371746,
            -0.01725633256137371,
            -0.026463452726602554,
            0.011957007460296154,
            0.015055086463689804,
            -0.006084356922656298,
            -0.026405571028590202,
            -0.005372566170990467,
            0.00818860623985529,
            -0.010926737450063229,
            0.024606755003333092,
            -0.017139166593551636,
            -0.016088591888546944,
            -0.003861720208078623,
            -0.002877546241506934,
            0.025296179577708244,
            0.010989944450557232,
            -0.03326762095093727,
            -0.01852930337190628,
            -0.012648992240428925,
            -0.01704079657793045,
            0.020503012463450432,
            -0.040247637778520584,
            -0.002157488837838173,
            0.00901267770677805,
            0.0064022536389529705,
            0.023931458592414856,
            0.01093081571161747,
            -0.02162891812622547,
            -0.01054823026061058,
            -0.0343107208609581,
            -0.009653410874307156,
            0.03186900168657303,
            -0.006210808176547289,
            -0.023718930780887604,
            0.008802060037851334,
            -0.006803915835916996,
            -0.004736836068332195,
            0.03738599643111229,
            0.006518164649605751,
            0.006577137857675552,
            0.02201823890209198,
            0.005198371596634388,
            -0.02565443143248558,
            0.030739642679691315,
            0.0206400565803051,
            0.01866588369011879,
            -0.02992134355008602,
            -0.01604454405605793,
            -0.013031941838562489,
            -0.022069891914725304,
            -0.0030955802649259567,
            0.007025036960840225,
            0.003207147354260087,
            0.025159643962979317,
            -0.030086982995271683,
            0.005580485332757235,
            -0.005300453864037991,
            0.012540965341031551,
            -0.022254038602113724,
            0.03308941796422005,
            -0.0059971557930111885,
            -0.03615270555019379,
            0.01094495877623558,
            -0.00010302118607796729,
            0.023364869877696037,
            -0.024800853803753853,
            0.009374745190143585,
            0.004857571795582771,
            0.01629849709570408,
            -0.012644466944038868,
            0.0019501636270433664,
            0.03645280376076698,
            0.012039462104439735,
            -0.0058515071868896484,
            0.00836857222020626,
            -0.0016410258831456304,
            -0.018546704202890396,
            -0.012230047956109047,
            -0.026451075449585915,
            0.034007489681243896,
            -0.018613532185554504,
            0.025233495980501175,
            0.024941539391875267,
            0.0023414790630340576,
            0.03038213588297367,
            -0.0242781825363636,
            -0.009377376176416874,
            0.0234304778277874,
            0.010919226333498955,
            0.013708059675991535,
            0.008420254103839397,
            0.008198239840567112,
            -0.019471295177936554,
            -0.0197183508425951,
            0.024347051978111267,
            -0.006050357595086098,
            0.03655751794576645,
            0.02957594208419323,
            0.016538264229893684,
            0.017629539594054222,
            0.009010007604956627,
            0.023375632241368294,
            0.0019584153778851032,
            0.01907454803586006,
            0.012411575764417648,
            0.028982888907194138,
            0.0069009349681437016,
            0.029704300686717033,
            -0.03062332049012184,
            0.017508668825030327,
            0.022294403985142708,
            0.01902882568538189,
            -0.019340911880135536,
            -0.030436942353844643,
            -0.031559791415929794,
            0.033534109592437744,
            0.029592890292406082,
            0.022843439131975174,
            0.034687984734773636,
            -0.029705768451094627,
            0.014190049842000008,
            -0.03048703633248806,
            -0.024035675451159477,
            -0.03130315989255905,
            0.02369902841746807,
            -0.017637858167290688,
            0.019169433042407036,
            -0.0014229799853637815,
            -0.009324874728918076,
            0.025873638689517975,
            0.031040741130709648,
            -0.009992114268243313,
            -0.027507375925779343,
            0.031342558562755585,
            -0.009827087633311749,
            0.03501467779278755,
            -0.025372447445988655,
            -0.005351092200726271,
            0.012350874952971935
        ],
        [
            -0.03242902830243111,
            -0.009873492643237114,
            0.033836472779512405,
            -0.016728674992918968,
            -0.022183891385793686,
            -0.01580563187599182,
            0.020039984956383705,
            0.020192338153719902,
            -0.02287309244275093,
            -0.008070397190749645,
            -0.026052745059132576,
            -0.026447387412190437,
            -0.03516305983066559,
            -0.005615941248834133,
            -0.004271188285201788,
            0.015088269487023354,
            -0.02120250090956688,
            0.0038240596186369658,
            0.011722897179424763,
            -0.026235628873109818,
            0.010895044542849064,
            0.01761295273900032,
            0.03341023623943329,
            -0.009688301011919975,
            -0.0345781147480011,
            0.002655493561178446,
            0.014618116430938244,
            -0.0007381141767837107,
            -0.016104741021990776,
            -0.03487434983253479,
            0.020584439858794212,
            -0.016842413693666458,
            -0.018196966499090195,
            0.016484905034303665,
            0.02182263322174549,
            0.033132608979940414,
            0.021785516291856766,
            0.035026002675294876,
            -0.032791778445243835,
            0.015501799061894417,
            0.000823848822619766,
            -0.003642538795247674,
            0.021374305710196495,
            0.016869474202394485,
            0.004015212878584862,
            -0.0313534215092659,
            -0.023704245686531067,
            0.016291826963424683,
            -0.020304812118411064,
            0.02578393742442131,
            0.028136607259511948,
            0.006272648461163044,
            -0.0341305211186409,
            -0.012512982822954655,
            0.00949607603251934,
            0.023548731580376625,
            -0.031167874112725258,
            0.008520369417965412,
            -0.01929335854947567,
            -0.0200037881731987,
            0.02680613473057747,
            0.035160813480615616,
            0.005113246850669384,
            0.012036044150590897,
            0.016318408772349358,
            0.017663367092609406,
            -0.02926209568977356,
            0.025923438370227814,
            -0.022863682359457016,
            0.028499484062194824,
            0.002100182930007577,
            0.015112042427062988,
            -0.03402239456772804,
            0.0055588423274457455,
            0.026105457916855812,
            0.02404537796974182,
            0.005308104678988457,
            0.028641927987337112,
            0.0012007317272946239,
            -0.00030233111465349793,
            0.0095900883898139,
            -0.0258029755204916,
            0.012705820612609386,
            0.03216876834630966,
            0.018649064004421234,
            -0.008685325272381306,
            0.029030870646238327,
            0.02971832826733589,
            -0.011684980243444443,
            0.02416967786848545,
            0.01513160765171051,
            0.0030808367300778627,
            -0.03314791992306709,
            0.0266430526971817,
            -0.0170608963817358,
            0.009150123223662376,
            -0.011244031600654125,
            0.029895294457674026,
            0.031147167086601257,
            -0.018263740465044975,
            -0.01707804575562477,
            -0.03879193961620331,
            0.016797946766018867,
            -0.0003498207370284945,
            0.002611098811030388,
            0.00021738237410318106,
            -0.0015922521706670523,
            -0.036417409777641296,
            0.007170532830059528,
            0.012311347760260105,
            -0.004980032332241535,
            0.03393224999308586,
            -0.016146712005138397,
            0.013840554282069206,
            -0.03504035994410515,
            0.008347046561539173,
            -0.003963469062000513,
            -0.029335854575037956,
            0.03168630599975586,
            0.01198352687060833,
            -0.030477384105324745,
            0.025196287781000137,
            0.027214424684643745,
            0.025562888011336327,
            0.037534892559051514,
            -0.010683787055313587,
            0.03685147315263748,
            0.024987606331706047,
            -0.007436640560626984,
            0.0047516366466879845,
            -0.021893959492444992,
            -0.011298635974526405,
            -0.01706741563975811,
            -0.030789969488978386,
            -0.013134351931512356,
            0.0240364708006382,
            -0.014005441218614578,
            -0.01685723103582859,
            -0.0065429555252194405,
            0.03464775159955025,
            -0.010787270031869411,
            -0.014739658683538437,
            -0.0020605463068932295,
            0.03065294772386551,
            0.010320337489247322,
            0.03211945295333862,
            -0.027688737958669662,
            0.023783771321177483,
            0.0009637892944738269,
            -0.012480052188038826,
            -0.00023205869365483522,
            0.028927601873874664,
            0.022564351558685303,
            -0.002175241708755493,
            0.03288620710372925,
            0.024933813139796257,
            -0.028240637853741646,
            -0.044483039528131485,
            0.01374298520386219,
            -0.006225194316357374,
            0.005680450703948736,
            0.005198671482503414,
            -0.00022870699467603117,
            0.009778388775885105,
            -0.02724205143749714,
            -0.009947785176336765,
            -0.0274197980761528,
            0.014304381795227528,
            0.03515161573886871,
            0.021519644185900688,
            0.023319754749536514,
            0.03377002105116844,
            0.02432441897690296,
            -0.021617015823721886,
            -0.00882070790976286,
            -0.034832388162612915,
            -0.017898527905344963,
            -0.04058954492211342,
            -0.019775889813899994,
            0.019328001886606216,
            0.04723319411277771,
            0.05917208641767502,
            0.021663691848516464,
            0.014320159330964088,
            0.04705766588449478,
            0.037092410027980804,
            -0.01651274412870407,
            0.016353705897927284,
            0.012600705027580261,
            -0.00235740072093904,
            0.005501339677721262,
            -0.018756607547402382,
            0.02096380852162838,
            0.028076987713575363,
            0.009910746477544308,
            0.01751505583524704,
            -0.02442595548927784,
            0.013641288504004478,
            -0.036077093333005905,
            0.02575654350221157,
            -0.0012242950033396482,
            0.013631206937134266,
            -0.005898081697523594,
            -0.016643578186631203,
            -0.0376313142478466,
            -0.05008944869041443,
            0.014971843920648098,
            -0.022579051554203033,
            0.054364752024412155,
            0.03155100345611572,
            0.06879081577062607,
            0.067855603992939,
            0.06500321626663208,
            0.002323632361367345,
            0.03843171149492264,
            0.006154130212962627,
            0.03946545720100403,
            -0.017479021102190018,
            0.038639768958091736,
            0.03853556513786316,
            0.027386553585529327,
            0.008660700172185898,
            0.028389666229486465,
            0.004581957124173641,
            0.018134595826268196,
            -0.022723734378814697,
            0.03145455941557884,
            0.0038594005163758993,
            -0.037063490599393845,
            -0.012646710500121117,
            -0.023801997303962708,
            -0.0255579836666584,
            -0.04386075958609581,
            -0.0070578670129179955,
            0.0020359947811812162,
            0.01307644136250019,
            -0.010502413846552372,
            0.054811738431453705,
            0.01999250240623951,
            0.03421271964907646,
            0.03575943037867546,
            0.012362102046608925,
            0.017714666202664375,
            0.03641778230667114,
            0.0015098947333171964,
            0.024173526093363762,
            0.03575502336025238,
            6.194516754476354e-05,
            0.035086944699287415,
            0.02343876287341118,
            0.003937202971428633,
            0.029920142143964767,
            0.019142616540193558,
            -0.021892229095101357,
            0.011579334735870361,
            -0.008899030275642872,
            -0.023571470752358437,
            0.0017257797298952937,
            -0.0328449048101902,
            -0.005509940441697836,
            -0.03603266179561615,
            -0.03139067441225052,
            -0.019263066351413727,
            0.03399381414055824,
            0.01367934886366129,
            -0.01159631460905075,
            -0.01298713032156229,
            0.04747181013226509,
            0.0018598128808662295,
            0.013801481574773788,
            -0.004639762919396162,
            0.004549579229205847,
            0.03744009509682655,
            0.02233169786632061,
            -0.009836973622441292,
            -0.018571849912405014,
            0.03308878093957901,
            0.010198996402323246,
            0.008660300634801388,
            -0.011328043416142464,
            -0.03075718879699707,
            -0.018308350816369057,
            0.02333621121942997,
            0.009941941127181053,
            -0.010405315086245537,
            -0.01953418180346489,
            -0.01455974206328392,
            0.013552728109061718,
            0.02452954836189747,
            -0.003520607715472579,
            -0.02091870829463005,
            0.0052139344625175,
            -0.01853094808757305,
            0.031072229146957397,
            0.0648593083024025,
            0.013019050471484661,
            -0.043191567063331604,
            -0.005915966350585222,
            -0.02128203585743904,
            -0.037104882299900055,
            0.012537192553281784,
            -0.032338447868824005,
            -0.03705010563135147,
            0.027297310531139374,
            -0.01975914090871811,
            0.035483282059431076,
            -0.025860991328954697,
            -0.001310752471908927,
            0.030697405338287354,
            -0.018909264355897903,
            0.012314229272305965,
            0.0012187185930088162,
            -0.02983449026942253,
            -0.011813345365226269,
            0.030874963849782944,
            -0.0037029357627034187,
            0.02436022274196148,
            0.016913993284106255,
            -0.006846282165497541,
            -0.006992019712924957,
            -0.002828824333846569,
            0.019736535847187042,
            0.09979626536369324,
            0.014162388630211353,
            -0.028953181579709053,
            0.014626231975853443,
            -0.012761100195348263,
            -0.00970359705388546,
            -0.0495157316327095,
            -0.05605122074484825,
            -0.029644345864653587,
            -0.04244165122509003,
            -0.03327528014779091,
            -0.02744245156645775,
            0.013484299182891846,
            -0.025730004534125328,
            0.03026515059173107,
            0.018444741144776344,
            -0.023361628875136375,
            -0.01925576478242874,
            0.009756037965416908,
            -0.012467137537896633,
            0.022656014189124107,
            -0.019073009490966797,
            0.013878393918275833,
            -0.019116725772619247,
            -0.020665057003498077,
            -0.01716442219913006,
            0.024244364351034164,
            0.07136509567499161,
            0.0844375267624855,
            0.054866984486579895,
            -0.035665273666381836,
            -0.006906825117766857,
            -0.03420257568359375,
            -0.03589732199907303,
            -0.006504083052277565,
            -0.048509012907743454,
            0.012395682744681835,
            -0.05031130462884903,
            -0.010303696617484093,
            -0.027636904269456863,
            -0.010613364167511463,
            -0.026463396847248077,
            -0.0008302154601551592,
            -0.024663709104061127,
            0.03202466294169426,
            0.015104295685887337,
            0.013416497968137264,
            -0.023151744157075882,
            -0.019001595675945282,
            0.0034429312217980623,
            0.03395708277821541,
            -0.009342323057353497,
            -0.04245826229453087,
            -0.045505866408348083,
            -0.011069780215620995,
            0.09432774782180786,
            0.05661358684301376,
            0.046986982226371765,
            -0.042967673391103745,
            -0.02236030250787735,
            -0.024993356317281723,
            -0.04039080813527107,
            -0.0478367805480957,
            -0.012949229218065739,
            -0.02608613856136799,
            -0.02043856494128704,
            -0.0216656681150198,
            -0.01761859655380249,
            0.02129974588751793,
            0.012392004020512104,
            -0.017355099320411682,
            -0.033050063997507095,
            -0.00014017381181474775,
            -0.03444288671016693,
            0.02919308841228485,
            -0.009010768495500088,
            -0.033288661390542984,
            0.02332857809960842,
            0.029194070026278496,
            0.03149279206991196,
            0.0012772601330652833,
            -0.00980690773576498,
            -0.01796669512987137,
            0.04708384722471237,
            0.07271812856197357,
            0.01791013404726982,
            -0.022632727399468422,
            0.0035078662913292646,
            -0.005501030944287777,
            -0.04418225213885307,
            -0.018790245056152344,
            -0.04908498749136925,
            0.018267150968313217,
            0.01760893687605858,
            -0.040557533502578735,
            -0.03189094364643097,
            -0.009129167534410954,
            0.012403910979628563,
            0.015237867832183838,
            0.030057286843657494,
            0.007296030409634113,
            0.001960622612386942,
            -0.027047980576753616,
            -0.03027266450226307,
            -0.0268910750746727,
            -0.023602692410349846,
            0.01405397616326809,
            0.027945512905716896,
            0.0075236959382891655,
            0.009951957501471043,
            -0.0030342296231538057,
            0.051263220608234406,
            0.013078359887003899,
            -0.030573450028896332,
            -0.06984473019838333,
            -0.015687676146626472,
            -0.060269005596637726,
            -0.043530650436878204,
            -0.042481470853090286,
            -0.040492989122867584,
            0.01071934960782528,
            -0.010633237659931183,
            0.031408317387104034,
            0.022843336686491966,
            -0.03197668120265007,
            -0.007182334549725056,
            -0.017113981768488884,
            -5.054775101598352e-05,
            0.011009573936462402,
            -0.0025521039497107267,
            -0.014536222442984581,
            0.016891591250896454,
            0.004282697569578886,
            -0.021158212795853615,
            -0.03145550563931465,
            -0.029012976214289665,
            0.004760793410241604,
            -0.024469634518027306,
            0.02006489410996437,
            -0.010342715308070183,
            -0.023260803893208504,
            -0.06773442029953003,
            0.0002909281465690583,
            -0.007475758902728558,
            -0.04562584310770035,
            -0.011519248597323895,
            0.020852074027061462,
            0.02775382436811924,
            -0.010200426913797855,
            0.018080025911331177,
            0.006924862507730722,
            -0.019360974431037903,
            0.02975538745522499,
            -0.0017410009168088436,
            0.026331953704357147,
            -0.01810590922832489,
            0.03288528323173523,
            -0.014418504200875759,
            -0.005998103879392147,
            0.00014341218047775328,
            -0.0011344191152602434,
            -0.060259006917476654,
            -0.031355950981378555,
            -0.07358600199222565,
            -0.07999734580516815,
            -0.0678665041923523,
            -0.05543152242898941,
            -0.035949259996414185,
            -0.07183192670345306,
            -0.005475054029375315,
            -0.04808828979730606,
            -0.0406535379588604,
            -0.03742629289627075,
            0.021549802273511887,
            -0.008879044093191624,
            -0.017831893637776375,
            -0.015623343177139759,
            -0.006826655939221382,
            -0.013206785544753075,
            0.03195580840110779,
            -0.0026179056148976088,
            0.0007823953637853265,
            -0.004262828733772039,
            0.010975375771522522,
            0.011397148482501507,
            0.020304864272475243,
            0.017390798777341843,
            -0.0249200277030468,
            0.03167170286178589,
            -0.01339005958288908,
            -0.03127718344330788,
            -0.06416214257478714,
            -0.07504171878099442,
            -0.07820611447095871,
            -0.08411838114261627,
            -0.02605963870882988,
            -0.03340432420372963,
            -0.021518157795071602,
            -0.02072988450527191,
            0.039175935089588165,
            0.010969679802656174,
            0.0043289512395858765,
            0.0076821050606667995,
            -0.011010718531906605,
            0.010253122076392174,
            0.007263811770826578,
            0.02435302548110485,
            -0.009277630597352982,
            0.033362749963998795,
            -0.0029276178684085608,
            0.008296958170831203,
            -0.030423108488321304,
            0.008385790511965752,
            1.6248843166977167e-05,
            0.028310256078839302,
            -0.0038586282171308994,
            0.01680927909910679,
            -0.017264774069190025,
            0.017026517540216446,
            -0.027385497465729713,
            -0.03561796620488167,
            -0.032071303576231,
            -0.08134160935878754,
            -0.03431641310453415,
            0.0027625663205981255,
            -0.01651027239859104,
            0.0006567197851836681,
            0.0018953130347654223,
            0.014704667031764984,
            0.04157435521483421,
            0.012366867624223232,
            0.03844984248280525,
            -0.024812407791614532,
            -0.008208799175918102,
            -0.036613043397665024,
            0.009012647904455662,
            -0.03262801095843315,
            -0.025524230673909187,
            0.033987320959568024,
            -0.012049317359924316,
            -0.024145720526576042,
            -0.018196143209934235,
            0.00594831258058548,
            -0.01120802853256464,
            0.03241400048136711,
            -0.011308307759463787,
            -0.0005438259686343372,
            -0.0036834508646279573,
            -0.0014713113196194172,
            -0.02279888466000557,
            -0.005808232352137566,
            -0.028514130041003227,
            0.0023060303647071123,
            -0.0283871591091156,
            0.0279974564909935,
            0.012191842310130596,
            0.031830642372369766,
            -0.030003760010004044,
            0.00379617209546268,
            -0.012798870913684368,
            0.0048778546042740345,
            -0.021427322179079056,
            0.0038105614949017763,
            0.01620635762810707,
            -0.02203194610774517,
            -0.033930703997612,
            0.019316913560032845,
            -0.02437671832740307,
            -0.01277691125869751,
            0.0031495175790041685,
            0.0018620979972183704,
            -0.005810773465782404,
            -0.001769336056895554,
            0.030529778450727463,
            0.0041512856259942055,
            0.031964294612407684,
            0.027553662657737732,
            0.022688979282975197,
            -0.01726110838353634,
            0.007848800159990788,
            0.0037637720815837383,
            0.0009103118791244924,
            -0.018704518675804138,
            0.034592438489198685,
            0.008195498958230019,
            0.025653427466750145,
            -0.023151764646172523,
            -0.008333849720656872,
            -0.01222241297364235,
            0.012174800969660282,
            0.0005258985329419374,
            -0.01661834865808487,
            0.016048569232225418,
            -0.03181285783648491,
            -0.01961474120616913,
            0.019866159185767174,
            -0.031188838183879852,
            0.01715872995555401,
            0.03868493437767029,
            0.027151888236403465,
            0.0062049939297139645,
            0.02175874449312687,
            0.027137616649270058,
            0.0006046870839782059,
            0.0488613024353981,
            0.03062387742102146,
            0.040622010827064514,
            0.029576081782579422,
            0.037143297493457794,
            0.03607652708888054,
            0.04756871983408928,
            0.039864808320999146,
            0.039164427667856216,
            0.01532178744673729,
            0.03670300915837288,
            -0.005471799988299608,
            -0.025678835809230804,
            0.019741155207157135,
            -0.007553980685770512,
            0.00347354868426919,
            0.024274898692965508,
            0.01314493641257286,
            0.01311240904033184,
            0.01808963529765606,
            0.010928479954600334,
            -0.03037002868950367,
            0.02570963092148304,
            -0.017557626590132713,
            -0.009374836459755898,
            0.006120404228568077,
            0.027626654133200645,
            0.0006108519737608731,
            0.011594660580158234,
            0.045121192932128906,
            0.021868716925382614,
            0.043703366070985794,
            0.01473795436322689,
            0.022791152819991112,
            -0.0014943574788048863,
            0.05218908190727234,
            0.01756824180483818,
            -0.029842358082532883,
            0.002821641508489847,
            -0.011788166128098965,
            -0.01304856687784195,
            -0.011342980898916721,
            -0.00015823476132936776,
            0.02190183661878109,
            -0.008171153254806995,
            0.011176620610058308,
            0.018686581403017044,
            -0.019407957792282104,
            -0.01497129537165165,
            0.03256135433912277,
            -0.015633558854460716,
            0.03104112669825554,
            0.008509347215294838,
            -0.00888453796505928,
            0.010274752043187618,
            -0.017027568072080612,
            0.05036300793290138,
            0.03146648034453392,
            0.0009259657235816121,
            -0.023869041353464127,
            0.002549106488004327,
            0.028764698654413223,
            0.01073108334094286,
            -0.0005150920478627086,
            -0.00926805566996336,
            0.004373794421553612,
            -0.03019527532160282,
            -0.016344664618372917,
            0.007344983052462339,
            0.012156720273196697,
            -0.011791658587753773,
            -0.005505213513970375,
            0.02812993712723255,
            -0.03228380158543587,
            -0.007069524377584457,
            0.004792145453393459,
            0.013876352459192276,
            0.017485808581113815,
            0.032733526080846786,
            -0.011460930109024048,
            -0.0007124962285161018,
            -0.004791964776813984,
            -0.006698597688227892,
            0.02170318365097046,
            0.007021382451057434,
            0.00900107342749834,
            0.03501344472169876,
            0.0026603988371789455,
            0.029833346605300903,
            0.01607762649655342,
            0.021206161007285118,
            -0.007356215734034777,
            -0.001651828526519239,
            -0.016638444736599922,
            -0.015183490701019764,
            0.0033618842717260122,
            0.00381694664247334,
            -0.017453541979193687,
            0.018224919214844704,
            -0.01014537364244461,
            -0.03355618193745613,
            0.005409811623394489,
            0.033838558942079544,
            -0.02233632653951645,
            0.018549025058746338,
            -0.031149180606007576,
            -0.03232194483280182,
            0.018552150577306747,
            -0.03029990755021572,
            0.008183027617633343,
            -0.0011087274178862572,
            0.023317478597164154,
            -0.009488539770245552,
            0.009603811427950859,
            4.333286051405594e-05,
            0.021209368482232094,
            0.032912492752075195,
            0.01069470401853323,
            -0.02307736501097679,
            0.01893487572669983,
            -0.02813738025724888,
            0.031979598104953766,
            -0.026877112686634064,
            0.03651285544037819,
            0.028942245990037918,
            0.00046311281039379537,
            -0.018913473933935165,
            -0.004778261762112379,
            -0.007359973154962063,
            0.016176126897335052,
            0.0039057221729308367,
            0.0011156542459502816,
            0.00443112850189209,
            -0.017246868461370468,
            -0.022995317354798317,
            0.020179511979222298,
            0.013064264319837093,
            -0.03151089325547218,
            0.009312857873737812,
            -0.03542609512805939,
            0.02537393942475319,
            0.0036929671186953783,
            -0.017680104821920395,
            -0.021714022383093834,
            -0.007505957502871752,
            -0.01412813737988472,
            -0.021475017070770264,
            -0.020733259618282318,
            0.016475269570946693,
            -0.03173259273171425,
            -0.009330066852271557,
            0.032809510827064514,
            0.020991355180740356,
            0.023822491988539696,
            0.018666518852114677,
            -0.009674089960753918,
            0.012249376624822617,
            -0.026828281581401825
        ],
        [
            -0.011090407148003578,
            0.011224321089684963,
            0.010734239593148232,
            0.021465515717864037,
            -0.004000702407211065,
            0.0295366533100605,
            -0.02353587932884693,
            -0.028974350541830063,
            0.03167874366044998,
            0.01920429803431034,
            0.03306031972169876,
            -0.021844280883669853,
            0.01019198540598154,
            -0.020196760073304176,
            0.0007815702119842172,
            0.022720081731677055,
            0.02458254061639309,
            -0.013181512244045734,
            -0.011741800233721733,
            -0.018724698573350906,
            -0.026002008467912674,
            -0.012733932584524155,
            0.034772127866744995,
            0.005323512479662895,
            -0.025613542646169662,
            0.014023926109075546,
            0.0204058475792408,
            0.026430973783135414,
            0.0248444601893425,
            0.020767400041222572,
            0.013739284127950668,
            -0.02309330925345421,
            -0.02472727745771408,
            0.031949643045663834,
            0.0017513163620606065,
            -0.0167689248919487,
            -0.00033163235639221966,
            0.012646093033254147,
            0.00962876807898283,
            -0.025394273921847343,
            -0.03283540904521942,
            -0.022457418963313103,
            -0.0072799548506736755,
            -0.028436947613954544,
            0.0034398632124066353,
            0.008430816233158112,
            -0.0034023504704236984,
            0.006634694058448076,
            -0.008383738808333874,
            -0.00786830298602581,
            -0.027259239926934242,
            0.030356701463460922,
            -0.00409314502030611,
            -0.01692928746342659,
            -0.035146914422512054,
            0.01028541661798954,
            -0.03219149634242058,
            -0.025551239028573036,
            -0.020399142056703568,
            -0.0068766288459300995,
            0.003240865422412753,
            -0.013916385360062122,
            0.022462891414761543,
            -0.00753701152279973,
            0.029450004920363426,
            0.022721363231539726,
            -0.020931843668222427,
            0.009539988823235035,
            0.03127230703830719,
            -0.019178660586476326,
            -0.001990747405216098,
            -0.022541014477610588,
            0.031845491379499435,
            0.03619306907057762,
            -0.008702069520950317,
            0.029637137427926064,
            0.0052601974457502365,
            -0.0259032491594553,
            0.03170385956764221,
            0.004597436636686325,
            -0.007152676582336426,
            0.0221791323274374,
            0.032581429928541183,
            0.013790939934551716,
            -0.019018037244677544,
            -0.019930772483348846,
            0.010005115531384945,
            0.028415467590093613,
            -0.02314569428563118,
            -0.01808866485953331,
            0.032008860260248184,
            0.019451502710580826,
            0.007946932688355446,
            0.01427049096673727,
            0.03204084560275078,
            -0.028684144839644432,
            0.019912593066692352,
            0.0467362217605114,
            0.029035408049821854,
            0.033310666680336,
            0.05103375017642975,
            0.0420866385102272,
            0.01860537938773632,
            0.003981166053563356,
            0.013027366250753403,
            0.019867021590471268,
            -0.03232680633664131,
            -0.020982693880796432,
            -0.033706579357385635,
            0.01805182360112667,
            -0.007537623401731253,
            -0.02618848904967308,
            -0.002381192985922098,
            0.011367538943886757,
            0.004666771274060011,
            0.02419378235936165,
            0.020785927772521973,
            -0.013014153577387333,
            -0.031595002859830856,
            -0.004800831899046898,
            -0.020576057955622673,
            0.00929909385740757,
            -4.4764245103579015e-05,
            0.019951310008764267,
            0.0376218818128109,
            0.037397343665361404,
            0.056149862706661224,
            0.0028697464149445295,
            0.01638135500252247,
            0.01641877554357052,
            0.035708654671907425,
            -0.01622491329908371,
            -0.013639265671372414,
            0.013733860105276108,
            0.0060601807199418545,
            -0.006142081692814827,
            0.013434464111924171,
            0.027727773413062096,
            0.032147254794836044,
            -0.03161085397005081,
            -0.004358253441751003,
            0.016173047944903374,
            0.0005821664817631245,
            0.005004683043807745,
            0.011762406677007675,
            -0.01069418340921402,
            -0.017188405618071556,
            -0.010702356696128845,
            -0.023863663896918297,
            -0.02049497701227665,
            0.04057003930211067,
            0.024725880473852158,
            -0.013718735426664352,
            -0.01067473366856575,
            -0.014661058783531189,
            -0.03307005763053894,
            0.00828323233872652,
            -0.003286407794803381,
            0.012317506596446037,
            0.024845551699399948,
            0.016717741265892982,
            0.04385000467300415,
            -0.014901968650519848,
            0.052991677075624466,
            0.02549598552286625,
            -0.02334430441260338,
            0.037223562598228455,
            -0.020950675010681152,
            0.029752591624855995,
            -0.008758710697293282,
            0.012341947294771671,
            0.025306954979896545,
            -0.02771226316690445,
            -0.012979517690837383,
            0.01835857518017292,
            -0.018863825127482414,
            -0.005789199844002724,
            0.011664503253996372,
            0.05727147310972214,
            0.03573434427380562,
            0.016970498487353325,
            -0.023626413196325302,
            -0.04210938885807991,
            -0.041607774794101715,
            -0.04919717460870743,
            -0.00994198489934206,
            0.0044442396610975266,
            -0.020513253286480904,
            0.009897518903017044,
            -0.017437605187296867,
            -0.013245036825537682,
            0.06478919088840485,
            0.025444747880101204,
            -0.0058799367398023605,
            -0.007305955979973078,
            -0.009402753785252571,
            0.002251317724585533,
            -0.02164449542760849,
            0.0011532133212313056,
            0.02617914415895939,
            -0.019738946110010147,
            0.00713518587872386,
            0.0020830552093684673,
            0.011676695197820663,
            0.04085175320506096,
            0.011796963401138783,
            0.06614986807107925,
            0.007698684465140104,
            -0.017026476562023163,
            0.02631407603621483,
            0.022219225764274597,
            -0.011860380880534649,
            -0.018211137503385544,
            0.03278661146759987,
            -0.0036969934590160847,
            0.040097761899232864,
            0.012983186170458794,
            0.02907143160700798,
            0.02254270389676094,
            0.05504719540476799,
            0.03687915578484535,
            0.04070306941866875,
            0.00896866898983717,
            0.020741242915391922,
            0.005870644003152847,
            0.009263845160603523,
            0.03525333106517792,
            0.027423789724707603,
            0.013654502108693123,
            0.02249995991587639,
            0.0318618007004261,
            0.042309172451496124,
            0.008571626618504524,
            0.0458676777780056,
            0.03542734310030937,
            0.04565346613526344,
            0.017374947667121887,
            0.00670819915831089,
            -0.004374704323709011,
            -0.008924422785639763,
            -0.019344769418239594,
            -0.002849911106750369,
            0.0068831308744847775,
            0.05485518276691437,
            0.06472785770893097,
            0.04408017173409462,
            0.052198365330696106,
            0.06904211640357971,
            0.06267209351062775,
            0.06248028576374054,
            -0.001927784294821322,
            -0.024168722331523895,
            -0.02135692536830902,
            0.01718815043568611,
            0.023107780143618584,
            0.012397785671055317,
            -0.015699299052357674,
            0.026650741696357727,
            0.01341644860804081,
            0.053368326276540756,
            0.03219497948884964,
            0.05584716796875,
            0.03524570167064667,
            0.018141044303774834,
            0.023131724447011948,
            0.02968483418226242,
            0.01755506545305252,
            0.004795567132532597,
            -0.001117225387133658,
            0.0166034959256649,
            0.018808690831065178,
            -0.0016774736577644944,
            0.03679497912526131,
            0.04434112831950188,
            0.052828047424554825,
            0.01683913543820381,
            0.09549295902252197,
            0.04453582689166069,
            -0.013630976900458336,
            -0.020788023248314857,
            0.028003955259919167,
            -0.023469796404242516,
            -0.005848531611263752,
            -0.016344619914889336,
            0.03642435371875763,
            0.040073003619909286,
            0.03207729384303093,
            0.01154995895922184,
            0.02430645376443863,
            0.009493565186858177,
            0.02918211556971073,
            0.006045818794518709,
            0.01222497783601284,
            0.051500353962183,
            0.07814222574234009,
            0.014487266540527344,
            0.027318909764289856,
            -0.02376885525882244,
            -0.009292756207287312,
            0.0070569273084402084,
            -0.003459364641457796,
            0.012265646830201149,
            -0.0429358035326004,
            -0.0005777467740699649,
            0.010082061402499676,
            0.021003521978855133,
            0.0006398851401172578,
            0.023717563599348068,
            0.027144655585289,
            -0.028331268578767776,
            0.02968302182853222,
            0.037814270704984665,
            -0.006884437054395676,
            -0.009852945804595947,
            0.04734819009900093,
            0.03651806712150574,
            0.033277470618486404,
            0.03637004643678665,
            0.0201663039624691,
            0.02149203047156334,
            0.04017966240644455,
            0.055753689259290695,
            0.051120512187480927,
            0.07989399880170822,
            0.047754451632499695,
            0.023943129926919937,
            -0.057993367314338684,
            -0.015683095902204514,
            -0.07910531014204025,
            -0.10407275706529617,
            -0.0709928497672081,
            -0.06338221579790115,
            -0.043441809713840485,
            -0.007455966901034117,
            0.0350131057202816,
            -0.023337582126259804,
            -0.030633825808763504,
            -0.032393600791692734,
            -0.03240121528506279,
            -0.008837751112878323,
            0.013073869049549103,
            -0.01455039530992508,
            0.031110908836126328,
            -0.010801413096487522,
            0.04695112258195877,
            0.011736132204532623,
            0.0105452761054039,
            0.04488466680049896,
            0.06163933873176575,
            0.054255783557891846,
            0.09031480550765991,
            0.054899509996175766,
            0.026407558470964432,
            0.03413330763578415,
            0.002328892471268773,
            -0.0694580078125,
            -0.07512663304805756,
            -0.10323291271924973,
            -0.05133882910013199,
            -0.01783609949052334,
            -0.03910096734762192,
            -0.00801167357712984,
            0.01611296646296978,
            0.02103753760457039,
            -0.009062880650162697,
            -0.008526413701474667,
            -0.01689188741147518,
            -0.0219986941665411,
            0.029165837913751602,
            0.005008222535252571,
            0.0011145292082801461,
            0.030000923201441765,
            -0.0041969288140535355,
            -0.017360873520374298,
            -0.030945461243391037,
            -0.015788959339261055,
            -0.02545199915766716,
            0.05915754660964012,
            0.02240690588951111,
            0.03004257008433342,
            0.022682512179017067,
            0.009029567241668701,
            -0.028750717639923096,
            0.02255181036889553,
            -0.05248543992638588,
            -0.03557170182466507,
            -0.054048892110586166,
            -0.05530383065342903,
            0.0081784687936306,
            -0.026354670524597168,
            -0.032132867723703384,
            -0.008517615497112274,
            0.01997506432235241,
            0.024708880111575127,
            0.0020345200318843126,
            0.011418663896620274,
            0.013455918058753014,
            0.003261902369558811,
            0.004195856396108866,
            -0.03873469680547714,
            -0.029262423515319824,
            -0.010682180523872375,
            -0.015490093268454075,
            -0.07599887996912003,
            0.0003381857241038233,
            0.030142702162265778,
            0.029438864439725876,
            -3.579790427465923e-05,
            0.015827370807528496,
            0.0027308224234730005,
            0.013044473715126514,
            -0.016114898025989532,
            0.0017970860935747623,
            -0.005620617885142565,
            -0.015140377916395664,
            -0.049464158713817596,
            -0.012155264616012573,
            0.01989850215613842,
            0.02843114547431469,
            0.02713843248784542,
            0.02793184109032154,
            -0.032140083611011505,
            0.03571927919983864,
            0.0009957210859283805,
            0.005736355669796467,
            0.007164997514337301,
            -0.05626264214515686,
            -0.034298352897167206,
            -0.015931934118270874,
            -0.01256075594574213,
            -0.028552213683724403,
            -0.011746839620172977,
            -0.020604878664016724,
            0.029606729745864868,
            0.057185098528862,
            0.034481532871723175,
            -0.0391407273709774,
            -0.03214200958609581,
            -0.02878919616341591,
            -0.01895640231668949,
            -0.012447595596313477,
            0.00888417661190033,
            0.02815735712647438,
            0.018953755497932434,
            -0.013966566883027554,
            -0.003102735849097371,
            -0.003738398663699627,
            -0.019629275426268578,
            0.03310689330101013,
            -0.0247951690107584,
            -0.01273238006979227,
            0.004071956034749746,
            0.03121177852153778,
            -0.013144075870513916,
            -0.0256146602332592,
            -0.044137272983789444,
            -0.08920103311538696,
            -0.07318011671304703,
            -0.08170276880264282,
            -0.025574596598744392,
            -0.0033757120836526155,
            0.02606120891869068,
            0.030462617054581642,
            -0.003061245894059539,
            0.0006577058229595423,
            -0.036100294440984726,
            -0.0032041254453361034,
            0.006029582116752863,
            0.01561424694955349,
            -0.0003725115384440869,
            -0.016565877944231033,
            -0.02156844362616539,
            0.026199322193861008,
            -0.03056344762444496,
            -0.02997187338769436,
            0.03092954494059086,
            -0.010130967944860458,
            -0.022664779797196388,
            0.007284463848918676,
            0.03200659900903702,
            -0.0259969774633646,
            -0.012321637943387032,
            -0.05436568707227707,
            -0.06457970291376114,
            -0.09730836004018784,
            -0.11531072109937668,
            -0.08182191103696823,
            -0.11633943766355515,
            -0.056694623082876205,
            -0.03767057880759239,
            -0.0006589999538846314,
            -0.03429784998297691,
            -0.004611835815012455,
            0.044861581176519394,
            0.02514374442398548,
            0.04752130061388016,
            0.018979664891958237,
            0.04210882633924484,
            0.04198004677891731,
            0.02640080265700817,
            -0.025003449991345406,
            0.0074249813333153725,
            -0.019920336082577705,
            0.004492088221013546,
            -0.027226977050304413,
            0.015474467538297176,
            0.004023960791528225,
            0.002064079511910677,
            -0.02141631208360195,
            0.029437215998768806,
            -0.026747513562440872,
            -0.038356177508831024,
            -0.0670725405216217,
            -0.0924631804227829,
            -0.12808384001255035,
            -0.10779392719268799,
            -0.06695713102817535,
            -0.026185840368270874,
            -0.029412267729640007,
            0.034014321863651276,
            -0.021028490737080574,
            0.04929298162460327,
            0.004254525061696768,
            0.0024632050190120935,
            0.0016687338938936591,
            0.043042123317718506,
            0.009142761118710041,
            -0.024234585464000702,
            0.020009499043226242,
            -0.0254766084253788,
            0.015432657673954964,
            0.029296619817614555,
            0.01637151651084423,
            -0.008176472038030624,
            0.014742382802069187,
            0.05140698701143265,
            0.017111601307988167,
            -0.0050939894281327724,
            0.0036578935105353594,
            0.0527835339307785,
            0.011177480220794678,
            -0.006479830946773291,
            0.010176979005336761,
            -0.031207773834466934,
            0.02299642376601696,
            -0.011207480914890766,
            0.04944796860218048,
            0.03598275035619736,
            0.0480186752974987,
            0.0269771721214056,
            0.040786657482385635,
            0.04706664755940437,
            -0.006718743592500687,
            0.04439549520611763,
            -0.006783280987292528,
            0.02710762247443199,
            -0.04023072123527527,
            0.00653704022988677,
            -0.033587612211704254,
            0.01616619899868965,
            -0.018405919894576073,
            -0.011254801414906979,
            -0.008863705210387707,
            0.007290754001587629,
            0.028400693088769913,
            -0.009257150813937187,
            0.052772197872400284,
            0.0006635098834522069,
            0.027256419882178307,
